<MethodSetup Method="BDT::BDT"><Variables NVar="25"><Variable VarIndex="0" Type="F" Expression="f0" Label="f0" Title="f0" Unit="" Internal="f0" Min="0.0e+00" Max="0.0e+00" /><Variable VarIndex="1" Type="F" Expression="f1" Label="f1" Title="f1" Unit="" Internal="f1" Min="0.0e+00" Max="0.0e+00" /><Variable VarIndex="2" Type="F" Expression="f2" Label="f2" Title="f2" Unit="" Internal="f2" Min="0.0e+00" Max="0.0e+00" /><Variable VarIndex="3" Type="F" Expression="f3" Label="f3" Title="f3" Unit="" Internal="f3" Min="0.0e+00" Max="0.0e+00" /><Variable VarIndex="4" Type="F" Expression="f4" Label="f4" Title="f4" Unit="" Internal="f4" Min="0.0e+00" Max="0.0e+00" /><Variable VarIndex="5" Type="F" Expression="f5" Label="f5" Title="f5" Unit="" Internal="f5" Min="0.0e+00" Max="0.0e+00" /><Variable VarIndex="6" Type="F" Expression="f6" Label="f6" Title="f6" Unit="" Internal="f6" Min="0.0e+00" Max="0.0e+00" /><Variable VarIndex="7" Type="F" Expression="f7" Label="f7" Title="f7" Unit="" Internal="f7" Min="0.0e+00" Max="0.0e+00" /><Variable VarIndex="8" Type="F" Expression="f8" Label="f8" Title="f8" Unit="" Internal="f8" Min="0.0e+00" Max="0.0e+00" /><Variable VarIndex="9" Type="F" Expression="f9" Label="f9" Title="f9" Unit="" Internal="f9" Min="0.0e+00" Max="0.0e+00" /><Variable VarIndex="10" Type="F" Expression="f10" Label="f10" Title="f10" Unit="" Internal="f10" Min="0.0e+00" Max="0.0e+00" /><Variable VarIndex="11" Type="F" Expression="f11" Label="f11" Title="f11" Unit="" Internal="f11" Min="0.0e+00" Max="0.0e+00" /><Variable VarIndex="12" Type="F" Expression="f12" Label="f12" Title="f12" Unit="" Internal="f12" Min="0.0e+00" Max="0.0e+00" /><Variable VarIndex="13" Type="F" Expression="f13" Label="f13" Title="f13" Unit="" Internal="f13" Min="0.0e+00" Max="0.0e+00" /><Variable VarIndex="14" Type="F" Expression="f14" Label="f14" Title="f14" Unit="" Internal="f14" Min="0.0e+00" Max="0.0e+00" /><Variable VarIndex="15" Type="F" Expression="f15" Label="f15" Title="f15" Unit="" Internal="f15" Min="0.0e+00" Max="0.0e+00" /><Variable VarIndex="16" Type="F" Expression="f16" Label="f16" Title="f16" Unit="" Internal="f16" Min="0.0e+00" Max="0.0e+00" /><Variable VarIndex="17" Type="F" Expression="f17" Label="f17" Title="f17" Unit="" Internal="f17" Min="0.0e+00" Max="0.0e+00" /><Variable VarIndex="18" Type="F" Expression="f18" Label="f18" Title="f18" Unit="" Internal="f18" Min="0.0e+00" Max="0.0e+00" /><Variable VarIndex="19" Type="F" Expression="f19" Label="f19" Title="f19" Unit="" Internal="f19" Min="0.0e+00" Max="0.0e+00" /><Variable VarIndex="20" Type="F" Expression="f20" Label="f20" Title="f20" Unit="" Internal="f20" Min="0.0e+00" Max="0.0e+00" /><Variable VarIndex="21" Type="F" Expression="f21" Label="f21" Title="f21" Unit="" Internal="f21" Min="0.0e+00" Max="0.0e+00" /><Variable VarIndex="22" Type="F" Expression="f22" Label="f22" Title="f22" Unit="" Internal="f22" Min="0.0e+00" Max="0.0e+00" /><Variable VarIndex="23" Type="F" Expression="f23" Label="f23" Title="f23" Unit="" Internal="f23" Min="0.0e+00" Max="0.0e+00" /><Variable VarIndex="24" Type="F" Expression="f24" Label="f24" Title="f24" Unit="" Internal="f24" Min="0.0e+00" Max="0.0e+00" /></Variables><GeneralInfo><Info name="Creator" value="xgboost2TMVA" /><Info name="AnalysisType" value="Classification" /></GeneralInfo><Options><Option name="NodePurityLimit" modified="No">5.00e-01</Option><Option name="BoostType" modified="Yes">Grad</Option></Options><Weights NTrees="700" AnalysisType="1"><BinaryTree type="DecisionTree" boostWeight="1.0e+00" itree="0"><Node pos="s" depth="0" NCoef="0" IVar="13" Cut="227453.281" cType="1" res="0.0e+00" rms="0.0e+00" purity="0.0e+00" nType="0"><Node pos="l" depth="1" NCoef="0" IVar="-1" Cut="0.0e+00" cType="1" res="0.110526308" rms="0.0e+00" purity="0.0e+00" nType="-99" /><Node pos="r" depth="1" NCoef="0" IVar="-1" Cut="0.0e+00" cType="1" res="-0.141106725" rms="0.0e+00" purity="0.0e+00" nType="-99" /></Node></BinaryTree><BinaryTree type="DecisionTree" boostWeight="1.0e+00" itree="1"><Node pos="s" depth="0" NCoef="0" IVar="5" Cut="0.405697495" cType="1" res="0.0e+00" rms="0.0e+00" purity="0.0e+00" nType="0"><Node pos="l" depth="1" NCoef="0" IVar="-1" Cut="0.0e+00" cType="1" res="0.173394501" rms="0.0e+00" purity="0.0e+00" nType="-99" /><Node pos="r" depth="1" NCoef="0" IVar="-1" Cut="0.0e+00" cType="1" res="-0.144043326" rms="0.0e+00" purity="0.0e+00" nType="-99" /></Node></BinaryTree><BinaryTree type="DecisionTree" boostWeight="1.0e+00" itree="2"><Node pos="s" depth="0" NCoef="0" IVar="8" Cut="0.0184535012" cType="1" res="0.0e+00" rms="0.0e+00" purity="0.0e+00" nType="0"><Node pos="l" depth="1" NCoef="0" IVar="7" Cut="0.940328479" cType="1" res="0.0e+00" rms="0.0e+00" purity="0.0e+00" nType="0"><Node pos="l" depth="2" NCoef="0" IVar="-1" Cut="0.0e+00" cType="1" res="0.799024403" rms="0.0e+00" purity="0.0e+00" nType="-99" /><Node pos="r" depth="2" NCoef="0" IVar="-1" Cut="0.0e+00" cType="1" res="0.173394501" rms="0.0e+00" purity="0.0e+00" nType="-99" /></Node><Node pos="r" depth="1" NCoef="0" IVar="-1" Cut="0.0e+00" cType="1" res="-0.104132235" rms="0.0e+00" purity="0.0e+00" nType="-99" /></Node></BinaryTree><BinaryTree type="DecisionTree" boostWeight="1.0e+00" itree="3"><Node pos="s" depth="0" NCoef="0" IVar="0" Cut="1.97831953" cType="1" res="0.0e+00" rms="0.0e+00" purity="0.0e+00" nType="0"><Node pos="l" depth="1" NCoef="0" IVar="-1" Cut="0.0e+00" cType="1" res="-0.144043326" rms="0.0e+00" purity="0.0e+00" nType="-99" /><Node pos="r" depth="1" NCoef="0" IVar="-1" Cut="0.0e+00" cType="1" res="0.0385321081" rms="0.0e+00" purity="0.0e+00" nType="-99" /></Node></BinaryTree><BinaryTree type="DecisionTree" boostWeight="1.0e+00" itree="4"><Node pos="s" depth="0" NCoef="0" IVar="0" Cut="1.53059101" cType="1" res="0.0e+00" rms="0.0e+00" purity="0.0e+00" nType="0"><Node pos="l" depth="1" NCoef="0" IVar="-1" Cut="0.0e+00" cType="1" res="0.173394501" rms="0.0e+00" purity="0.0e+00" nType="-99" /><Node pos="r" depth="1" NCoef="0" IVar="-1" Cut="0.0e+00" cType="1" res="-0.144043326" rms="0.0e+00" purity="0.0e+00" nType="-99" /></Node></BinaryTree><BinaryTree type="DecisionTree" boostWeight="1.0e+00" itree="5"><Node pos="s" depth="0" NCoef="0" IVar="0" Cut="1.53059101" cType="1" res="0.0e+00" rms="0.0e+00" purity="0.0e+00" nType="0"><Node pos="l" depth="1" NCoef="0" IVar="-1" Cut="0.0e+00" cType="1" res="0.0385321081" rms="0.0e+00" purity="0.0e+00" nType="-99" /><Node pos="r" depth="1" NCoef="0" IVar="-1" Cut="0.0e+00" cType="1" res="-0.144043326" rms="0.0e+00" purity="0.0e+00" nType="-99" /></Node></BinaryTree><BinaryTree type="DecisionTree" boostWeight="1.0e+00" itree="6"><Node pos="s" depth="0" NCoef="0" IVar="0" Cut="1.53059101" cType="1" res="0.0e+00" rms="0.0e+00" purity="0.0e+00" nType="0"><Node pos="l" depth="1" NCoef="0" IVar="-1" Cut="0.0e+00" cType="1" res="0.0385321081" rms="0.0e+00" purity="0.0e+00" nType="-99" /><Node pos="r" depth="1" NCoef="0" IVar="-1" Cut="0.0e+00" cType="1" res="-0.144043326" rms="0.0e+00" purity="0.0e+00" nType="-99" /></Node></BinaryTree><BinaryTree type="DecisionTree" boostWeight="1.0e+00" itree="7"><Node pos="s" depth="0" NCoef="0" IVar="13" Cut="227453.281" cType="1" res="0.0e+00" rms="0.0e+00" purity="0.0e+00" nType="0"><Node pos="l" depth="1" NCoef="0" IVar="-1" Cut="0.0e+00" cType="1" res="0.0963714868" rms="0.0e+00" purity="0.0e+00" nType="-99" /><Node pos="r" depth="1" NCoef="0" IVar="-1" Cut="0.0e+00" cType="1" res="-0.133924335" rms="0.0e+00" purity="0.0e+00" nType="-99" /></Node></BinaryTree><BinaryTree type="DecisionTree" boostWeight="1.0e+00" itree="8"><Node pos="s" depth="0" NCoef="0" IVar="5" Cut="0.396535516" cType="1" res="0.0e+00" rms="0.0e+00" purity="0.0e+00" nType="0"><Node pos="l" depth="1" NCoef="0" IVar="-1" Cut="0.0e+00" cType="1" res="0.192982286" rms="0.0e+00" purity="0.0e+00" nType="-99" /><Node pos="r" depth="1" NCoef="0" IVar="-1" Cut="0.0e+00" cType="1" res="-0.139122307" rms="0.0e+00" purity="0.0e+00" nType="-99" /></Node></BinaryTree><BinaryTree type="DecisionTree" boostWeight="1.0e+00" itree="9"><Node pos="s" depth="0" NCoef="0" IVar="8" Cut="0.0184535012" cType="1" res="0.0e+00" rms="0.0e+00" purity="0.0e+00" nType="0"><Node pos="l" depth="1" NCoef="0" IVar="7" Cut="0.946264505" cType="1" res="0.0e+00" rms="0.0e+00" purity="0.0e+00" nType="0"><Node pos="l" depth="2" NCoef="0" IVar="-1" Cut="0.0e+00" cType="1" res="0.448826045" rms="0.0e+00" purity="0.0e+00" nType="-99" /><Node pos="r" depth="2" NCoef="0" IVar="-1" Cut="0.0e+00" cType="1" res="0.0403771363" rms="0.0e+00" purity="0.0e+00" nType="-99" /></Node><Node pos="r" depth="1" NCoef="0" IVar="-1" Cut="0.0e+00" cType="1" res="-0.100561678" rms="0.0e+00" purity="0.0e+00" nType="-99" /></Node></BinaryTree><BinaryTree type="DecisionTree" boostWeight="1.0e+00" itree="10"><Node pos="s" depth="0" NCoef="0" IVar="23" Cut="0.234286994" cType="1" res="0.0e+00" rms="0.0e+00" purity="0.0e+00" nType="0"><Node pos="l" depth="1" NCoef="0" IVar="-1" Cut="0.0e+00" cType="1" res="-0.137994871" rms="0.0e+00" purity="0.0e+00" nType="-99" /><Node pos="r" depth="1" NCoef="0" IVar="-1" Cut="0.0e+00" cType="1" res="0.0469525866" rms="0.0e+00" purity="0.0e+00" nType="-99" /></Node></BinaryTree><BinaryTree type="DecisionTree" boostWeight="1.0e+00" itree="11"><Node pos="s" depth="0" NCoef="0" IVar="3" Cut="0.109404996" cType="1" res="0.0e+00" rms="0.0e+00" purity="0.0e+00" nType="0"><Node pos="l" depth="1" NCoef="0" IVar="-1" Cut="0.0e+00" cType="1" res="0.19885543" rms="0.0e+00" purity="0.0e+00" nType="-99" /><Node pos="r" depth="1" NCoef="0" IVar="-1" Cut="0.0e+00" cType="1" res="-0.139949992" rms="0.0e+00" purity="0.0e+00" nType="-99" /></Node></BinaryTree><BinaryTree type="DecisionTree" boostWeight="1.0e+00" itree="12"><Node pos="s" depth="0" NCoef="0" IVar="9" Cut="0.00739699975" cType="1" res="0.0e+00" rms="0.0e+00" purity="0.0e+00" nType="0"><Node pos="l" depth="1" NCoef="0" IVar="-1" Cut="0.0e+00" cType="1" res="-0.138714775" rms="0.0e+00" purity="0.0e+00" nType="-99" /><Node pos="r" depth="1" NCoef="0" IVar="-1" Cut="0.0e+00" cType="1" res="0.061754901" rms="0.0e+00" purity="0.0e+00" nType="-99" /></Node></BinaryTree><BinaryTree type="DecisionTree" boostWeight="1.0e+00" itree="13"><Node pos="s" depth="0" NCoef="0" IVar="2" Cut="1.48194599" cType="1" res="0.0e+00" rms="0.0e+00" purity="0.0e+00" nType="0"><Node pos="l" depth="1" NCoef="0" IVar="-1" Cut="0.0e+00" cType="1" res="0.0611903481" rms="0.0e+00" purity="0.0e+00" nType="-99" /><Node pos="r" depth="1" NCoef="0" IVar="-1" Cut="0.0e+00" cType="1" res="-0.138651609" rms="0.0e+00" purity="0.0e+00" nType="-99" /></Node></BinaryTree><BinaryTree type="DecisionTree" boostWeight="1.0e+00" itree="14"><Node pos="s" depth="0" NCoef="0" IVar="13" Cut="227453.281" cType="1" res="0.0e+00" rms="0.0e+00" purity="0.0e+00" nType="0"><Node pos="l" depth="1" NCoef="0" IVar="-1" Cut="0.0e+00" cType="1" res="0.0835097656" rms="0.0e+00" purity="0.0e+00" nType="-99" /><Node pos="r" depth="1" NCoef="0" IVar="-1" Cut="0.0e+00" cType="1" res="-0.12707907" rms="0.0e+00" purity="0.0e+00" nType="-99" /></Node></BinaryTree><BinaryTree type="DecisionTree" boostWeight="1.0e+00" itree="15"><Node pos="s" depth="0" NCoef="0" IVar="5" Cut="0.396535516" cType="1" res="0.0e+00" rms="0.0e+00" purity="0.0e+00" nType="0"><Node pos="l" depth="1" NCoef="0" IVar="-1" Cut="0.0e+00" cType="1" res="0.164799511" rms="0.0e+00" purity="0.0e+00" nType="-99" /><Node pos="r" depth="1" NCoef="0" IVar="-1" Cut="0.0e+00" cType="1" res="-0.132444054" rms="0.0e+00" purity="0.0e+00" nType="-99" /></Node></BinaryTree><BinaryTree type="DecisionTree" boostWeight="1.0e+00" itree="16"><Node pos="s" depth="0" NCoef="0" IVar="8" Cut="0.0184535012" cType="1" res="0.0e+00" rms="0.0e+00" purity="0.0e+00" nType="0"><Node pos="l" depth="1" NCoef="0" IVar="7" Cut="0.946264505" cType="1" res="0.0e+00" rms="0.0e+00" purity="0.0e+00" nType="0"><Node pos="l" depth="2" NCoef="0" IVar="-1" Cut="0.0e+00" cType="1" res="0.32155779" rms="0.0e+00" purity="0.0e+00" nType="-99" /><Node pos="r" depth="2" NCoef="0" IVar="-1" Cut="0.0e+00" cType="1" res="0.0297882389" rms="0.0e+00" purity="0.0e+00" nType="-99" /></Node><Node pos="r" depth="1" NCoef="0" IVar="-1" Cut="0.0e+00" cType="1" res="-0.0976118967" rms="0.0e+00" purity="0.0e+00" nType="-99" /></Node></BinaryTree><BinaryTree type="DecisionTree" boostWeight="1.0e+00" itree="17"><Node pos="s" depth="0" NCoef="0" IVar="10" Cut="0.0853990018" cType="1" res="0.0e+00" rms="0.0e+00" purity="0.0e+00" nType="0"><Node pos="l" depth="1" NCoef="0" IVar="-1" Cut="0.0e+00" cType="1" res="-0.133002549" rms="0.0e+00" purity="0.0e+00" nType="-99" /><Node pos="r" depth="1" NCoef="0" IVar="-1" Cut="0.0e+00" cType="1" res="0.0597411469" rms="0.0e+00" purity="0.0e+00" nType="-99" /></Node></BinaryTree><BinaryTree type="DecisionTree" boostWeight="1.0e+00" itree="18"><Node pos="s" depth="0" NCoef="0" IVar="1" Cut="0.155913994" cType="1" res="0.0e+00" rms="0.0e+00" purity="0.0e+00" nType="0"><Node pos="l" depth="1" NCoef="0" IVar="-1" Cut="0.0e+00" cType="1" res="0.170513973" rms="0.0e+00" purity="0.0e+00" nType="-99" /><Node pos="r" depth="1" NCoef="0" IVar="-1" Cut="0.0e+00" cType="1" res="-0.134243608" rms="0.0e+00" purity="0.0e+00" nType="-99" /></Node></BinaryTree><BinaryTree type="DecisionTree" boostWeight="1.0e+00" itree="19"><Node pos="s" depth="0" NCoef="0" IVar="2" Cut="1.48194599" cType="1" res="0.0e+00" rms="0.0e+00" purity="0.0e+00" nType="0"><Node pos="l" depth="1" NCoef="0" IVar="-1" Cut="0.0e+00" cType="1" res="0.0613301881" rms="0.0e+00" purity="0.0e+00" nType="-99" /><Node pos="r" depth="1" NCoef="0" IVar="-1" Cut="0.0e+00" cType="1" res="-0.133015692" rms="0.0e+00" purity="0.0e+00" nType="-99" /></Node></BinaryTree><BinaryTree type="DecisionTree" boostWeight="1.0e+00" itree="20"><Node pos="s" depth="0" NCoef="0" IVar="8" Cut="0.0185180008" cType="1" res="0.0e+00" rms="0.0e+00" purity="0.0e+00" nType="0"><Node pos="l" depth="1" NCoef="0" IVar="-1" Cut="0.0e+00" cType="1" res="-0.131927073" rms="0.0e+00" purity="0.0e+00" nType="-99" /><Node pos="r" depth="1" NCoef="0" IVar="-1" Cut="0.0e+00" cType="1" res="0.0529976226" rms="0.0e+00" purity="0.0e+00" nType="-99" /></Node></BinaryTree><BinaryTree type="DecisionTree" boostWeight="1.0e+00" itree="21"><Node pos="s" depth="0" NCoef="0" IVar="10" Cut="0.0524355024" cType="1" res="0.0e+00" rms="0.0e+00" purity="0.0e+00" nType="0"><Node pos="l" depth="1" NCoef="0" IVar="-1" Cut="0.0e+00" cType="1" res="0.0814126208" rms="0.0e+00" purity="0.0e+00" nType="-99" /><Node pos="r" depth="1" NCoef="0" IVar="-1" Cut="0.0e+00" cType="1" res="-0.124277771" rms="0.0e+00" purity="0.0e+00" nType="-99" /></Node></BinaryTree><BinaryTree type="DecisionTree" boostWeight="1.0e+00" itree="22"><Node pos="s" depth="0" NCoef="0" IVar="7" Cut="0.946264505" cType="1" res="0.0e+00" rms="0.0e+00" purity="0.0e+00" nType="0"><Node pos="l" depth="1" NCoef="0" IVar="-1" Cut="0.0e+00" cType="1" res="-0.127871394" rms="0.0e+00" purity="0.0e+00" nType="-99" /><Node pos="r" depth="1" NCoef="0" IVar="-1" Cut="0.0e+00" cType="1" res="0.14589186" rms="0.0e+00" purity="0.0e+00" nType="-99" /></Node></BinaryTree><BinaryTree type="DecisionTree" boostWeight="1.0e+00" itree="23"><Node pos="s" depth="0" NCoef="0" IVar="8" Cut="0.0184535012" cType="1" res="0.0e+00" rms="0.0e+00" purity="0.0e+00" nType="0"><Node pos="l" depth="1" NCoef="0" IVar="23" Cut="0.0519265011" cType="1" res="0.0e+00" rms="0.0e+00" purity="0.0e+00" nType="0"><Node pos="l" depth="2" NCoef="0" IVar="-1" Cut="0.0e+00" cType="1" res="0.0128221074" rms="0.0e+00" purity="0.0e+00" nType="-99" /><Node pos="r" depth="2" NCoef="0" IVar="-1" Cut="0.0e+00" cType="1" res="0.256289989" rms="0.0e+00" purity="0.0e+00" nType="-99" /></Node><Node pos="r" depth="1" NCoef="0" IVar="-1" Cut="0.0e+00" cType="1" res="-0.0943760425" rms="0.0e+00" purity="0.0e+00" nType="-99" /></Node></BinaryTree><BinaryTree type="DecisionTree" boostWeight="1.0e+00" itree="24"><Node pos="s" depth="0" NCoef="0" IVar="2" Cut="1.73137951" cType="1" res="0.0e+00" rms="0.0e+00" purity="0.0e+00" nType="0"><Node pos="l" depth="1" NCoef="0" IVar="-1" Cut="0.0e+00" cType="1" res="-0.127012476" rms="0.0e+00" purity="0.0e+00" nType="-99" /><Node pos="r" depth="1" NCoef="0" IVar="-1" Cut="0.0e+00" cType="1" res="0.0618081614" rms="0.0e+00" purity="0.0e+00" nType="-99" /></Node></BinaryTree><BinaryTree type="DecisionTree" boostWeight="1.0e+00" itree="25"><Node pos="s" depth="0" NCoef="0" IVar="3" Cut="0.109404996" cType="1" res="0.0e+00" rms="0.0e+00" purity="0.0e+00" nType="0"><Node pos="l" depth="1" NCoef="0" IVar="-1" Cut="0.0e+00" cType="1" res="0.153868169" rms="0.0e+00" purity="0.0e+00" nType="-99" /><Node pos="r" depth="1" NCoef="0" IVar="-1" Cut="0.0e+00" cType="1" res="-0.1293661" rms="0.0e+00" purity="0.0e+00" nType="-99" /></Node></BinaryTree><BinaryTree type="DecisionTree" boostWeight="1.0e+00" itree="26"><Node pos="s" depth="0" NCoef="0" IVar="1" Cut="0.155913994" cType="1" res="0.0e+00" rms="0.0e+00" purity="0.0e+00" nType="0"><Node pos="l" depth="1" NCoef="0" IVar="-1" Cut="0.0e+00" cType="1" res="0.0549296774" rms="0.0e+00" purity="0.0e+00" nType="-99" /><Node pos="r" depth="1" NCoef="0" IVar="-1" Cut="0.0e+00" cType="1" res="-0.12674202" rms="0.0e+00" purity="0.0e+00" nType="-99" /></Node></BinaryTree><BinaryTree type="DecisionTree" boostWeight="1.0e+00" itree="27"><Node pos="s" depth="0" NCoef="0" IVar="5" Cut="0.569023967" cType="1" res="0.0e+00" rms="0.0e+00" purity="0.0e+00" nType="0"><Node pos="l" depth="1" NCoef="0" IVar="-1" Cut="0.0e+00" cType="1" res="-0.128457382" rms="0.0e+00" purity="0.0e+00" nType="-99" /><Node pos="r" depth="1" NCoef="0" IVar="-1" Cut="0.0e+00" cType="1" res="0.0585890226" rms="0.0e+00" purity="0.0e+00" nType="-99" /></Node></BinaryTree><BinaryTree type="DecisionTree" boostWeight="1.0e+00" itree="28"><Node pos="s" depth="0" NCoef="0" IVar="10" Cut="0.0524355024" cType="1" res="0.0e+00" rms="0.0e+00" purity="0.0e+00" nType="0"><Node pos="l" depth="1" NCoef="0" IVar="-1" Cut="0.0e+00" cType="1" res="0.0759169236" rms="0.0e+00" purity="0.0e+00" nType="-99" /><Node pos="r" depth="1" NCoef="0" IVar="-1" Cut="0.0e+00" cType="1" res="-0.117865846" rms="0.0e+00" purity="0.0e+00" nType="-99" /></Node></BinaryTree><BinaryTree type="DecisionTree" boostWeight="1.0e+00" itree="29"><Node pos="s" depth="0" NCoef="0" IVar="5" Cut="0.396535516" cType="1" res="0.0e+00" rms="0.0e+00" purity="0.0e+00" nType="0"><Node pos="l" depth="1" NCoef="0" IVar="-1" Cut="0.0e+00" cType="1" res="0.145226464" rms="0.0e+00" purity="0.0e+00" nType="-99" /><Node pos="r" depth="1" NCoef="0" IVar="-1" Cut="0.0e+00" cType="1" res="-0.12236739" rms="0.0e+00" purity="0.0e+00" nType="-99" /></Node></BinaryTree><BinaryTree type="DecisionTree" boostWeight="1.0e+00" itree="30"><Node pos="s" depth="0" NCoef="0" IVar="8" Cut="0.0184535012" cType="1" res="0.0e+00" rms="0.0e+00" purity="0.0e+00" nType="0"><Node pos="l" depth="1" NCoef="0" IVar="7" Cut="0.946264505" cType="1" res="0.0e+00" rms="0.0e+00" purity="0.0e+00" nType="0"><Node pos="l" depth="2" NCoef="0" IVar="-1" Cut="0.0e+00" cType="1" res="0.2225416" rms="0.0e+00" purity="0.0e+00" nType="-99" /><Node pos="r" depth="2" NCoef="0" IVar="-1" Cut="0.0e+00" cType="1" res="0.00848879199" rms="0.0e+00" purity="0.0e+00" nType="-99" /></Node><Node pos="r" depth="1" NCoef="0" IVar="-1" Cut="0.0e+00" cType="1" res="-0.0917572454" rms="0.0e+00" purity="0.0e+00" nType="-99" /></Node></BinaryTree><BinaryTree type="DecisionTree" boostWeight="1.0e+00" itree="31"><Node pos="s" depth="0" NCoef="0" IVar="10" Cut="0.0853990018" cType="1" res="0.0e+00" rms="0.0e+00" purity="0.0e+00" nType="0"><Node pos="l" depth="1" NCoef="0" IVar="-1" Cut="0.0e+00" cType="1" res="-0.121328957" rms="0.0e+00" purity="0.0e+00" nType="-99" /><Node pos="r" depth="1" NCoef="0" IVar="-1" Cut="0.0e+00" cType="1" res="0.0611991435" rms="0.0e+00" purity="0.0e+00" nType="-99" /></Node></BinaryTree><BinaryTree type="DecisionTree" boostWeight="1.0e+00" itree="32"><Node pos="s" depth="0" NCoef="0" IVar="3" Cut="0.109404996" cType="1" res="0.0e+00" rms="0.0e+00" purity="0.0e+00" nType="0"><Node pos="l" depth="1" NCoef="0" IVar="-1" Cut="0.0e+00" cType="1" res="0.130109385" rms="0.0e+00" purity="0.0e+00" nType="-99" /><Node pos="r" depth="1" NCoef="0" IVar="-1" Cut="0.0e+00" cType="1" res="-0.123368934" rms="0.0e+00" purity="0.0e+00" nType="-99" /></Node></BinaryTree><BinaryTree type="DecisionTree" boostWeight="1.0e+00" itree="33"><Node pos="s" depth="0" NCoef="0" IVar="7" Cut="0.832607508" cType="1" res="0.0e+00" rms="0.0e+00" purity="0.0e+00" nType="0"><Node pos="l" depth="1" NCoef="0" IVar="-1" Cut="0.0e+00" cType="1" res="0.0531581603" rms="0.0e+00" purity="0.0e+00" nType="-99" /><Node pos="r" depth="1" NCoef="0" IVar="-1" Cut="0.0e+00" cType="1" res="-0.122532487" rms="0.0e+00" purity="0.0e+00" nType="-99" /></Node></BinaryTree><BinaryTree type="DecisionTree" boostWeight="1.0e+00" itree="34"><Node pos="s" depth="0" NCoef="0" IVar="5" Cut="0.569023967" cType="1" res="0.0e+00" rms="0.0e+00" purity="0.0e+00" nType="0"><Node pos="l" depth="1" NCoef="0" IVar="-1" Cut="0.0e+00" cType="1" res="-0.12269152" rms="0.0e+00" purity="0.0e+00" nType="-99" /><Node pos="r" depth="1" NCoef="0" IVar="-1" Cut="0.0e+00" cType="1" res="0.0557347275" rms="0.0e+00" purity="0.0e+00" nType="-99" /></Node></BinaryTree><BinaryTree type="DecisionTree" boostWeight="1.0e+00" itree="35"><Node pos="s" depth="0" NCoef="0" IVar="9" Cut="0.00295849983" cType="1" res="0.0e+00" rms="0.0e+00" purity="0.0e+00" nType="0"><Node pos="l" depth="1" NCoef="0" IVar="-1" Cut="0.0e+00" cType="1" res="-0.116460189" rms="0.0e+00" purity="0.0e+00" nType="-99" /><Node pos="r" depth="1" NCoef="0" IVar="-1" Cut="0.0e+00" cType="1" res="0.0783255994" rms="0.0e+00" purity="0.0e+00" nType="-99" /></Node></BinaryTree><BinaryTree type="DecisionTree" boostWeight="1.0e+00" itree="36"><Node pos="s" depth="0" NCoef="0" IVar="22" Cut="0.207988501" cType="1" res="0.0e+00" rms="0.0e+00" purity="0.0e+00" nType="0"><Node pos="l" depth="1" NCoef="0" IVar="-1" Cut="0.0e+00" cType="1" res="0.134311438" rms="0.0e+00" purity="0.0e+00" nType="-99" /><Node pos="r" depth="1" NCoef="0" IVar="-1" Cut="0.0e+00" cType="1" res="-0.118064061" rms="0.0e+00" purity="0.0e+00" nType="-99" /></Node></BinaryTree><BinaryTree type="DecisionTree" boostWeight="1.0e+00" itree="37"><Node pos="s" depth="0" NCoef="0" IVar="8" Cut="0.0184535012" cType="1" res="0.0e+00" rms="0.0e+00" purity="0.0e+00" nType="0"><Node pos="l" depth="1" NCoef="0" IVar="7" Cut="0.946264505" cType="1" res="0.0e+00" rms="0.0e+00" purity="0.0e+00" nType="0"><Node pos="l" depth="2" NCoef="0" IVar="-1" Cut="0.0e+00" cType="1" res="0.198585972" rms="0.0e+00" purity="0.0e+00" nType="-99" /><Node pos="r" depth="2" NCoef="0" IVar="-1" Cut="0.0e+00" cType="1" res="0.006015989" rms="0.0e+00" purity="0.0e+00" nType="-99" /></Node><Node pos="r" depth="1" NCoef="0" IVar="-1" Cut="0.0e+00" cType="1" res="-0.0894679204" rms="0.0e+00" purity="0.0e+00" nType="-99" /></Node></BinaryTree><BinaryTree type="DecisionTree" boostWeight="1.0e+00" itree="38"><Node pos="s" depth="0" NCoef="0" IVar="10" Cut="0.0853990018" cType="1" res="0.0e+00" rms="0.0e+00" purity="0.0e+00" nType="0"><Node pos="l" depth="1" NCoef="0" IVar="-1" Cut="0.0e+00" cType="1" res="-0.115354516" rms="0.0e+00" purity="0.0e+00" nType="-99" /><Node pos="r" depth="1" NCoef="0" IVar="-1" Cut="0.0e+00" cType="1" res="0.0579125397" rms="0.0e+00" purity="0.0e+00" nType="-99" /></Node></BinaryTree><BinaryTree type="DecisionTree" boostWeight="1.0e+00" itree="39"><Node pos="s" depth="0" NCoef="0" IVar="1" Cut="0.155913994" cType="1" res="0.0e+00" rms="0.0e+00" purity="0.0e+00" nType="0"><Node pos="l" depth="1" NCoef="0" IVar="-1" Cut="0.0e+00" cType="1" res="0.116412558" rms="0.0e+00" purity="0.0e+00" nType="-99" /><Node pos="r" depth="1" NCoef="0" IVar="-1" Cut="0.0e+00" cType="1" res="-0.121113963" rms="0.0e+00" purity="0.0e+00" nType="-99" /></Node></BinaryTree><BinaryTree type="DecisionTree" boostWeight="1.0e+00" itree="40"><Node pos="s" depth="0" NCoef="0" IVar="23" Cut="0.223548502" cType="1" res="0.0e+00" rms="0.0e+00" purity="0.0e+00" nType="0"><Node pos="l" depth="1" NCoef="0" IVar="-1" Cut="0.0e+00" cType="1" res="-0.117798708" rms="0.0e+00" purity="0.0e+00" nType="-99" /><Node pos="r" depth="1" NCoef="0" IVar="-1" Cut="0.0e+00" cType="1" res="0.0497534946" rms="0.0e+00" purity="0.0e+00" nType="-99" /></Node></BinaryTree><BinaryTree type="DecisionTree" boostWeight="1.0e+00" itree="41"><Node pos="s" depth="0" NCoef="0" IVar="5" Cut="0.569023967" cType="1" res="0.0e+00" rms="0.0e+00" purity="0.0e+00" nType="0"><Node pos="l" depth="1" NCoef="0" IVar="-1" Cut="0.0e+00" cType="1" res="-0.117060356" rms="0.0e+00" purity="0.0e+00" nType="-99" /><Node pos="r" depth="1" NCoef="0" IVar="-1" Cut="0.0e+00" cType="1" res="0.0512392744" rms="0.0e+00" purity="0.0e+00" nType="-99" /></Node></BinaryTree><BinaryTree type="DecisionTree" boostWeight="1.0e+00" itree="42"><Node pos="s" depth="0" NCoef="0" IVar="10" Cut="0.0524355024" cType="1" res="0.0e+00" rms="0.0e+00" purity="0.0e+00" nType="0"><Node pos="l" depth="1" NCoef="0" IVar="-1" Cut="0.0e+00" cType="1" res="0.0754609331" rms="0.0e+00" purity="0.0e+00" nType="-99" /><Node pos="r" depth="1" NCoef="0" IVar="-1" Cut="0.0e+00" cType="1" res="-0.110336483" rms="0.0e+00" purity="0.0e+00" nType="-99" /></Node></BinaryTree><BinaryTree type="DecisionTree" boostWeight="1.0e+00" itree="43"><Node pos="s" depth="0" NCoef="0" IVar="5" Cut="0.396535516" cType="1" res="0.0e+00" rms="0.0e+00" purity="0.0e+00" nType="0"><Node pos="l" depth="1" NCoef="0" IVar="-1" Cut="0.0e+00" cType="1" res="0.119604982" rms="0.0e+00" purity="0.0e+00" nType="-99" /><Node pos="r" depth="1" NCoef="0" IVar="-1" Cut="0.0e+00" cType="1" res="-0.111621723" rms="0.0e+00" purity="0.0e+00" nType="-99" /></Node></BinaryTree><BinaryTree type="DecisionTree" boostWeight="1.0e+00" itree="44"><Node pos="s" depth="0" NCoef="0" IVar="8" Cut="0.0184535012" cType="1" res="0.0e+00" rms="0.0e+00" purity="0.0e+00" nType="0"><Node pos="l" depth="1" NCoef="0" IVar="23" Cut="0.0519265011" cType="1" res="0.0e+00" rms="0.0e+00" purity="0.0e+00" nType="0"><Node pos="l" depth="2" NCoef="0" IVar="-1" Cut="0.0e+00" cType="1" res="-0.0130067309" rms="0.0e+00" purity="0.0e+00" nType="-99" /><Node pos="r" depth="2" NCoef="0" IVar="24" Cut="0.000269500015" cType="1" res="0.0e+00" rms="0.0e+00" purity="0.0e+00" nType="0"><Node pos="l" depth="3" NCoef="0" IVar="-1" Cut="0.0e+00" cType="1" res="0.197860777" rms="0.0e+00" purity="0.0e+00" nType="-99" /><Node pos="r" depth="3" NCoef="0" IVar="-1" Cut="0.0e+00" cType="1" res="0.0350870341" rms="0.0e+00" purity="0.0e+00" nType="-99" /></Node></Node><Node pos="r" depth="1" NCoef="0" IVar="-1" Cut="0.0e+00" cType="1" res="-0.0858716369" rms="0.0e+00" purity="0.0e+00" nType="-99" /></Node></BinaryTree><BinaryTree type="DecisionTree" boostWeight="1.0e+00" itree="45"><Node pos="s" depth="0" NCoef="0" IVar="10" Cut="0.0853990018" cType="1" res="0.0e+00" rms="0.0e+00" purity="0.0e+00" nType="0"><Node pos="l" depth="1" NCoef="0" IVar="-1" Cut="0.0e+00" cType="1" res="-0.109531969" rms="0.0e+00" purity="0.0e+00" nType="-99" /><Node pos="r" depth="1" NCoef="0" IVar="-1" Cut="0.0e+00" cType="1" res="0.0576507561" rms="0.0e+00" purity="0.0e+00" nType="-99" /></Node></BinaryTree><BinaryTree type="DecisionTree" boostWeight="1.0e+00" itree="46"><Node pos="s" depth="0" NCoef="0" IVar="3" Cut="0.109404996" cType="1" res="0.0e+00" rms="0.0e+00" purity="0.0e+00" nType="0"><Node pos="l" depth="1" NCoef="0" IVar="-1" Cut="0.0e+00" cType="1" res="0.104212776" rms="0.0e+00" purity="0.0e+00" nType="-99" /><Node pos="r" depth="1" NCoef="0" IVar="-1" Cut="0.0e+00" cType="1" res="-0.115072004" rms="0.0e+00" purity="0.0e+00" nType="-99" /></Node></BinaryTree><BinaryTree type="DecisionTree" boostWeight="1.0e+00" itree="47"><Node pos="s" depth="0" NCoef="0" IVar="7" Cut="0.832607508" cType="1" res="0.0e+00" rms="0.0e+00" purity="0.0e+00" nType="0"><Node pos="l" depth="1" NCoef="0" IVar="-1" Cut="0.0e+00" cType="1" res="0.0557178482" rms="0.0e+00" purity="0.0e+00" nType="-99" /><Node pos="r" depth="1" NCoef="0" IVar="-1" Cut="0.0e+00" cType="1" res="-0.112915739" rms="0.0e+00" purity="0.0e+00" nType="-99" /></Node></BinaryTree><BinaryTree type="DecisionTree" boostWeight="1.0e+00" itree="48"><Node pos="s" depth="0" NCoef="0" IVar="10" Cut="0.0736650005" cType="1" res="0.0e+00" rms="0.0e+00" purity="0.0e+00" nType="0"><Node pos="l" depth="1" NCoef="0" IVar="-1" Cut="0.0e+00" cType="1" res="-0.113520488" rms="0.0e+00" purity="0.0e+00" nType="-99" /><Node pos="r" depth="1" NCoef="0" IVar="-1" Cut="0.0e+00" cType="1" res="0.0550606363" rms="0.0e+00" purity="0.0e+00" nType="-99" /></Node></BinaryTree><BinaryTree type="DecisionTree" boostWeight="1.0e+00" itree="49"><Node pos="s" depth="0" NCoef="0" IVar="13" Cut="227453.281" cType="1" res="0.0e+00" rms="0.0e+00" purity="0.0e+00" nType="0"><Node pos="l" depth="1" NCoef="0" IVar="-1" Cut="0.0e+00" cType="1" res="0.0731417537" rms="0.0e+00" purity="0.0e+00" nType="-99" /><Node pos="r" depth="1" NCoef="0" IVar="-1" Cut="0.0e+00" cType="1" res="-0.105243459" rms="0.0e+00" purity="0.0e+00" nType="-99" /></Node></BinaryTree><BinaryTree type="DecisionTree" boostWeight="1.0e+00" itree="50"><Node pos="s" depth="0" NCoef="0" IVar="22" Cut="0.207988501" cType="1" res="0.0e+00" rms="0.0e+00" purity="0.0e+00" nType="0"><Node pos="l" depth="1" NCoef="0" IVar="-1" Cut="0.0e+00" cType="1" res="0.111746721" rms="0.0e+00" purity="0.0e+00" nType="-99" /><Node pos="r" depth="1" NCoef="0" IVar="-1" Cut="0.0e+00" cType="1" res="-0.107220605" rms="0.0e+00" purity="0.0e+00" nType="-99" /></Node></BinaryTree><BinaryTree type="DecisionTree" boostWeight="1.0e+00" itree="51"><Node pos="s" depth="0" NCoef="0" IVar="8" Cut="0.0184535012" cType="1" res="0.0e+00" rms="0.0e+00" purity="0.0e+00" nType="0"><Node pos="l" depth="1" NCoef="0" IVar="7" Cut="0.946264505" cType="1" res="0.0e+00" rms="0.0e+00" purity="0.0e+00" nType="0"><Node pos="l" depth="2" NCoef="0" IVar="-1" Cut="0.0e+00" cType="1" res="0.168856204" rms="0.0e+00" purity="0.0e+00" nType="-99" /><Node pos="r" depth="2" NCoef="0" IVar="-1" Cut="0.0e+00" cType="1" res="-0.00367293856" rms="0.0e+00" purity="0.0e+00" nType="-99" /></Node><Node pos="r" depth="1" NCoef="0" IVar="-1" Cut="0.0e+00" cType="1" res="-0.08324074" rms="0.0e+00" purity="0.0e+00" nType="-99" /></Node></BinaryTree><BinaryTree type="DecisionTree" boostWeight="1.0e+00" itree="52"><Node pos="s" depth="0" NCoef="0" IVar="9" Cut="0.00578700006" cType="1" res="0.0e+00" rms="0.0e+00" purity="0.0e+00" nType="0"><Node pos="l" depth="1" NCoef="0" IVar="-1" Cut="0.0e+00" cType="1" res="-0.104372099" rms="0.0e+00" purity="0.0e+00" nType="-99" /><Node pos="r" depth="1" NCoef="0" IVar="-1" Cut="0.0e+00" cType="1" res="0.0536457635" rms="0.0e+00" purity="0.0e+00" nType="-99" /></Node></BinaryTree><BinaryTree type="DecisionTree" boostWeight="1.0e+00" itree="53"><Node pos="s" depth="0" NCoef="0" IVar="1" Cut="0.155913994" cType="1" res="0.0e+00" rms="0.0e+00" purity="0.0e+00" nType="0"><Node pos="l" depth="1" NCoef="0" IVar="-1" Cut="0.0e+00" cType="1" res="0.0889367238" rms="0.0e+00" purity="0.0e+00" nType="-99" /><Node pos="r" depth="1" NCoef="0" IVar="-1" Cut="0.0e+00" cType="1" res="-0.112827808" rms="0.0e+00" purity="0.0e+00" nType="-99" /></Node></BinaryTree><BinaryTree type="DecisionTree" boostWeight="1.0e+00" itree="54"><Node pos="s" depth="0" NCoef="0" IVar="13" Cut="546578.125" cType="1" res="0.0e+00" rms="0.0e+00" purity="0.0e+00" nType="0"><Node pos="l" depth="1" NCoef="0" IVar="-1" Cut="0.0e+00" cType="1" res="-0.109665699" rms="0.0e+00" purity="0.0e+00" nType="-99" /><Node pos="r" depth="1" NCoef="0" IVar="-1" Cut="0.0e+00" cType="1" res="0.0528277978" rms="0.0e+00" purity="0.0e+00" nType="-99" /></Node></BinaryTree><BinaryTree type="DecisionTree" boostWeight="1.0e+00" itree="55"><Node pos="s" depth="0" NCoef="0" IVar="3" Cut="0.133477509" cType="1" res="0.0e+00" rms="0.0e+00" purity="0.0e+00" nType="0"><Node pos="l" depth="1" NCoef="0" IVar="-1" Cut="0.0e+00" cType="1" res="0.0545226224" rms="0.0e+00" purity="0.0e+00" nType="-99" /><Node pos="r" depth="1" NCoef="0" IVar="-1" Cut="0.0e+00" cType="1" res="-0.108017139" rms="0.0e+00" purity="0.0e+00" nType="-99" /></Node></BinaryTree><BinaryTree type="DecisionTree" boostWeight="1.0e+00" itree="56"><Node pos="s" depth="0" NCoef="0" IVar="9" Cut="0.00295849983" cType="1" res="0.0e+00" rms="0.0e+00" purity="0.0e+00" nType="0"><Node pos="l" depth="1" NCoef="0" IVar="-1" Cut="0.0e+00" cType="1" res="-0.105044372" rms="0.0e+00" purity="0.0e+00" nType="-99" /><Node pos="r" depth="1" NCoef="0" IVar="-1" Cut="0.0e+00" cType="1" res="0.0679562166" rms="0.0e+00" purity="0.0e+00" nType="-99" /></Node></BinaryTree><BinaryTree type="DecisionTree" boostWeight="1.0e+00" itree="57"><Node pos="s" depth="0" NCoef="0" IVar="5" Cut="0.396535516" cType="1" res="0.0e+00" rms="0.0e+00" purity="0.0e+00" nType="0"><Node pos="l" depth="1" NCoef="0" IVar="-1" Cut="0.0e+00" cType="1" res="0.102385573" rms="0.0e+00" purity="0.0e+00" nType="-99" /><Node pos="r" depth="1" NCoef="0" IVar="-1" Cut="0.0e+00" cType="1" res="-0.101435073" rms="0.0e+00" purity="0.0e+00" nType="-99" /></Node></BinaryTree><BinaryTree type="DecisionTree" boostWeight="1.0e+00" itree="58"><Node pos="s" depth="0" NCoef="0" IVar="9" Cut="0.00295849983" cType="1" res="0.0e+00" rms="0.0e+00" purity="0.0e+00" nType="0"><Node pos="l" depth="1" NCoef="0" IVar="5" Cut="0.396535516" cType="1" res="0.0e+00" rms="0.0e+00" purity="0.0e+00" nType="0"><Node pos="l" depth="2" NCoef="0" IVar="-1" Cut="0.0e+00" cType="1" res="0.00454191444" rms="0.0e+00" purity="0.0e+00" nType="-99" /><Node pos="r" depth="2" NCoef="0" IVar="-1" Cut="0.0e+00" cType="1" res="0.169492081" rms="0.0e+00" purity="0.0e+00" nType="-99" /></Node><Node pos="r" depth="1" NCoef="0" IVar="24" Cut="0.000117999996" cType="1" res="0.0e+00" rms="0.0e+00" purity="0.0e+00" nType="0"><Node pos="l" depth="2" NCoef="0" IVar="-1" Cut="0.0e+00" cType="1" res="0.0581184663" rms="0.0e+00" purity="0.0e+00" nType="-99" /><Node pos="r" depth="2" NCoef="0" IVar="-1" Cut="0.0e+00" cType="1" res="-0.0909634307" rms="0.0e+00" purity="0.0e+00" nType="-99" /></Node></Node></BinaryTree><BinaryTree type="DecisionTree" boostWeight="1.0e+00" itree="59"><Node pos="s" depth="0" NCoef="0" IVar="10" Cut="0.082564503" cType="1" res="0.0e+00" rms="0.0e+00" purity="0.0e+00" nType="0"><Node pos="l" depth="1" NCoef="0" IVar="-1" Cut="0.0e+00" cType="1" res="-0.099167712" rms="0.0e+00" purity="0.0e+00" nType="-99" /><Node pos="r" depth="1" NCoef="0" IVar="-1" Cut="0.0e+00" cType="1" res="0.0530293658" rms="0.0e+00" purity="0.0e+00" nType="-99" /></Node></BinaryTree><BinaryTree type="DecisionTree" boostWeight="1.0e+00" itree="60"><Node pos="s" depth="0" NCoef="0" IVar="3" Cut="0.109404996" cType="1" res="0.0e+00" rms="0.0e+00" purity="0.0e+00" nType="0"><Node pos="l" depth="1" NCoef="0" IVar="-1" Cut="0.0e+00" cType="1" res="0.0839718208" rms="0.0e+00" purity="0.0e+00" nType="-99" /><Node pos="r" depth="1" NCoef="0" IVar="-1" Cut="0.0e+00" cType="1" res="-0.107470982" rms="0.0e+00" purity="0.0e+00" nType="-99" /></Node></BinaryTree><BinaryTree type="DecisionTree" boostWeight="1.0e+00" itree="61"><Node pos="s" depth="0" NCoef="0" IVar="13" Cut="546578.125" cType="1" res="0.0e+00" rms="0.0e+00" purity="0.0e+00" nType="0"><Node pos="l" depth="1" NCoef="0" IVar="-1" Cut="0.0e+00" cType="1" res="-0.103721984" rms="0.0e+00" purity="0.0e+00" nType="-99" /><Node pos="r" depth="1" NCoef="0" IVar="-1" Cut="0.0e+00" cType="1" res="0.0507098325" rms="0.0e+00" purity="0.0e+00" nType="-99" /></Node></BinaryTree><BinaryTree type="DecisionTree" boostWeight="1.0e+00" itree="62"><Node pos="s" depth="0" NCoef="0" IVar="10" Cut="0.0736650005" cType="1" res="0.0e+00" rms="0.0e+00" purity="0.0e+00" nType="0"><Node pos="l" depth="1" NCoef="0" IVar="-1" Cut="0.0e+00" cType="1" res="-0.104816139" rms="0.0e+00" purity="0.0e+00" nType="-99" /><Node pos="r" depth="1" NCoef="0" IVar="-1" Cut="0.0e+00" cType="1" res="0.0576521643" rms="0.0e+00" purity="0.0e+00" nType="-99" /></Node></BinaryTree><BinaryTree type="DecisionTree" boostWeight="1.0e+00" itree="63"><Node pos="s" depth="0" NCoef="0" IVar="10" Cut="0.0524355024" cType="1" res="0.0e+00" rms="0.0e+00" purity="0.0e+00" nType="0"><Node pos="l" depth="1" NCoef="0" IVar="-1" Cut="0.0e+00" cType="1" res="0.0712140799" rms="0.0e+00" purity="0.0e+00" nType="-99" /><Node pos="r" depth="1" NCoef="0" IVar="-1" Cut="0.0e+00" cType="1" res="-0.101128325" rms="0.0e+00" purity="0.0e+00" nType="-99" /></Node></BinaryTree><BinaryTree type="DecisionTree" boostWeight="1.0e+00" itree="64"><Node pos="s" depth="0" NCoef="0" IVar="7" Cut="0.946264505" cType="1" res="0.0e+00" rms="0.0e+00" purity="0.0e+00" nType="0"><Node pos="l" depth="1" NCoef="0" IVar="-1" Cut="0.0e+00" cType="1" res="-0.0981945321" rms="0.0e+00" purity="0.0e+00" nType="-99" /><Node pos="r" depth="1" NCoef="0" IVar="-1" Cut="0.0e+00" cType="1" res="0.0924628228" rms="0.0e+00" purity="0.0e+00" nType="-99" /></Node></BinaryTree><BinaryTree type="DecisionTree" boostWeight="1.0e+00" itree="65"><Node pos="s" depth="0" NCoef="0" IVar="9" Cut="0.00295849983" cType="1" res="0.0e+00" rms="0.0e+00" purity="0.0e+00" nType="0"><Node pos="l" depth="1" NCoef="0" IVar="5" Cut="0.396535516" cType="1" res="0.0e+00" rms="0.0e+00" purity="0.0e+00" nType="0"><Node pos="l" depth="2" NCoef="0" IVar="-1" Cut="0.0e+00" cType="1" res="0.00608900376" rms="0.0e+00" purity="0.0e+00" nType="-99" /><Node pos="r" depth="2" NCoef="0" IVar="-1" Cut="0.0e+00" cType="1" res="0.157182127" rms="0.0e+00" purity="0.0e+00" nType="-99" /></Node><Node pos="r" depth="1" NCoef="0" IVar="2" Cut="1.4865756" cType="1" res="0.0e+00" rms="0.0e+00" purity="0.0e+00" nType="0"><Node pos="l" depth="2" NCoef="0" IVar="-1" Cut="0.0e+00" cType="1" res="-0.00382543146" rms="0.0e+00" purity="0.0e+00" nType="-99" /><Node pos="r" depth="2" NCoef="0" IVar="-1" Cut="0.0e+00" cType="1" res="-0.0274565313" rms="0.0e+00" purity="0.0e+00" nType="-99" /></Node></Node></BinaryTree><BinaryTree type="DecisionTree" boostWeight="1.0e+00" itree="66"><Node pos="s" depth="0" NCoef="0" IVar="4" Cut="0.157598004" cType="1" res="0.0e+00" rms="0.0e+00" purity="0.0e+00" nType="0"><Node pos="l" depth="1" NCoef="0" IVar="-1" Cut="0.0e+00" cType="1" res="-0.0934607834" rms="0.0e+00" purity="0.0e+00" nType="-99" /><Node pos="r" depth="1" NCoef="0" IVar="-1" Cut="0.0e+00" cType="1" res="0.0510745272" rms="0.0e+00" purity="0.0e+00" nType="-99" /></Node></BinaryTree><BinaryTree type="DecisionTree" boostWeight="1.0e+00" itree="67"><Node pos="s" depth="0" NCoef="0" IVar="1" Cut="0.155913994" cType="1" res="0.0e+00" rms="0.0e+00" purity="0.0e+00" nType="0"><Node pos="l" depth="1" NCoef="0" IVar="-1" Cut="0.0e+00" cType="1" res="0.0725944489" rms="0.0e+00" purity="0.0e+00" nType="-99" /><Node pos="r" depth="1" NCoef="0" IVar="-1" Cut="0.0e+00" cType="1" res="-0.105071992" rms="0.0e+00" purity="0.0e+00" nType="-99" /></Node></BinaryTree><BinaryTree type="DecisionTree" boostWeight="1.0e+00" itree="68"><Node pos="s" depth="0" NCoef="0" IVar="7" Cut="0.843685031" cType="1" res="0.0e+00" rms="0.0e+00" purity="0.0e+00" nType="0"><Node pos="l" depth="1" NCoef="0" IVar="-1" Cut="0.0e+00" cType="1" res="0.0499067083" rms="0.0e+00" purity="0.0e+00" nType="-99" /><Node pos="r" depth="1" NCoef="0" IVar="-1" Cut="0.0e+00" cType="1" res="-0.0985996872" rms="0.0e+00" purity="0.0e+00" nType="-99" /></Node></BinaryTree><BinaryTree type="DecisionTree" boostWeight="1.0e+00" itree="69"><Node pos="s" depth="0" NCoef="0" IVar="10" Cut="0.0736650005" cType="1" res="0.0e+00" rms="0.0e+00" purity="0.0e+00" nType="0"><Node pos="l" depth="1" NCoef="0" IVar="-1" Cut="0.0e+00" cType="1" res="-0.0998124406" rms="0.0e+00" purity="0.0e+00" nType="-99" /><Node pos="r" depth="1" NCoef="0" IVar="-1" Cut="0.0e+00" cType="1" res="0.0559299998" rms="0.0e+00" purity="0.0e+00" nType="-99" /></Node></BinaryTree><BinaryTree type="DecisionTree" boostWeight="1.0e+00" itree="70"><Node pos="s" depth="0" NCoef="0" IVar="10" Cut="0.0524355024" cType="1" res="0.0e+00" rms="0.0e+00" purity="0.0e+00" nType="0"><Node pos="l" depth="1" NCoef="0" IVar="-1" Cut="0.0e+00" cType="1" res="0.0668117106" rms="0.0e+00" purity="0.0e+00" nType="-99" /><Node pos="r" depth="1" NCoef="0" IVar="-1" Cut="0.0e+00" cType="1" res="-0.0961903408" rms="0.0e+00" purity="0.0e+00" nType="-99" /></Node></BinaryTree><BinaryTree type="DecisionTree" boostWeight="1.0e+00" itree="71"><Node pos="s" depth="0" NCoef="0" IVar="22" Cut="0.207988501" cType="1" res="0.0e+00" rms="0.0e+00" purity="0.0e+00" nType="0"><Node pos="l" depth="1" NCoef="0" IVar="-1" Cut="0.0e+00" cType="1" res="0.0903408006" rms="0.0e+00" purity="0.0e+00" nType="-99" /><Node pos="r" depth="1" NCoef="0" IVar="-1" Cut="0.0e+00" cType="1" res="-0.0947440341" rms="0.0e+00" purity="0.0e+00" nType="-99" /></Node></BinaryTree><BinaryTree type="DecisionTree" boostWeight="1.0e+00" itree="72"><Node pos="s" depth="0" NCoef="0" IVar="9" Cut="0.00295849983" cType="1" res="0.0e+00" rms="0.0e+00" purity="0.0e+00" nType="0"><Node pos="l" depth="1" NCoef="0" IVar="5" Cut="0.396535516" cType="1" res="0.0e+00" rms="0.0e+00" purity="0.0e+00" nType="0"><Node pos="l" depth="2" NCoef="0" IVar="-1" Cut="0.0e+00" cType="1" res="0.0046547465" rms="0.0e+00" purity="0.0e+00" nType="-99" /><Node pos="r" depth="2" NCoef="0" IVar="-1" Cut="0.0e+00" cType="1" res="0.148641467" rms="0.0e+00" purity="0.0e+00" nType="-99" /></Node><Node pos="r" depth="1" NCoef="0" IVar="-1" Cut="0.0e+00" cType="1" res="-0.021354517" rms="0.0e+00" purity="0.0e+00" nType="-99" /></Node></BinaryTree><BinaryTree type="DecisionTree" boostWeight="1.0e+00" itree="73"><Node pos="s" depth="0" NCoef="0" IVar="23" Cut="0.209631994" cType="1" res="0.0e+00" rms="0.0e+00" purity="0.0e+00" nType="0"><Node pos="l" depth="1" NCoef="0" IVar="-1" Cut="0.0e+00" cType="1" res="-0.0890298858" rms="0.0e+00" purity="0.0e+00" nType="-99" /><Node pos="r" depth="1" NCoef="0" IVar="-1" Cut="0.0e+00" cType="1" res="0.0487346724" rms="0.0e+00" purity="0.0e+00" nType="-99" /></Node></BinaryTree><BinaryTree type="DecisionTree" boostWeight="1.0e+00" itree="74"><Node pos="s" depth="0" NCoef="0" IVar="3" Cut="0.109404996" cType="1" res="0.0e+00" rms="0.0e+00" purity="0.0e+00" nType="0"><Node pos="l" depth="1" NCoef="0" IVar="-1" Cut="0.0e+00" cType="1" res="0.0673970729" rms="0.0e+00" purity="0.0e+00" nType="-99" /><Node pos="r" depth="1" NCoef="0" IVar="-1" Cut="0.0e+00" cType="1" res="-0.100408174" rms="0.0e+00" purity="0.0e+00" nType="-99" /></Node></BinaryTree><BinaryTree type="DecisionTree" boostWeight="1.0e+00" itree="75"><Node pos="s" depth="0" NCoef="0" IVar="13" Cut="546578.125" cType="1" res="0.0e+00" rms="0.0e+00" purity="0.0e+00" nType="0"><Node pos="l" depth="1" NCoef="0" IVar="-1" Cut="0.0e+00" cType="1" res="-0.0950009599" rms="0.0e+00" purity="0.0e+00" nType="-99" /><Node pos="r" depth="1" NCoef="0" IVar="-1" Cut="0.0e+00" cType="1" res="0.0494006984" rms="0.0e+00" purity="0.0e+00" nType="-99" /></Node></BinaryTree><BinaryTree type="DecisionTree" boostWeight="1.0e+00" itree="76"><Node pos="s" depth="0" NCoef="0" IVar="5" Cut="0.569023967" cType="1" res="0.0e+00" rms="0.0e+00" purity="0.0e+00" nType="0"><Node pos="l" depth="1" NCoef="0" IVar="-1" Cut="0.0e+00" cType="1" res="-0.0955847502" rms="0.0e+00" purity="0.0e+00" nType="-99" /><Node pos="r" depth="1" NCoef="0" IVar="-1" Cut="0.0e+00" cType="1" res="0.0537504256" rms="0.0e+00" purity="0.0e+00" nType="-99" /></Node></BinaryTree><BinaryTree type="DecisionTree" boostWeight="1.0e+00" itree="77"><Node pos="s" depth="0" NCoef="0" IVar="10" Cut="0.0524355024" cType="1" res="0.0e+00" rms="0.0e+00" purity="0.0e+00" nType="0"><Node pos="l" depth="1" NCoef="0" IVar="-1" Cut="0.0e+00" cType="1" res="0.060159564" rms="0.0e+00" purity="0.0e+00" nType="-99" /><Node pos="r" depth="1" NCoef="0" IVar="-1" Cut="0.0e+00" cType="1" res="-0.0913120359" rms="0.0e+00" purity="0.0e+00" nType="-99" /></Node></BinaryTree><BinaryTree type="DecisionTree" boostWeight="1.0e+00" itree="78"><Node pos="s" depth="0" NCoef="0" IVar="22" Cut="0.207988501" cType="1" res="0.0e+00" rms="0.0e+00" purity="0.0e+00" nType="0"><Node pos="l" depth="1" NCoef="0" IVar="-1" Cut="0.0e+00" cType="1" res="0.0818330571" rms="0.0e+00" purity="0.0e+00" nType="-99" /><Node pos="r" depth="1" NCoef="0" IVar="-1" Cut="0.0e+00" cType="1" res="-0.0899792016" rms="0.0e+00" purity="0.0e+00" nType="-99" /></Node></BinaryTree><BinaryTree type="DecisionTree" boostWeight="1.0e+00" itree="79"><Node pos="s" depth="0" NCoef="0" IVar="9" Cut="0.00295849983" cType="1" res="0.0e+00" rms="0.0e+00" purity="0.0e+00" nType="0"><Node pos="l" depth="1" NCoef="0" IVar="5" Cut="0.396535516" cType="1" res="0.0e+00" rms="0.0e+00" purity="0.0e+00" nType="0"><Node pos="l" depth="2" NCoef="0" IVar="-1" Cut="0.0e+00" cType="1" res="0.0061785602" rms="0.0e+00" purity="0.0e+00" nType="-99" /><Node pos="r" depth="2" NCoef="0" IVar="-1" Cut="0.0e+00" cType="1" res="0.140823573" rms="0.0e+00" purity="0.0e+00" nType="-99" /></Node><Node pos="r" depth="1" NCoef="0" IVar="-1" Cut="0.0e+00" cType="1" res="-0.0208365284" rms="0.0e+00" purity="0.0e+00" nType="-99" /></Node></BinaryTree><BinaryTree type="DecisionTree" boostWeight="1.0e+00" itree="80"><Node pos="s" depth="0" NCoef="0" IVar="0" Cut="1.78389251" cType="1" res="0.0e+00" rms="0.0e+00" purity="0.0e+00" nType="0"><Node pos="l" depth="1" NCoef="0" IVar="-1" Cut="0.0e+00" cType="1" res="-0.084515132" rms="0.0e+00" purity="0.0e+00" nType="-99" /><Node pos="r" depth="1" NCoef="0" IVar="-1" Cut="0.0e+00" cType="1" res="0.0460461266" rms="0.0e+00" purity="0.0e+00" nType="-99" /></Node></BinaryTree><BinaryTree type="DecisionTree" boostWeight="1.0e+00" itree="81"><Node pos="s" depth="0" NCoef="0" IVar="1" Cut="0.155913994" cType="1" res="0.0e+00" rms="0.0e+00" purity="0.0e+00" nType="0"><Node pos="l" depth="1" NCoef="0" IVar="-1" Cut="0.0e+00" cType="1" res="0.058195617" rms="0.0e+00" purity="0.0e+00" nType="-99" /><Node pos="r" depth="1" NCoef="0" IVar="-1" Cut="0.0e+00" cType="1" res="-0.0986861363" rms="0.0e+00" purity="0.0e+00" nType="-99" /></Node></BinaryTree><BinaryTree type="DecisionTree" boostWeight="1.0e+00" itree="82"><Node pos="s" depth="0" NCoef="0" IVar="7" Cut="0.843685031" cType="1" res="0.0e+00" rms="0.0e+00" purity="0.0e+00" nType="0"><Node pos="l" depth="1" NCoef="0" IVar="-1" Cut="0.0e+00" cType="1" res="0.0476434715" rms="0.0e+00" purity="0.0e+00" nType="-99" /><Node pos="r" depth="1" NCoef="0" IVar="-1" Cut="0.0e+00" cType="1" res="-0.090511851" rms="0.0e+00" purity="0.0e+00" nType="-99" /></Node></BinaryTree><BinaryTree type="DecisionTree" boostWeight="1.0e+00" itree="83"><Node pos="s" depth="0" NCoef="0" IVar="10" Cut="0.0736650005" cType="1" res="0.0e+00" rms="0.0e+00" purity="0.0e+00" nType="0"><Node pos="l" depth="1" NCoef="0" IVar="-1" Cut="0.0e+00" cType="1" res="-0.091362983" rms="0.0e+00" purity="0.0e+00" nType="-99" /><Node pos="r" depth="1" NCoef="0" IVar="-1" Cut="0.0e+00" cType="1" res="0.0512510501" rms="0.0e+00" purity="0.0e+00" nType="-99" /></Node></BinaryTree><BinaryTree type="DecisionTree" boostWeight="1.0e+00" itree="84"><Node pos="s" depth="0" NCoef="0" IVar="9" Cut="0.00295849983" cType="1" res="0.0e+00" rms="0.0e+00" purity="0.0e+00" nType="0"><Node pos="l" depth="1" NCoef="0" IVar="-1" Cut="0.0e+00" cType="1" res="-0.0914154947" rms="0.0e+00" purity="0.0e+00" nType="-99" /><Node pos="r" depth="1" NCoef="0" IVar="-1" Cut="0.0e+00" cType="1" res="0.0582757592" rms="0.0e+00" purity="0.0e+00" nType="-99" /></Node></BinaryTree><BinaryTree type="DecisionTree" boostWeight="1.0e+00" itree="85"><Node pos="s" depth="0" NCoef="0" IVar="7" Cut="0.946264505" cType="1" res="0.0e+00" rms="0.0e+00" purity="0.0e+00" nType="0"><Node pos="l" depth="1" NCoef="0" IVar="-1" Cut="0.0e+00" cType="1" res="-0.0882286429" rms="0.0e+00" purity="0.0e+00" nType="-99" /><Node pos="r" depth="1" NCoef="0" IVar="-1" Cut="0.0e+00" cType="1" res="0.0792970434" rms="0.0e+00" purity="0.0e+00" nType="-99" /></Node></BinaryTree><BinaryTree type="DecisionTree" boostWeight="1.0e+00" itree="86"><Node pos="s" depth="0" NCoef="0" IVar="9" Cut="0.00295849983" cType="1" res="0.0e+00" rms="0.0e+00" purity="0.0e+00" nType="0"><Node pos="l" depth="1" NCoef="0" IVar="5" Cut="0.396535516" cType="1" res="0.0e+00" rms="0.0e+00" purity="0.0e+00" nType="0"><Node pos="l" depth="2" NCoef="0" IVar="-1" Cut="0.0e+00" cType="1" res="0.0077102934" rms="0.0e+00" purity="0.0e+00" nType="-99" /><Node pos="r" depth="2" NCoef="0" IVar="-1" Cut="0.0e+00" cType="1" res="0.133796006" rms="0.0e+00" purity="0.0e+00" nType="-99" /></Node><Node pos="r" depth="1" NCoef="0" IVar="-1" Cut="0.0e+00" cType="1" res="-0.0213247109" rms="0.0e+00" purity="0.0e+00" nType="-99" /></Node></BinaryTree><BinaryTree type="DecisionTree" boostWeight="1.0e+00" itree="87"><Node pos="s" depth="0" NCoef="0" IVar="23" Cut="0.171588004" cType="1" res="0.0e+00" rms="0.0e+00" purity="0.0e+00" nType="0"><Node pos="l" depth="1" NCoef="0" IVar="-1" Cut="0.0e+00" cType="1" res="-0.0799812227" rms="0.0e+00" purity="0.0e+00" nType="-99" /><Node pos="r" depth="1" NCoef="0" IVar="-1" Cut="0.0e+00" cType="1" res="0.0435431786" rms="0.0e+00" purity="0.0e+00" nType="-99" /></Node></BinaryTree><BinaryTree type="DecisionTree" boostWeight="1.0e+00" itree="88"><Node pos="s" depth="0" NCoef="0" IVar="8" Cut="0.0185180008" cType="1" res="0.0e+00" rms="0.0e+00" purity="0.0e+00" nType="0"><Node pos="l" depth="1" NCoef="0" IVar="-1" Cut="0.0e+00" cType="1" res="0.0497088954" rms="0.0e+00" purity="0.0e+00" nType="-99" /><Node pos="r" depth="1" NCoef="0" IVar="-1" Cut="0.0e+00" cType="1" res="-0.100177966" rms="0.0e+00" purity="0.0e+00" nType="-99" /></Node></BinaryTree><BinaryTree type="DecisionTree" boostWeight="1.0e+00" itree="89"><Node pos="s" depth="0" NCoef="0" IVar="4" Cut="0.149594992" cType="1" res="0.0e+00" rms="0.0e+00" purity="0.0e+00" nType="0"><Node pos="l" depth="1" NCoef="0" IVar="-1" Cut="0.0e+00" cType="1" res="0.0491124913" rms="0.0e+00" purity="0.0e+00" nType="-99" /><Node pos="r" depth="1" NCoef="0" IVar="-1" Cut="0.0e+00" cType="1" res="-0.0893552005" rms="0.0e+00" purity="0.0e+00" nType="-99" /></Node></BinaryTree><BinaryTree type="DecisionTree" boostWeight="1.0e+00" itree="90"><Node pos="s" depth="0" NCoef="0" IVar="20" Cut="0.0760314986" cType="1" res="0.0e+00" rms="0.0e+00" purity="0.0e+00" nType="0"><Node pos="l" depth="1" NCoef="0" IVar="-1" Cut="0.0e+00" cType="1" res="0.0500924997" rms="0.0e+00" purity="0.0e+00" nType="-99" /><Node pos="r" depth="1" NCoef="0" IVar="-1" Cut="0.0e+00" cType="1" res="-0.0897391737" rms="0.0e+00" purity="0.0e+00" nType="-99" /></Node></BinaryTree><BinaryTree type="DecisionTree" boostWeight="1.0e+00" itree="91"><Node pos="s" depth="0" NCoef="0" IVar="10" Cut="0.0524355024" cType="1" res="0.0e+00" rms="0.0e+00" purity="0.0e+00" nType="0"><Node pos="l" depth="1" NCoef="0" IVar="-1" Cut="0.0e+00" cType="1" res="0.0617583618" rms="0.0e+00" purity="0.0e+00" nType="-99" /><Node pos="r" depth="1" NCoef="0" IVar="-1" Cut="0.0e+00" cType="1" res="-0.0879211053" rms="0.0e+00" purity="0.0e+00" nType="-99" /></Node></BinaryTree><BinaryTree type="DecisionTree" boostWeight="1.0e+00" itree="92"><Node pos="s" depth="0" NCoef="0" IVar="22" Cut="0.207988501" cType="1" res="0.0e+00" rms="0.0e+00" purity="0.0e+00" nType="0"><Node pos="l" depth="1" NCoef="0" IVar="-1" Cut="0.0e+00" cType="1" res="0.0735782683" rms="0.0e+00" purity="0.0e+00" nType="-99" /><Node pos="r" depth="1" NCoef="0" IVar="-1" Cut="0.0e+00" cType="1" res="-0.0832961053" rms="0.0e+00" purity="0.0e+00" nType="-99" /></Node></BinaryTree><BinaryTree type="DecisionTree" boostWeight="1.0e+00" itree="93"><Node pos="s" depth="0" NCoef="0" IVar="6" Cut="0.240778506" cType="1" res="0.0e+00" rms="0.0e+00" purity="0.0e+00" nType="0"><Node pos="l" depth="1" NCoef="0" IVar="7" Cut="0.946264505" cType="1" res="0.0e+00" rms="0.0e+00" purity="0.0e+00" nType="0"><Node pos="l" depth="2" NCoef="0" IVar="-1" Cut="0.0e+00" cType="1" res="0.128584802" rms="0.0e+00" purity="0.0e+00" nType="-99" /><Node pos="r" depth="2" NCoef="0" IVar="-1" Cut="0.0e+00" cType="1" res="-0.0179954059" rms="0.0e+00" purity="0.0e+00" nType="-99" /></Node><Node pos="r" depth="1" NCoef="0" IVar="-1" Cut="0.0e+00" cType="1" res="-0.0363033377" rms="0.0e+00" purity="0.0e+00" nType="-99" /></Node></BinaryTree><BinaryTree type="DecisionTree" boostWeight="1.0e+00" itree="94"><Node pos="s" depth="0" NCoef="0" IVar="-1" Cut="0.0e+00" cType="1" res="-0.0222386178" rms="0.0e+00" purity="0.0e+00" nType="-99" /></BinaryTree><BinaryTree type="DecisionTree" boostWeight="1.0e+00" itree="95"><Node pos="s" depth="0" NCoef="0" IVar="3" Cut="0.109404996" cType="1" res="0.0e+00" rms="0.0e+00" purity="0.0e+00" nType="0"><Node pos="l" depth="1" NCoef="0" IVar="-1" Cut="0.0e+00" cType="1" res="0.0524648428" rms="0.0e+00" purity="0.0e+00" nType="-99" /><Node pos="r" depth="1" NCoef="0" IVar="-1" Cut="0.0e+00" cType="1" res="-0.0910545439" rms="0.0e+00" purity="0.0e+00" nType="-99" /></Node></BinaryTree><BinaryTree type="DecisionTree" boostWeight="1.0e+00" itree="96"><Node pos="s" depth="0" NCoef="0" IVar="23" Cut="0.209631994" cType="1" res="0.0e+00" rms="0.0e+00" purity="0.0e+00" nType="0"><Node pos="l" depth="1" NCoef="0" IVar="-1" Cut="0.0e+00" cType="1" res="-0.0820137635" rms="0.0e+00" purity="0.0e+00" nType="-99" /><Node pos="r" depth="1" NCoef="0" IVar="-1" Cut="0.0e+00" cType="1" res="0.0411564857" rms="0.0e+00" purity="0.0e+00" nType="-99" /></Node></BinaryTree><BinaryTree type="DecisionTree" boostWeight="1.0e+00" itree="97"><Node pos="s" depth="0" NCoef="0" IVar="20" Cut="0.0760314986" cType="1" res="0.0e+00" rms="0.0e+00" purity="0.0e+00" nType="0"><Node pos="l" depth="1" NCoef="0" IVar="-1" Cut="0.0e+00" cType="1" res="0.0457602255" rms="0.0e+00" purity="0.0e+00" nType="-99" /><Node pos="r" depth="1" NCoef="0" IVar="-1" Cut="0.0e+00" cType="1" res="-0.0854805857" rms="0.0e+00" purity="0.0e+00" nType="-99" /></Node></BinaryTree><BinaryTree type="DecisionTree" boostWeight="1.0e+00" itree="98"><Node pos="s" depth="0" NCoef="0" IVar="10" Cut="0.0524355024" cType="1" res="0.0e+00" rms="0.0e+00" purity="0.0e+00" nType="0"><Node pos="l" depth="1" NCoef="0" IVar="-1" Cut="0.0e+00" cType="1" res="0.0545784682" rms="0.0e+00" purity="0.0e+00" nType="-99" /><Node pos="r" depth="1" NCoef="0" IVar="-1" Cut="0.0e+00" cType="1" res="-0.0836253688" rms="0.0e+00" purity="0.0e+00" nType="-99" /></Node></BinaryTree><BinaryTree type="DecisionTree" boostWeight="1.0e+00" itree="99"><Node pos="s" depth="0" NCoef="0" IVar="7" Cut="0.946264505" cType="1" res="0.0e+00" rms="0.0e+00" purity="0.0e+00" nType="0"><Node pos="l" depth="1" NCoef="0" IVar="-1" Cut="0.0e+00" cType="1" res="-0.0802224278" rms="0.0e+00" purity="0.0e+00" nType="-99" /><Node pos="r" depth="1" NCoef="0" IVar="-1" Cut="0.0e+00" cType="1" res="0.0704663172" rms="0.0e+00" purity="0.0e+00" nType="-99" /></Node></BinaryTree><BinaryTree type="DecisionTree" boostWeight="1.0e+00" itree="100"><Node pos="s" depth="0" NCoef="0" IVar="9" Cut="0.00295849983" cType="1" res="0.0e+00" rms="0.0e+00" purity="0.0e+00" nType="0"><Node pos="l" depth="1" NCoef="0" IVar="5" Cut="0.396535516" cType="1" res="0.0e+00" rms="0.0e+00" purity="0.0e+00" nType="0"><Node pos="l" depth="2" NCoef="0" IVar="-1" Cut="0.0e+00" cType="1" res="0.00363827217" rms="0.0e+00" purity="0.0e+00" nType="-99" /><Node pos="r" depth="2" NCoef="0" IVar="-1" Cut="0.0e+00" cType="1" res="0.123773851" rms="0.0e+00" purity="0.0e+00" nType="-99" /></Node><Node pos="r" depth="1" NCoef="0" IVar="-1" Cut="0.0e+00" cType="1" res="-0.0213058442" rms="0.0e+00" purity="0.0e+00" nType="-99" /></Node></BinaryTree><BinaryTree type="DecisionTree" boostWeight="1.0e+00" itree="101"><Node pos="s" depth="0" NCoef="0" IVar="-1" Cut="0.0e+00" cType="1" res="-0.018493183" rms="0.0e+00" purity="0.0e+00" nType="-99" /></BinaryTree><BinaryTree type="DecisionTree" boostWeight="1.0e+00" itree="102"><Node pos="s" depth="0" NCoef="0" IVar="8" Cut="0.0185180008" cType="1" res="0.0e+00" rms="0.0e+00" purity="0.0e+00" nType="0"><Node pos="l" depth="1" NCoef="0" IVar="-1" Cut="0.0e+00" cType="1" res="0.0467708483" rms="0.0e+00" purity="0.0e+00" nType="-99" /><Node pos="r" depth="1" NCoef="0" IVar="-1" Cut="0.0e+00" cType="1" res="-0.0939178988" rms="0.0e+00" purity="0.0e+00" nType="-99" /></Node></BinaryTree><BinaryTree type="DecisionTree" boostWeight="1.0e+00" itree="103"><Node pos="s" depth="0" NCoef="0" IVar="-1" Cut="0.0e+00" cType="1" res="-0.0251915026" rms="0.0e+00" purity="0.0e+00" nType="-99" /></BinaryTree><BinaryTree type="DecisionTree" boostWeight="1.0e+00" itree="104"><Node pos="s" depth="0" NCoef="0" IVar="24" Cut="0.000119999997" cType="1" res="0.0e+00" rms="0.0e+00" purity="0.0e+00" nType="0"><Node pos="l" depth="1" NCoef="0" IVar="-1" Cut="0.0e+00" cType="1" res="0.0450479761" rms="0.0e+00" purity="0.0e+00" nType="-99" /><Node pos="r" depth="1" NCoef="0" IVar="-1" Cut="0.0e+00" cType="1" res="-0.0811323076" rms="0.0e+00" purity="0.0e+00" nType="-99" /></Node></BinaryTree><BinaryTree type="DecisionTree" boostWeight="1.0e+00" itree="105"><Node pos="s" depth="0" NCoef="0" IVar="13" Cut="227453.281" cType="1" res="0.0e+00" rms="0.0e+00" purity="0.0e+00" nType="0"><Node pos="l" depth="1" NCoef="0" IVar="-1" Cut="0.0e+00" cType="1" res="0.0540505722" rms="0.0e+00" purity="0.0e+00" nType="-99" /><Node pos="r" depth="1" NCoef="0" IVar="-1" Cut="0.0e+00" cType="1" res="-0.0806742683" rms="0.0e+00" purity="0.0e+00" nType="-99" /></Node></BinaryTree><BinaryTree type="DecisionTree" boostWeight="1.0e+00" itree="106"><Node pos="s" depth="0" NCoef="0" IVar="4" Cut="0.149594992" cType="1" res="0.0e+00" rms="0.0e+00" purity="0.0e+00" nType="0"><Node pos="l" depth="1" NCoef="0" IVar="-1" Cut="0.0e+00" cType="1" res="0.0135447215" rms="0.0e+00" purity="0.0e+00" nType="-99" /><Node pos="r" depth="1" NCoef="0" IVar="-1" Cut="0.0e+00" cType="1" res="-0.0126316808" rms="0.0e+00" purity="0.0e+00" nType="-99" /></Node></BinaryTree><BinaryTree type="DecisionTree" boostWeight="1.0e+00" itree="107"><Node pos="s" depth="0" NCoef="0" IVar="9" Cut="0.00295849983" cType="1" res="0.0e+00" rms="0.0e+00" purity="0.0e+00" nType="0"><Node pos="l" depth="1" NCoef="0" IVar="5" Cut="0.396535516" cType="1" res="0.0e+00" rms="0.0e+00" purity="0.0e+00" nType="0"><Node pos="l" depth="2" NCoef="0" IVar="-1" Cut="0.0e+00" cType="1" res="0.00373717141" rms="0.0e+00" purity="0.0e+00" nType="-99" /><Node pos="r" depth="2" NCoef="0" IVar="-1" Cut="0.0e+00" cType="1" res="0.118306257" rms="0.0e+00" purity="0.0e+00" nType="-99" /></Node><Node pos="r" depth="1" NCoef="0" IVar="-1" Cut="0.0e+00" cType="1" res="-0.019351298" rms="0.0e+00" purity="0.0e+00" nType="-99" /></Node></BinaryTree><BinaryTree type="DecisionTree" boostWeight="1.0e+00" itree="108"><Node pos="s" depth="0" NCoef="0" IVar="-1" Cut="0.0e+00" cType="1" res="-0.0164094958" rms="0.0e+00" purity="0.0e+00" nType="-99" /></BinaryTree><BinaryTree type="DecisionTree" boostWeight="1.0e+00" itree="109"><Node pos="s" depth="0" NCoef="0" IVar="1" Cut="0.155913994" cType="1" res="0.0e+00" rms="0.0e+00" purity="0.0e+00" nType="0"><Node pos="l" depth="1" NCoef="0" IVar="-1" Cut="0.0e+00" cType="1" res="0.047860343" rms="0.0e+00" purity="0.0e+00" nType="-99" /><Node pos="r" depth="1" NCoef="0" IVar="-1" Cut="0.0e+00" cType="1" res="-0.0884815156" rms="0.0e+00" purity="0.0e+00" nType="-99" /></Node></BinaryTree><BinaryTree type="DecisionTree" boostWeight="1.0e+00" itree="110"><Node pos="s" depth="0" NCoef="0" IVar="-1" Cut="0.0e+00" cType="1" res="-0.02309772" rms="0.0e+00" purity="0.0e+00" nType="-99" /></BinaryTree><BinaryTree type="DecisionTree" boostWeight="1.0e+00" itree="111"><Node pos="s" depth="0" NCoef="0" IVar="-1" Cut="0.0e+00" cType="1" res="-0.0237824507" rms="0.0e+00" purity="0.0e+00" nType="-99" /></BinaryTree><BinaryTree type="DecisionTree" boostWeight="1.0e+00" itree="112"><Node pos="s" depth="0" NCoef="0" IVar="0" Cut="1.53059101" cType="1" res="0.0e+00" rms="0.0e+00" purity="0.0e+00" nType="0"><Node pos="l" depth="1" NCoef="0" IVar="-1" Cut="0.0e+00" cType="1" res="0.0281417053" rms="0.0e+00" purity="0.0e+00" nType="-99" /><Node pos="r" depth="1" NCoef="0" IVar="-1" Cut="0.0e+00" cType="1" res="-0.0257439837" rms="0.0e+00" purity="0.0e+00" nType="-99" /></Node></BinaryTree><BinaryTree type="DecisionTree" boostWeight="1.0e+00" itree="113"><Node pos="s" depth="0" NCoef="0" IVar="4" Cut="0.152349502" cType="1" res="0.0e+00" rms="0.0e+00" purity="0.0e+00" nType="0"><Node pos="l" depth="1" NCoef="0" IVar="-1" Cut="0.0e+00" cType="1" res="0.00832651462" rms="0.0e+00" purity="0.0e+00" nType="-99" /><Node pos="r" depth="1" NCoef="0" IVar="-1" Cut="0.0e+00" cType="1" res="-0.00775556732" rms="0.0e+00" purity="0.0e+00" nType="-99" /></Node></BinaryTree><BinaryTree type="DecisionTree" boostWeight="1.0e+00" itree="114"><Node pos="s" depth="0" NCoef="0" IVar="2" Cut="1.64043951" cType="1" res="0.0e+00" rms="0.0e+00" purity="0.0e+00" nType="0"><Node pos="l" depth="1" NCoef="0" IVar="2" Cut="1.49161005" cType="1" res="0.0e+00" rms="0.0e+00" purity="0.0e+00" nType="0"><Node pos="l" depth="2" NCoef="0" IVar="-1" Cut="0.0e+00" cType="1" res="-0.0154287945" rms="0.0e+00" purity="0.0e+00" nType="-99" /><Node pos="r" depth="2" NCoef="0" IVar="-1" Cut="0.0e+00" cType="1" res="0.1213395" rms="0.0e+00" purity="0.0e+00" nType="-99" /></Node><Node pos="r" depth="1" NCoef="0" IVar="-1" Cut="0.0e+00" cType="1" res="-0.0230175275" rms="0.0e+00" purity="0.0e+00" nType="-99" /></Node></BinaryTree><BinaryTree type="DecisionTree" boostWeight="1.0e+00" itree="115"><Node pos="s" depth="0" NCoef="0" IVar="-1" Cut="0.0e+00" cType="1" res="-0.0144143905" rms="0.0e+00" purity="0.0e+00" nType="-99" /></BinaryTree><BinaryTree type="DecisionTree" boostWeight="1.0e+00" itree="116"><Node pos="s" depth="0" NCoef="0" IVar="3" Cut="0.109404996" cType="1" res="0.0e+00" rms="0.0e+00" purity="0.0e+00" nType="0"><Node pos="l" depth="1" NCoef="0" IVar="-1" Cut="0.0e+00" cType="1" res="0.0425317436" rms="0.0e+00" purity="0.0e+00" nType="-99" /><Node pos="r" depth="1" NCoef="0" IVar="-1" Cut="0.0e+00" cType="1" res="-0.0833291933" rms="0.0e+00" purity="0.0e+00" nType="-99" /></Node></BinaryTree><BinaryTree type="DecisionTree" boostWeight="1.0e+00" itree="117"><Node pos="s" depth="0" NCoef="0" IVar="-1" Cut="0.0e+00" cType="1" res="-0.0197892487" rms="0.0e+00" purity="0.0e+00" nType="-99" /></BinaryTree><BinaryTree type="DecisionTree" boostWeight="1.0e+00" itree="118"><Node pos="s" depth="0" NCoef="0" IVar="-1" Cut="0.0e+00" cType="1" res="-0.0219253786" rms="0.0e+00" purity="0.0e+00" nType="-99" /></BinaryTree><BinaryTree type="DecisionTree" boostWeight="1.0e+00" itree="119"><Node pos="s" depth="0" NCoef="0" IVar="2" Cut="1.4865756" cType="1" res="0.0e+00" rms="0.0e+00" purity="0.0e+00" nType="0"><Node pos="l" depth="1" NCoef="0" IVar="-1" Cut="0.0e+00" cType="1" res="0.0274008233" rms="0.0e+00" purity="0.0e+00" nType="-99" /><Node pos="r" depth="1" NCoef="0" IVar="-1" Cut="0.0e+00" cType="1" res="-0.0224445071" rms="0.0e+00" purity="0.0e+00" nType="-99" /></Node></BinaryTree><BinaryTree type="DecisionTree" boostWeight="1.0e+00" itree="120"><Node pos="s" depth="0" NCoef="0" IVar="4" Cut="0.152349502" cType="1" res="0.0e+00" rms="0.0e+00" purity="0.0e+00" nType="0"><Node pos="l" depth="1" NCoef="0" IVar="-1" Cut="0.0e+00" cType="1" res="0.00809324905" rms="0.0e+00" purity="0.0e+00" nType="-99" /><Node pos="r" depth="1" NCoef="0" IVar="-1" Cut="0.0e+00" cType="1" res="-0.00816192478" rms="0.0e+00" purity="0.0e+00" nType="-99" /></Node></BinaryTree><BinaryTree type="DecisionTree" boostWeight="1.0e+00" itree="121"><Node pos="s" depth="0" NCoef="0" IVar="2" Cut="1.64043951" cType="1" res="0.0e+00" rms="0.0e+00" purity="0.0e+00" nType="0"><Node pos="l" depth="1" NCoef="0" IVar="0" Cut="1.63277853" cType="1" res="0.0e+00" rms="0.0e+00" purity="0.0e+00" nType="0"><Node pos="l" depth="2" NCoef="0" IVar="-1" Cut="0.0e+00" cType="1" res="0.011675139" rms="0.0e+00" purity="0.0e+00" nType="-99" /><Node pos="r" depth="2" NCoef="0" IVar="-1" Cut="0.0e+00" cType="1" res="0.105369031" rms="0.0e+00" purity="0.0e+00" nType="-99" /></Node><Node pos="r" depth="1" NCoef="0" IVar="-1" Cut="0.0e+00" cType="1" res="-0.022317484" rms="0.0e+00" purity="0.0e+00" nType="-99" /></Node></BinaryTree><BinaryTree type="DecisionTree" boostWeight="1.0e+00" itree="122"><Node pos="s" depth="0" NCoef="0" IVar="-1" Cut="0.0e+00" cType="1" res="-0.0131016094" rms="0.0e+00" purity="0.0e+00" nType="-99" /></BinaryTree><BinaryTree type="DecisionTree" boostWeight="1.0e+00" itree="123"><Node pos="s" depth="0" NCoef="0" IVar="23" Cut="0.125228003" cType="1" res="0.0e+00" rms="0.0e+00" purity="0.0e+00" nType="0"><Node pos="l" depth="1" NCoef="0" IVar="-1" Cut="0.0e+00" cType="1" res="0.00896788482" rms="0.0e+00" purity="0.0e+00" nType="-99" /><Node pos="r" depth="1" NCoef="0" IVar="-1" Cut="0.0e+00" cType="1" res="-0.035268601" rms="0.0e+00" purity="0.0e+00" nType="-99" /></Node></BinaryTree><BinaryTree type="DecisionTree" boostWeight="1.0e+00" itree="124"><Node pos="s" depth="0" NCoef="0" IVar="-1" Cut="0.0e+00" cType="1" res="-0.0178721659" rms="0.0e+00" purity="0.0e+00" nType="-99" /></BinaryTree><BinaryTree type="DecisionTree" boostWeight="1.0e+00" itree="125"><Node pos="s" depth="0" NCoef="0" IVar="-1" Cut="0.0e+00" cType="1" res="-0.0187450349" rms="0.0e+00" purity="0.0e+00" nType="-99" /></BinaryTree><BinaryTree type="DecisionTree" boostWeight="1.0e+00" itree="126"><Node pos="s" depth="0" NCoef="0" IVar="19" Cut="4.94549561" cType="1" res="0.0e+00" rms="0.0e+00" purity="0.0e+00" nType="0"><Node pos="l" depth="1" NCoef="0" IVar="-1" Cut="0.0e+00" cType="1" res="-0.0197256505" rms="0.0e+00" purity="0.0e+00" nType="-99" /><Node pos="r" depth="1" NCoef="0" IVar="-1" Cut="0.0e+00" cType="1" res="0.0261333734" rms="0.0e+00" purity="0.0e+00" nType="-99" /></Node></BinaryTree><BinaryTree type="DecisionTree" boostWeight="1.0e+00" itree="127"><Node pos="s" depth="0" NCoef="0" IVar="4" Cut="0.152349502" cType="1" res="0.0e+00" rms="0.0e+00" purity="0.0e+00" nType="0"><Node pos="l" depth="1" NCoef="0" IVar="-1" Cut="0.0e+00" cType="1" res="0.00794939417" rms="0.0e+00" purity="0.0e+00" nType="-99" /><Node pos="r" depth="1" NCoef="0" IVar="-1" Cut="0.0e+00" cType="1" res="-0.00872660056" rms="0.0e+00" purity="0.0e+00" nType="-99" /></Node></BinaryTree><BinaryTree type="DecisionTree" boostWeight="1.0e+00" itree="128"><Node pos="s" depth="0" NCoef="0" IVar="6" Cut="0.240778506" cType="1" res="0.0e+00" rms="0.0e+00" purity="0.0e+00" nType="0"><Node pos="l" depth="1" NCoef="0" IVar="7" Cut="0.946264505" cType="1" res="0.0e+00" rms="0.0e+00" purity="0.0e+00" nType="0"><Node pos="l" depth="2" NCoef="0" IVar="-1" Cut="0.0e+00" cType="1" res="0.11177139" rms="0.0e+00" purity="0.0e+00" nType="-99" /><Node pos="r" depth="2" NCoef="0" IVar="-1" Cut="0.0e+00" cType="1" res="-0.0236173943" rms="0.0e+00" purity="0.0e+00" nType="-99" /></Node><Node pos="r" depth="1" NCoef="0" IVar="-1" Cut="0.0e+00" cType="1" res="-0.036286965" rms="0.0e+00" purity="0.0e+00" nType="-99" /></Node></BinaryTree><BinaryTree type="DecisionTree" boostWeight="1.0e+00" itree="129"><Node pos="s" depth="0" NCoef="0" IVar="-1" Cut="0.0e+00" cType="1" res="-0.012183941" rms="0.0e+00" purity="0.0e+00" nType="-99" /></BinaryTree><BinaryTree type="DecisionTree" boostWeight="1.0e+00" itree="130"><Node pos="s" depth="0" NCoef="0" IVar="23" Cut="0.125228003" cType="1" res="0.0e+00" rms="0.0e+00" purity="0.0e+00" nType="0"><Node pos="l" depth="1" NCoef="0" IVar="-1" Cut="0.0e+00" cType="1" res="0.00873395521" rms="0.0e+00" purity="0.0e+00" nType="-99" /><Node pos="r" depth="1" NCoef="0" IVar="-1" Cut="0.0e+00" cType="1" res="-0.0329878367" rms="0.0e+00" purity="0.0e+00" nType="-99" /></Node></BinaryTree><BinaryTree type="DecisionTree" boostWeight="1.0e+00" itree="131"><Node pos="s" depth="0" NCoef="0" IVar="-1" Cut="0.0e+00" cType="1" res="-0.0160499681" rms="0.0e+00" purity="0.0e+00" nType="-99" /></BinaryTree><BinaryTree type="DecisionTree" boostWeight="1.0e+00" itree="132"><Node pos="s" depth="0" NCoef="0" IVar="-1" Cut="0.0e+00" cType="1" res="-0.0170394368" rms="0.0e+00" purity="0.0e+00" nType="-99" /></BinaryTree><BinaryTree type="DecisionTree" boostWeight="1.0e+00" itree="133"><Node pos="s" depth="0" NCoef="0" IVar="19" Cut="4.94549561" cType="1" res="0.0e+00" rms="0.0e+00" purity="0.0e+00" nType="0"><Node pos="l" depth="1" NCoef="0" IVar="-1" Cut="0.0e+00" cType="1" res="-0.0186046902" rms="0.0e+00" purity="0.0e+00" nType="-99" /><Node pos="r" depth="1" NCoef="0" IVar="-1" Cut="0.0e+00" cType="1" res="0.0251414552" rms="0.0e+00" purity="0.0e+00" nType="-99" /></Node></BinaryTree><BinaryTree type="DecisionTree" boostWeight="1.0e+00" itree="134"><Node pos="s" depth="0" NCoef="0" IVar="4" Cut="0.152349502" cType="1" res="0.0e+00" rms="0.0e+00" purity="0.0e+00" nType="0"><Node pos="l" depth="1" NCoef="0" IVar="-1" Cut="0.0e+00" cType="1" res="0.00756302336" rms="0.0e+00" purity="0.0e+00" nType="-99" /><Node pos="r" depth="1" NCoef="0" IVar="-1" Cut="0.0e+00" cType="1" res="-0.00689804321" rms="0.0e+00" purity="0.0e+00" nType="-99" /></Node></BinaryTree><BinaryTree type="DecisionTree" boostWeight="1.0e+00" itree="135"><Node pos="s" depth="0" NCoef="0" IVar="2" Cut="1.64043951" cType="1" res="0.0e+00" rms="0.0e+00" purity="0.0e+00" nType="0"><Node pos="l" depth="1" NCoef="0" IVar="0" Cut="1.63277853" cType="1" res="0.0e+00" rms="0.0e+00" purity="0.0e+00" nType="0"><Node pos="l" depth="2" NCoef="0" IVar="-1" Cut="0.0e+00" cType="1" res="0.00880637299" rms="0.0e+00" purity="0.0e+00" nType="-99" /><Node pos="r" depth="2" NCoef="0" IVar="-1" Cut="0.0e+00" cType="1" res="0.097850129" rms="0.0e+00" purity="0.0e+00" nType="-99" /></Node><Node pos="r" depth="1" NCoef="0" IVar="-1" Cut="0.0e+00" cType="1" res="-0.0254406203" rms="0.0e+00" purity="0.0e+00" nType="-99" /></Node></BinaryTree><BinaryTree type="DecisionTree" boostWeight="1.0e+00" itree="136"><Node pos="s" depth="0" NCoef="0" IVar="-1" Cut="0.0e+00" cType="1" res="-0.010138901" rms="0.0e+00" purity="0.0e+00" nType="-99" /></BinaryTree><BinaryTree type="DecisionTree" boostWeight="1.0e+00" itree="137"><Node pos="s" depth="0" NCoef="0" IVar="23" Cut="0.125228003" cType="1" res="0.0e+00" rms="0.0e+00" purity="0.0e+00" nType="0"><Node pos="l" depth="1" NCoef="0" IVar="-1" Cut="0.0e+00" cType="1" res="0.00748108374" rms="0.0e+00" purity="0.0e+00" nType="-99" /><Node pos="r" depth="1" NCoef="0" IVar="-1" Cut="0.0e+00" cType="1" res="-0.0311392993" rms="0.0e+00" purity="0.0e+00" nType="-99" /></Node></BinaryTree><BinaryTree type="DecisionTree" boostWeight="1.0e+00" itree="138"><Node pos="s" depth="0" NCoef="0" IVar="-1" Cut="0.0e+00" cType="1" res="-0.0141016273" rms="0.0e+00" purity="0.0e+00" nType="-99" /></BinaryTree><BinaryTree type="DecisionTree" boostWeight="1.0e+00" itree="139"><Node pos="s" depth="0" NCoef="0" IVar="-1" Cut="0.0e+00" cType="1" res="-0.0152944215" rms="0.0e+00" purity="0.0e+00" nType="-99" /></BinaryTree><BinaryTree type="DecisionTree" boostWeight="1.0e+00" itree="140"><Node pos="s" depth="0" NCoef="0" IVar="19" Cut="4.94549561" cType="1" res="0.0e+00" rms="0.0e+00" purity="0.0e+00" nType="0"><Node pos="l" depth="1" NCoef="0" IVar="-1" Cut="0.0e+00" cType="1" res="-0.0162183046" rms="0.0e+00" purity="0.0e+00" nType="-99" /><Node pos="r" depth="1" NCoef="0" IVar="-1" Cut="0.0e+00" cType="1" res="0.0239467863" rms="0.0e+00" purity="0.0e+00" nType="-99" /></Node></BinaryTree><BinaryTree type="DecisionTree" boostWeight="1.0e+00" itree="141"><Node pos="s" depth="0" NCoef="0" IVar="13" Cut="482183.594" cType="1" res="0.0e+00" rms="0.0e+00" purity="0.0e+00" nType="0"><Node pos="l" depth="1" NCoef="0" IVar="-1" Cut="0.0e+00" cType="1" res="-0.00465262448" rms="0.0e+00" purity="0.0e+00" nType="-99" /><Node pos="r" depth="1" NCoef="0" IVar="-1" Cut="0.0e+00" cType="1" res="0.00413453812" rms="0.0e+00" purity="0.0e+00" nType="-99" /></Node></BinaryTree><BinaryTree type="DecisionTree" boostWeight="1.0e+00" itree="142"><Node pos="s" depth="0" NCoef="0" IVar="3" Cut="0.260352015" cType="1" res="0.0e+00" rms="0.0e+00" purity="0.0e+00" nType="0"><Node pos="l" depth="1" NCoef="0" IVar="5" Cut="0.569023967" cType="1" res="0.0e+00" rms="0.0e+00" purity="0.0e+00" nType="0"><Node pos="l" depth="2" NCoef="0" IVar="-1" Cut="0.0e+00" cType="1" res="-0.07976266" rms="0.0e+00" purity="0.0e+00" nType="-99" /><Node pos="r" depth="2" NCoef="0" IVar="-1" Cut="0.0e+00" cType="1" res="0.0749140084" rms="0.0e+00" purity="0.0e+00" nType="-99" /></Node><Node pos="r" depth="1" NCoef="0" IVar="-1" Cut="0.0e+00" cType="1" res="0.0858914629" rms="0.0e+00" purity="0.0e+00" nType="-99" /></Node></BinaryTree><BinaryTree type="DecisionTree" boostWeight="1.0e+00" itree="143"><Node pos="s" depth="0" NCoef="0" IVar="-1" Cut="0.0e+00" cType="1" res="-0.00939399377" rms="0.0e+00" purity="0.0e+00" nType="-99" /></BinaryTree><BinaryTree type="DecisionTree" boostWeight="1.0e+00" itree="144"><Node pos="s" depth="0" NCoef="0" IVar="23" Cut="0.125228003" cType="1" res="0.0e+00" rms="0.0e+00" purity="0.0e+00" nType="0"><Node pos="l" depth="1" NCoef="0" IVar="-1" Cut="0.0e+00" cType="1" res="0.0068899449" rms="0.0e+00" purity="0.0e+00" nType="-99" /><Node pos="r" depth="1" NCoef="0" IVar="-1" Cut="0.0e+00" cType="1" res="-0.0291774552" rms="0.0e+00" purity="0.0e+00" nType="-99" /></Node></BinaryTree><BinaryTree type="DecisionTree" boostWeight="1.0e+00" itree="145"><Node pos="s" depth="0" NCoef="0" IVar="-1" Cut="0.0e+00" cType="1" res="-0.0126869986" rms="0.0e+00" purity="0.0e+00" nType="-99" /></BinaryTree><BinaryTree type="DecisionTree" boostWeight="1.0e+00" itree="146"><Node pos="s" depth="0" NCoef="0" IVar="-1" Cut="0.0e+00" cType="1" res="-0.014072502" rms="0.0e+00" purity="0.0e+00" nType="-99" /></BinaryTree><BinaryTree type="DecisionTree" boostWeight="1.0e+00" itree="147"><Node pos="s" depth="0" NCoef="0" IVar="19" Cut="4.94549561" cType="1" res="0.0e+00" rms="0.0e+00" purity="0.0e+00" nType="0"><Node pos="l" depth="1" NCoef="0" IVar="-1" Cut="0.0e+00" cType="1" res="-0.014967029" rms="0.0e+00" purity="0.0e+00" nType="-99" /><Node pos="r" depth="1" NCoef="0" IVar="-1" Cut="0.0e+00" cType="1" res="0.0222432688" rms="0.0e+00" purity="0.0e+00" nType="-99" /></Node></BinaryTree><BinaryTree type="DecisionTree" boostWeight="1.0e+00" itree="148"><Node pos="s" depth="0" NCoef="0" IVar="-1" Cut="0.0e+00" cType="1" res="-0.00111960538" rms="0.0e+00" purity="0.0e+00" nType="-99" /></BinaryTree><BinaryTree type="DecisionTree" boostWeight="1.0e+00" itree="149"><Node pos="s" depth="0" NCoef="0" IVar="6" Cut="0.240778506" cType="1" res="0.0e+00" rms="0.0e+00" purity="0.0e+00" nType="0"><Node pos="l" depth="1" NCoef="0" IVar="7" Cut="0.946264505" cType="1" res="0.0e+00" rms="0.0e+00" purity="0.0e+00" nType="0"><Node pos="l" depth="2" NCoef="0" IVar="-1" Cut="0.0e+00" cType="1" res="0.10252852" rms="0.0e+00" purity="0.0e+00" nType="-99" /><Node pos="r" depth="2" NCoef="0" IVar="-1" Cut="0.0e+00" cType="1" res="-0.0239444189" rms="0.0e+00" purity="0.0e+00" nType="-99" /></Node><Node pos="r" depth="1" NCoef="0" IVar="-1" Cut="0.0e+00" cType="1" res="-0.0362443738" rms="0.0e+00" purity="0.0e+00" nType="-99" /></Node></BinaryTree><BinaryTree type="DecisionTree" boostWeight="1.0e+00" itree="150"><Node pos="s" depth="0" NCoef="0" IVar="-1" Cut="0.0e+00" cType="1" res="-0.00866336841" rms="0.0e+00" purity="0.0e+00" nType="-99" /></BinaryTree><BinaryTree type="DecisionTree" boostWeight="1.0e+00" itree="151"><Node pos="s" depth="0" NCoef="0" IVar="20" Cut="0.116645999" cType="1" res="0.0e+00" rms="0.0e+00" purity="0.0e+00" nType="0"><Node pos="l" depth="1" NCoef="0" IVar="-1" Cut="0.0e+00" cType="1" res="-0.0207420103" rms="0.0e+00" purity="0.0e+00" nType="-99" /><Node pos="r" depth="1" NCoef="0" IVar="-1" Cut="0.0e+00" cType="1" res="-0.00125949248" rms="0.0e+00" purity="0.0e+00" nType="-99" /></Node></BinaryTree><BinaryTree type="DecisionTree" boostWeight="1.0e+00" itree="152"><Node pos="s" depth="0" NCoef="0" IVar="-1" Cut="0.0e+00" cType="1" res="-0.0115772095" rms="0.0e+00" purity="0.0e+00" nType="-99" /></BinaryTree><BinaryTree type="DecisionTree" boostWeight="1.0e+00" itree="153"><Node pos="s" depth="0" NCoef="0" IVar="-1" Cut="0.0e+00" cType="1" res="-0.0122314384" rms="0.0e+00" purity="0.0e+00" nType="-99" /></BinaryTree><BinaryTree type="DecisionTree" boostWeight="1.0e+00" itree="154"><Node pos="s" depth="0" NCoef="0" IVar="21" Cut="0.168061003" cType="1" res="0.0e+00" rms="0.0e+00" purity="0.0e+00" nType="0"><Node pos="l" depth="1" NCoef="0" IVar="-1" Cut="0.0e+00" cType="1" res="-0.0138466144" rms="0.0e+00" purity="0.0e+00" nType="-99" /><Node pos="r" depth="1" NCoef="0" IVar="-1" Cut="0.0e+00" cType="1" res="0.020447595" rms="0.0e+00" purity="0.0e+00" nType="-99" /></Node></BinaryTree><BinaryTree type="DecisionTree" boostWeight="1.0e+00" itree="155"><Node pos="s" depth="0" NCoef="0" IVar="-1" Cut="0.0e+00" cType="1" res="-0.000315867015" rms="0.0e+00" purity="0.0e+00" nType="-99" /></BinaryTree><BinaryTree type="DecisionTree" boostWeight="1.0e+00" itree="156"><Node pos="s" depth="0" NCoef="0" IVar="9" Cut="0.00295849983" cType="1" res="0.0e+00" rms="0.0e+00" purity="0.0e+00" nType="0"><Node pos="l" depth="1" NCoef="0" IVar="5" Cut="0.405697495" cType="1" res="0.0e+00" rms="0.0e+00" purity="0.0e+00" nType="0"><Node pos="l" depth="2" NCoef="0" IVar="-1" Cut="0.0e+00" cType="1" res="-0.00116087729" rms="0.0e+00" purity="0.0e+00" nType="-99" /><Node pos="r" depth="2" NCoef="0" IVar="-1" Cut="0.0e+00" cType="1" res="0.0906698331" rms="0.0e+00" purity="0.0e+00" nType="-99" /></Node><Node pos="r" depth="1" NCoef="0" IVar="-1" Cut="0.0e+00" cType="1" res="-0.0251166485" rms="0.0e+00" purity="0.0e+00" nType="-99" /></Node></BinaryTree><BinaryTree type="DecisionTree" boostWeight="1.0e+00" itree="157"><Node pos="s" depth="0" NCoef="0" IVar="-1" Cut="0.0e+00" cType="1" res="-0.00699932035" rms="0.0e+00" purity="0.0e+00" nType="-99" /></BinaryTree><BinaryTree type="DecisionTree" boostWeight="1.0e+00" itree="158"><Node pos="s" depth="0" NCoef="0" IVar="20" Cut="0.116645999" cType="1" res="0.0e+00" rms="0.0e+00" purity="0.0e+00" nType="0"><Node pos="l" depth="1" NCoef="0" IVar="-1" Cut="0.0e+00" cType="1" res="-0.0197917148" rms="0.0e+00" purity="0.0e+00" nType="-99" /><Node pos="r" depth="1" NCoef="0" IVar="-1" Cut="0.0e+00" cType="1" res="-0.00159369747" rms="0.0e+00" purity="0.0e+00" nType="-99" /></Node></BinaryTree><BinaryTree type="DecisionTree" boostWeight="1.0e+00" itree="159"><Node pos="s" depth="0" NCoef="0" IVar="-1" Cut="0.0e+00" cType="1" res="-0.00997734535" rms="0.0e+00" purity="0.0e+00" nType="-99" /></BinaryTree><BinaryTree type="DecisionTree" boostWeight="1.0e+00" itree="160"><Node pos="s" depth="0" NCoef="0" IVar="-1" Cut="0.0e+00" cType="1" res="-0.0109232198" rms="0.0e+00" purity="0.0e+00" nType="-99" /></BinaryTree><BinaryTree type="DecisionTree" boostWeight="1.0e+00" itree="161"><Node pos="s" depth="0" NCoef="0" IVar="8" Cut="0.0089030005" cType="1" res="0.0e+00" rms="0.0e+00" purity="0.0e+00" nType="0"><Node pos="l" depth="1" NCoef="0" IVar="-1" Cut="0.0e+00" cType="1" res="0.0212018825" rms="0.0e+00" purity="0.0e+00" nType="-99" /><Node pos="r" depth="1" NCoef="0" IVar="-1" Cut="0.0e+00" cType="1" res="-0.0139812753" rms="0.0e+00" purity="0.0e+00" nType="-99" /></Node></BinaryTree><BinaryTree type="DecisionTree" boostWeight="1.0e+00" itree="162"><Node pos="s" depth="0" NCoef="0" IVar="-1" Cut="0.0e+00" cType="1" res="-0.000346550456" rms="0.0e+00" purity="0.0e+00" nType="-99" /></BinaryTree><BinaryTree type="DecisionTree" boostWeight="1.0e+00" itree="163"><Node pos="s" depth="0" NCoef="0" IVar="7" Cut="0.946264505" cType="1" res="0.0e+00" rms="0.0e+00" purity="0.0e+00" nType="0"><Node pos="l" depth="1" NCoef="0" IVar="1" Cut="0.1929335" cType="1" res="0.0e+00" rms="0.0e+00" purity="0.0e+00" nType="0"><Node pos="l" depth="2" NCoef="0" IVar="-1" Cut="0.0e+00" cType="1" res="0.00154109357" rms="0.0e+00" purity="0.0e+00" nType="-99" /><Node pos="r" depth="2" NCoef="0" IVar="-1" Cut="0.0e+00" cType="1" res="0.0838034749" rms="0.0e+00" purity="0.0e+00" nType="-99" /></Node><Node pos="r" depth="1" NCoef="0" IVar="-1" Cut="0.0e+00" cType="1" res="-0.0314028673" rms="0.0e+00" purity="0.0e+00" nType="-99" /></Node></BinaryTree><BinaryTree type="DecisionTree" boostWeight="1.0e+00" itree="164"><Node pos="s" depth="0" NCoef="0" IVar="-1" Cut="0.0e+00" cType="1" res="-0.00615397468" rms="0.0e+00" purity="0.0e+00" nType="-99" /></BinaryTree><BinaryTree type="DecisionTree" boostWeight="1.0e+00" itree="165"><Node pos="s" depth="0" NCoef="0" IVar="20" Cut="0.116645999" cType="1" res="0.0e+00" rms="0.0e+00" purity="0.0e+00" nType="0"><Node pos="l" depth="1" NCoef="0" IVar="-1" Cut="0.0e+00" cType="1" res="-0.0187526811" rms="0.0e+00" purity="0.0e+00" nType="-99" /><Node pos="r" depth="1" NCoef="0" IVar="-1" Cut="0.0e+00" cType="1" res="-0.00168586441" rms="0.0e+00" purity="0.0e+00" nType="-99" /></Node></BinaryTree><BinaryTree type="DecisionTree" boostWeight="1.0e+00" itree="166"><Node pos="s" depth="0" NCoef="0" IVar="-1" Cut="0.0e+00" cType="1" res="-0.0090530701" rms="0.0e+00" purity="0.0e+00" nType="-99" /></BinaryTree><BinaryTree type="DecisionTree" boostWeight="1.0e+00" itree="167"><Node pos="s" depth="0" NCoef="0" IVar="-1" Cut="0.0e+00" cType="1" res="-0.0102233402" rms="0.0e+00" purity="0.0e+00" nType="-99" /></BinaryTree><BinaryTree type="DecisionTree" boostWeight="1.0e+00" itree="168"><Node pos="s" depth="0" NCoef="0" IVar="7" Cut="0.915627956" cType="1" res="0.0e+00" rms="0.0e+00" purity="0.0e+00" nType="0"><Node pos="l" depth="1" NCoef="0" IVar="-1" Cut="0.0e+00" cType="1" res="0.0192500614" rms="0.0e+00" purity="0.0e+00" nType="-99" /><Node pos="r" depth="1" NCoef="0" IVar="-1" Cut="0.0e+00" cType="1" res="-0.0131075326" rms="0.0e+00" purity="0.0e+00" nType="-99" /></Node></BinaryTree><BinaryTree type="DecisionTree" boostWeight="1.0e+00" itree="169"><Node pos="s" depth="0" NCoef="0" IVar="-1" Cut="0.0e+00" cType="1" res="0.000136847244" rms="0.0e+00" purity="0.0e+00" nType="-99" /></BinaryTree><BinaryTree type="DecisionTree" boostWeight="1.0e+00" itree="170"><Node pos="s" depth="0" NCoef="0" IVar="5" Cut="0.569023967" cType="1" res="0.0e+00" rms="0.0e+00" purity="0.0e+00" nType="0"><Node pos="l" depth="1" NCoef="0" IVar="3" Cut="0.219247013" cType="1" res="0.0e+00" rms="0.0e+00" purity="0.0e+00" nType="0"><Node pos="l" depth="2" NCoef="0" IVar="-1" Cut="0.0e+00" cType="1" res="-0.0819730312" rms="0.0e+00" purity="0.0e+00" nType="-99" /><Node pos="r" depth="2" NCoef="0" IVar="-1" Cut="0.0e+00" cType="1" res="0.0517959297" rms="0.0e+00" purity="0.0e+00" nType="-99" /></Node><Node pos="r" depth="1" NCoef="0" IVar="-1" Cut="0.0e+00" cType="1" res="0.0675338805" rms="0.0e+00" purity="0.0e+00" nType="-99" /></Node></BinaryTree><BinaryTree type="DecisionTree" boostWeight="1.0e+00" itree="171"><Node pos="s" depth="0" NCoef="0" IVar="-1" Cut="0.0e+00" cType="1" res="-0.00530432118" rms="0.0e+00" purity="0.0e+00" nType="-99" /></BinaryTree><BinaryTree type="DecisionTree" boostWeight="1.0e+00" itree="172"><Node pos="s" depth="0" NCoef="0" IVar="20" Cut="0.116645999" cType="1" res="0.0e+00" rms="0.0e+00" purity="0.0e+00" nType="0"><Node pos="l" depth="1" NCoef="0" IVar="-1" Cut="0.0e+00" cType="1" res="-0.017362142" rms="0.0e+00" purity="0.0e+00" nType="-99" /><Node pos="r" depth="1" NCoef="0" IVar="-1" Cut="0.0e+00" cType="1" res="-0.00233489322" rms="0.0e+00" purity="0.0e+00" nType="-99" /></Node></BinaryTree><BinaryTree type="DecisionTree" boostWeight="1.0e+00" itree="173"><Node pos="s" depth="0" NCoef="0" IVar="-1" Cut="0.0e+00" cType="1" res="-0.00810397696" rms="0.0e+00" purity="0.0e+00" nType="-99" /></BinaryTree><BinaryTree type="DecisionTree" boostWeight="1.0e+00" itree="174"><Node pos="s" depth="0" NCoef="0" IVar="-1" Cut="0.0e+00" cType="1" res="-0.00952976197" rms="0.0e+00" purity="0.0e+00" nType="-99" /></BinaryTree><BinaryTree type="DecisionTree" boostWeight="1.0e+00" itree="175"><Node pos="s" depth="0" NCoef="0" IVar="24" Cut="0.000214" cType="1" res="0.0e+00" rms="0.0e+00" purity="0.0e+00" nType="0"><Node pos="l" depth="1" NCoef="0" IVar="-1" Cut="0.0e+00" cType="1" res="-0.0131160598" rms="0.0e+00" purity="0.0e+00" nType="-99" /><Node pos="r" depth="1" NCoef="0" IVar="-1" Cut="0.0e+00" cType="1" res="0.0189353768" rms="0.0e+00" purity="0.0e+00" nType="-99" /></Node></BinaryTree><BinaryTree type="DecisionTree" boostWeight="1.0e+00" itree="176"><Node pos="s" depth="0" NCoef="0" IVar="-1" Cut="0.0e+00" cType="1" res="0.000305376423" rms="0.0e+00" purity="0.0e+00" nType="-99" /></BinaryTree><BinaryTree type="DecisionTree" boostWeight="1.0e+00" itree="177"><Node pos="s" depth="0" NCoef="0" IVar="2" Cut="1.64043951" cType="1" res="0.0e+00" rms="0.0e+00" purity="0.0e+00" nType="0"><Node pos="l" depth="1" NCoef="0" IVar="-1" Cut="0.0e+00" cType="1" res="0.0508302934" rms="0.0e+00" purity="0.0e+00" nType="-99" /><Node pos="r" depth="1" NCoef="0" IVar="-1" Cut="0.0e+00" cType="1" res="-0.0289131012" rms="0.0e+00" purity="0.0e+00" nType="-99" /></Node></BinaryTree><BinaryTree type="DecisionTree" boostWeight="1.0e+00" itree="178"><Node pos="s" depth="0" NCoef="0" IVar="-1" Cut="0.0e+00" cType="1" res="-0.00463664671" rms="0.0e+00" purity="0.0e+00" nType="-99" /></BinaryTree><BinaryTree type="DecisionTree" boostWeight="1.0e+00" itree="179"><Node pos="s" depth="0" NCoef="0" IVar="7" Cut="0.921817541" cType="1" res="0.0e+00" rms="0.0e+00" purity="0.0e+00" nType="0"><Node pos="l" depth="1" NCoef="0" IVar="-1" Cut="0.0e+00" cType="1" res="-0.0161885731" rms="0.0e+00" purity="0.0e+00" nType="-99" /><Node pos="r" depth="1" NCoef="0" IVar="-1" Cut="0.0e+00" cType="1" res="-0.00157780631" rms="0.0e+00" purity="0.0e+00" nType="-99" /></Node></BinaryTree><BinaryTree type="DecisionTree" boostWeight="1.0e+00" itree="180"><Node pos="s" depth="0" NCoef="0" IVar="-1" Cut="0.0e+00" cType="1" res="-0.00738948258" rms="0.0e+00" purity="0.0e+00" nType="-99" /></BinaryTree><BinaryTree type="DecisionTree" boostWeight="1.0e+00" itree="181"><Node pos="s" depth="0" NCoef="0" IVar="-1" Cut="0.0e+00" cType="1" res="-0.00800804887" rms="0.0e+00" purity="0.0e+00" nType="-99" /></BinaryTree><BinaryTree type="DecisionTree" boostWeight="1.0e+00" itree="182"><Node pos="s" depth="0" NCoef="0" IVar="7" Cut="0.915627956" cType="1" res="0.0e+00" rms="0.0e+00" purity="0.0e+00" nType="0"><Node pos="l" depth="1" NCoef="0" IVar="-1" Cut="0.0e+00" cType="1" res="0.0179572385" rms="0.0e+00" purity="0.0e+00" nType="-99" /><Node pos="r" depth="1" NCoef="0" IVar="-1" Cut="0.0e+00" cType="1" res="-0.0118696718" rms="0.0e+00" purity="0.0e+00" nType="-99" /></Node></BinaryTree><BinaryTree type="DecisionTree" boostWeight="1.0e+00" itree="183"><Node pos="s" depth="0" NCoef="0" IVar="-1" Cut="0.0e+00" cType="1" res="-0.000265928131" rms="0.0e+00" purity="0.0e+00" nType="-99" /></BinaryTree><BinaryTree type="DecisionTree" boostWeight="1.0e+00" itree="184"><Node pos="s" depth="0" NCoef="0" IVar="6" Cut="0.240778506" cType="1" res="0.0e+00" rms="0.0e+00" purity="0.0e+00" nType="0"><Node pos="l" depth="1" NCoef="0" IVar="7" Cut="0.946264505" cType="1" res="0.0e+00" rms="0.0e+00" purity="0.0e+00" nType="0"><Node pos="l" depth="2" NCoef="0" IVar="-1" Cut="0.0e+00" cType="1" res="0.0907136798" rms="0.0e+00" purity="0.0e+00" nType="-99" /><Node pos="r" depth="2" NCoef="0" IVar="-1" Cut="0.0e+00" cType="1" res="-0.023165457" rms="0.0e+00" purity="0.0e+00" nType="-99" /></Node><Node pos="r" depth="1" NCoef="0" IVar="-1" Cut="0.0e+00" cType="1" res="-0.037964087" rms="0.0e+00" purity="0.0e+00" nType="-99" /></Node></BinaryTree><BinaryTree type="DecisionTree" boostWeight="1.0e+00" itree="185"><Node pos="s" depth="0" NCoef="0" IVar="-1" Cut="0.0e+00" cType="1" res="-0.00436044065" rms="0.0e+00" purity="0.0e+00" nType="-99" /></BinaryTree><BinaryTree type="DecisionTree" boostWeight="1.0e+00" itree="186"><Node pos="s" depth="0" NCoef="0" IVar="7" Cut="0.921817541" cType="1" res="0.0e+00" rms="0.0e+00" purity="0.0e+00" nType="0"><Node pos="l" depth="1" NCoef="0" IVar="-1" Cut="0.0e+00" cType="1" res="-0.0147092417" rms="0.0e+00" purity="0.0e+00" nType="-99" /><Node pos="r" depth="1" NCoef="0" IVar="-1" Cut="0.0e+00" cType="1" res="-0.0011790276" rms="0.0e+00" purity="0.0e+00" nType="-99" /></Node></BinaryTree><BinaryTree type="DecisionTree" boostWeight="1.0e+00" itree="187"><Node pos="s" depth="0" NCoef="0" IVar="-1" Cut="0.0e+00" cType="1" res="-0.00673917914" rms="0.0e+00" purity="0.0e+00" nType="-99" /></BinaryTree><BinaryTree type="DecisionTree" boostWeight="1.0e+00" itree="188"><Node pos="s" depth="0" NCoef="0" IVar="-1" Cut="0.0e+00" cType="1" res="-0.00673610205" rms="0.0e+00" purity="0.0e+00" nType="-99" /></BinaryTree><BinaryTree type="DecisionTree" boostWeight="1.0e+00" itree="189"><Node pos="s" depth="0" NCoef="0" IVar="1" Cut="0.211333007" cType="1" res="0.0e+00" rms="0.0e+00" purity="0.0e+00" nType="0"><Node pos="l" depth="1" NCoef="0" IVar="-1" Cut="0.0e+00" cType="1" res="-0.0115880137" rms="0.0e+00" purity="0.0e+00" nType="-99" /><Node pos="r" depth="1" NCoef="0" IVar="-1" Cut="0.0e+00" cType="1" res="0.016953053" rms="0.0e+00" purity="0.0e+00" nType="-99" /></Node></BinaryTree><BinaryTree type="DecisionTree" boostWeight="1.0e+00" itree="190"><Node pos="s" depth="0" NCoef="0" IVar="-1" Cut="0.0e+00" cType="1" res="0.000218684945" rms="0.0e+00" purity="0.0e+00" nType="-99" /></BinaryTree><BinaryTree type="DecisionTree" boostWeight="1.0e+00" itree="191"><Node pos="s" depth="0" NCoef="0" IVar="20" Cut="0.0735715032" cType="1" res="0.0e+00" rms="0.0e+00" purity="0.0e+00" nType="0"><Node pos="l" depth="1" NCoef="0" IVar="-1" Cut="0.0e+00" cType="1" res="0.0569588691" rms="0.0e+00" purity="0.0e+00" nType="-99" /><Node pos="r" depth="1" NCoef="0" IVar="-1" Cut="0.0e+00" cType="1" res="-0.0253082719" rms="0.0e+00" purity="0.0e+00" nType="-99" /></Node></BinaryTree><BinaryTree type="DecisionTree" boostWeight="1.0e+00" itree="192"><Node pos="s" depth="0" NCoef="0" IVar="-1" Cut="0.0e+00" cType="1" res="-0.00338202482" rms="0.0e+00" purity="0.0e+00" nType="-99" /></BinaryTree><BinaryTree type="DecisionTree" boostWeight="1.0e+00" itree="193"><Node pos="s" depth="0" NCoef="0" IVar="20" Cut="0.116645999" cType="1" res="0.0e+00" rms="0.0e+00" purity="0.0e+00" nType="0"><Node pos="l" depth="1" NCoef="0" IVar="-1" Cut="0.0e+00" cType="1" res="-0.0144341029" rms="0.0e+00" purity="0.0e+00" nType="-99" /><Node pos="r" depth="1" NCoef="0" IVar="-1" Cut="0.0e+00" cType="1" res="-0.00117680221" rms="0.0e+00" purity="0.0e+00" nType="-99" /></Node></BinaryTree><BinaryTree type="DecisionTree" boostWeight="1.0e+00" itree="194"><Node pos="s" depth="0" NCoef="0" IVar="-1" Cut="0.0e+00" cType="1" res="-0.00587951764" rms="0.0e+00" purity="0.0e+00" nType="-99" /></BinaryTree><BinaryTree type="DecisionTree" boostWeight="1.0e+00" itree="195"><Node pos="s" depth="0" NCoef="0" IVar="-1" Cut="0.0e+00" cType="1" res="-0.00593321212" rms="0.0e+00" purity="0.0e+00" nType="-99" /></BinaryTree><BinaryTree type="DecisionTree" boostWeight="1.0e+00" itree="196"><Node pos="s" depth="0" NCoef="0" IVar="1" Cut="0.211333007" cType="1" res="0.0e+00" rms="0.0e+00" purity="0.0e+00" nType="0"><Node pos="l" depth="1" NCoef="0" IVar="-1" Cut="0.0e+00" cType="1" res="-0.0109832762" rms="0.0e+00" purity="0.0e+00" nType="-99" /><Node pos="r" depth="1" NCoef="0" IVar="-1" Cut="0.0e+00" cType="1" res="0.0170316771" rms="0.0e+00" purity="0.0e+00" nType="-99" /></Node></BinaryTree><BinaryTree type="DecisionTree" boostWeight="1.0e+00" itree="197"><Node pos="s" depth="0" NCoef="0" IVar="-1" Cut="0.0e+00" cType="1" res="0.000227556462" rms="0.0e+00" purity="0.0e+00" nType="-99" /></BinaryTree><BinaryTree type="DecisionTree" boostWeight="1.0e+00" itree="198"><Node pos="s" depth="0" NCoef="0" IVar="9" Cut="0.00295849983" cType="1" res="0.0e+00" rms="0.0e+00" purity="0.0e+00" nType="0"><Node pos="l" depth="1" NCoef="0" IVar="-1" Cut="0.0e+00" cType="1" res="0.0491112322" rms="0.0e+00" purity="0.0e+00" nType="-99" /><Node pos="r" depth="1" NCoef="0" IVar="-1" Cut="0.0e+00" cType="1" res="-0.0287197921" rms="0.0e+00" purity="0.0e+00" nType="-99" /></Node></BinaryTree><BinaryTree type="DecisionTree" boostWeight="1.0e+00" itree="199"><Node pos="s" depth="0" NCoef="0" IVar="-1" Cut="0.0e+00" cType="1" res="-0.00335369143" rms="0.0e+00" purity="0.0e+00" nType="-99" /></BinaryTree><BinaryTree type="DecisionTree" boostWeight="1.0e+00" itree="200"><Node pos="s" depth="0" NCoef="0" IVar="7" Cut="0.921817541" cType="1" res="0.0e+00" rms="0.0e+00" purity="0.0e+00" nType="0"><Node pos="l" depth="1" NCoef="0" IVar="-1" Cut="0.0e+00" cType="1" res="-0.0128888618" rms="0.0e+00" purity="0.0e+00" nType="-99" /><Node pos="r" depth="1" NCoef="0" IVar="-1" Cut="0.0e+00" cType="1" res="-0.00152250833" rms="0.0e+00" purity="0.0e+00" nType="-99" /></Node></BinaryTree><BinaryTree type="DecisionTree" boostWeight="1.0e+00" itree="201"><Node pos="s" depth="0" NCoef="0" IVar="-1" Cut="0.0e+00" cType="1" res="-0.00558705768" rms="0.0e+00" purity="0.0e+00" nType="-99" /></BinaryTree><BinaryTree type="DecisionTree" boostWeight="1.0e+00" itree="202"><Node pos="s" depth="0" NCoef="0" IVar="-1" Cut="0.0e+00" cType="1" res="-0.00566757936" rms="0.0e+00" purity="0.0e+00" nType="-99" /></BinaryTree><BinaryTree type="DecisionTree" boostWeight="1.0e+00" itree="203"><Node pos="s" depth="0" NCoef="0" IVar="7" Cut="0.915627956" cType="1" res="0.0e+00" rms="0.0e+00" purity="0.0e+00" nType="0"><Node pos="l" depth="1" NCoef="0" IVar="-1" Cut="0.0e+00" cType="1" res="0.0171313286" rms="0.0e+00" purity="0.0e+00" nType="-99" /><Node pos="r" depth="1" NCoef="0" IVar="-1" Cut="0.0e+00" cType="1" res="-0.0111979088" rms="0.0e+00" purity="0.0e+00" nType="-99" /></Node></BinaryTree><BinaryTree type="DecisionTree" boostWeight="1.0e+00" itree="204"><Node pos="s" depth="0" NCoef="0" IVar="-1" Cut="0.0e+00" cType="1" res="0.00184596167" rms="0.0e+00" purity="0.0e+00" nType="-99" /></BinaryTree><BinaryTree type="DecisionTree" boostWeight="1.0e+00" itree="205"><Node pos="s" depth="0" NCoef="0" IVar="5" Cut="0.569023967" cType="1" res="0.0e+00" rms="0.0e+00" purity="0.0e+00" nType="0"><Node pos="l" depth="1" NCoef="0" IVar="-1" Cut="0.0e+00" cType="1" res="-0.0237517282" rms="0.0e+00" purity="0.0e+00" nType="-99" /><Node pos="r" depth="1" NCoef="0" IVar="-1" Cut="0.0e+00" cType="1" res="0.0572848879" rms="0.0e+00" purity="0.0e+00" nType="-99" /></Node></BinaryTree><BinaryTree type="DecisionTree" boostWeight="1.0e+00" itree="206"><Node pos="s" depth="0" NCoef="0" IVar="-1" Cut="0.0e+00" cType="1" res="-0.00318148662" rms="0.0e+00" purity="0.0e+00" nType="-99" /></BinaryTree><BinaryTree type="DecisionTree" boostWeight="1.0e+00" itree="207"><Node pos="s" depth="0" NCoef="0" IVar="7" Cut="0.921817541" cType="1" res="0.0e+00" rms="0.0e+00" purity="0.0e+00" nType="0"><Node pos="l" depth="1" NCoef="0" IVar="-1" Cut="0.0e+00" cType="1" res="-0.0125326486" rms="0.0e+00" purity="0.0e+00" nType="-99" /><Node pos="r" depth="1" NCoef="0" IVar="-1" Cut="0.0e+00" cType="1" res="-0.00179282541" rms="0.0e+00" purity="0.0e+00" nType="-99" /></Node></BinaryTree><BinaryTree type="DecisionTree" boostWeight="1.0e+00" itree="208"><Node pos="s" depth="0" NCoef="0" IVar="-1" Cut="0.0e+00" cType="1" res="-0.00535331573" rms="0.0e+00" purity="0.0e+00" nType="-99" /></BinaryTree><BinaryTree type="DecisionTree" boostWeight="1.0e+00" itree="209"><Node pos="s" depth="0" NCoef="0" IVar="-1" Cut="0.0e+00" cType="1" res="-0.0055071488" rms="0.0e+00" purity="0.0e+00" nType="-99" /></BinaryTree><BinaryTree type="DecisionTree" boostWeight="1.0e+00" itree="210"><Node pos="s" depth="0" NCoef="0" IVar="8" Cut="0.00892500021" cType="1" res="0.0e+00" rms="0.0e+00" purity="0.0e+00" nType="0"><Node pos="l" depth="1" NCoef="0" IVar="-1" Cut="0.0e+00" cType="1" res="0.0165191758" rms="0.0e+00" purity="0.0e+00" nType="-99" /><Node pos="r" depth="1" NCoef="0" IVar="-1" Cut="0.0e+00" cType="1" res="-0.0107786572" rms="0.0e+00" purity="0.0e+00" nType="-99" /></Node></BinaryTree><BinaryTree type="DecisionTree" boostWeight="1.0e+00" itree="211"><Node pos="s" depth="0" NCoef="0" IVar="-1" Cut="0.0e+00" cType="1" res="0.000814776286" rms="0.0e+00" purity="0.0e+00" nType="-99" /></BinaryTree><BinaryTree type="DecisionTree" boostWeight="1.0e+00" itree="212"><Node pos="s" depth="0" NCoef="0" IVar="20" Cut="0.0735715032" cType="1" res="0.0e+00" rms="0.0e+00" purity="0.0e+00" nType="0"><Node pos="l" depth="1" NCoef="0" IVar="-1" Cut="0.0e+00" cType="1" res="0.0508902259" rms="0.0e+00" purity="0.0e+00" nType="-99" /><Node pos="r" depth="1" NCoef="0" IVar="-1" Cut="0.0e+00" cType="1" res="-0.0247182939" rms="0.0e+00" purity="0.0e+00" nType="-99" /></Node></BinaryTree><BinaryTree type="DecisionTree" boostWeight="1.0e+00" itree="213"><Node pos="s" depth="0" NCoef="0" IVar="-1" Cut="0.0e+00" cType="1" res="-0.00298354519" rms="0.0e+00" purity="0.0e+00" nType="-99" /></BinaryTree><BinaryTree type="DecisionTree" boostWeight="1.0e+00" itree="214"><Node pos="s" depth="0" NCoef="0" IVar="20" Cut="0.116645999" cType="1" res="0.0e+00" rms="0.0e+00" purity="0.0e+00" nType="0"><Node pos="l" depth="1" NCoef="0" IVar="-1" Cut="0.0e+00" cType="1" res="-0.011803532" rms="0.0e+00" purity="0.0e+00" nType="-99" /><Node pos="r" depth="1" NCoef="0" IVar="-1" Cut="0.0e+00" cType="1" res="-0.00107794162" rms="0.0e+00" purity="0.0e+00" nType="-99" /></Node></BinaryTree><BinaryTree type="DecisionTree" boostWeight="1.0e+00" itree="215"><Node pos="s" depth="0" NCoef="0" IVar="-1" Cut="0.0e+00" cType="1" res="-0.00503505301" rms="0.0e+00" purity="0.0e+00" nType="-99" /></BinaryTree><BinaryTree type="DecisionTree" boostWeight="1.0e+00" itree="216"><Node pos="s" depth="0" NCoef="0" IVar="-1" Cut="0.0e+00" cType="1" res="-0.00444888603" rms="0.0e+00" purity="0.0e+00" nType="-99" /></BinaryTree><BinaryTree type="DecisionTree" boostWeight="1.0e+00" itree="217"><Node pos="s" depth="0" NCoef="0" IVar="20" Cut="0.0760314986" cType="1" res="0.0e+00" rms="0.0e+00" purity="0.0e+00" nType="0"><Node pos="l" depth="1" NCoef="0" IVar="-1" Cut="0.0e+00" cType="1" res="0.016663339" rms="0.0e+00" purity="0.0e+00" nType="-99" /><Node pos="r" depth="1" NCoef="0" IVar="-1" Cut="0.0e+00" cType="1" res="-0.0103603899" rms="0.0e+00" purity="0.0e+00" nType="-99" /></Node></BinaryTree><BinaryTree type="DecisionTree" boostWeight="1.0e+00" itree="218"><Node pos="s" depth="0" NCoef="0" IVar="-1" Cut="0.0e+00" cType="1" res="0.00069546036" rms="0.0e+00" purity="0.0e+00" nType="-99" /></BinaryTree><BinaryTree type="DecisionTree" boostWeight="1.0e+00" itree="219"><Node pos="s" depth="0" NCoef="0" IVar="9" Cut="0.00295849983" cType="1" res="0.0e+00" rms="0.0e+00" purity="0.0e+00" nType="0"><Node pos="l" depth="1" NCoef="0" IVar="-1" Cut="0.0e+00" cType="1" res="0.0453535058" rms="0.0e+00" purity="0.0e+00" nType="-99" /><Node pos="r" depth="1" NCoef="0" IVar="-1" Cut="0.0e+00" cType="1" res="-0.0298415031" rms="0.0e+00" purity="0.0e+00" nType="-99" /></Node></BinaryTree><BinaryTree type="DecisionTree" boostWeight="1.0e+00" itree="220"><Node pos="s" depth="0" NCoef="0" IVar="-1" Cut="0.0e+00" cType="1" res="-0.00299004023" rms="0.0e+00" purity="0.0e+00" nType="-99" /></BinaryTree><BinaryTree type="DecisionTree" boostWeight="1.0e+00" itree="221"><Node pos="s" depth="0" NCoef="0" IVar="5" Cut="0.560186028" cType="1" res="0.0e+00" rms="0.0e+00" 