<MethodSetup Method="BDT::BDT"><Variables NVar="25"><Variable VarIndex="0" Type="F" Expression="f0" Label="f0" Title="f0" Unit="" Internal="f0" Min="0.0e+00" Max="0.0e+00" /><Variable VarIndex="1" Type="F" Expression="f1" Label="f1" Title="f1" Unit="" Internal="f1" Min="0.0e+00" Max="0.0e+00" /><Variable VarIndex="2" Type="F" Expression="f2" Label="f2" Title="f2" Unit="" Internal="f2" Min="0.0e+00" Max="0.0e+00" /><Variable VarIndex="3" Type="F" Expression="f3" Label="f3" Title="f3" Unit="" Internal="f3" Min="0.0e+00" Max="0.0e+00" /><Variable VarIndex="4" Type="F" Expression="f4" Label="f4" Title="f4" Unit="" Internal="f4" Min="0.0e+00" Max="0.0e+00" /><Variable VarIndex="5" Type="F" Expression="f5" Label="f5" Title="f5" Unit="" Internal="f5" Min="0.0e+00" Max="0.0e+00" /><Variable VarIndex="6" Type="F" Expression="f6" Label="f6" Title="f6" Unit="" Internal="f6" Min="0.0e+00" Max="0.0e+00" /><Variable VarIndex="7" Type="F" Expression="f7" Label="f7" Title="f7" Unit="" Internal="f7" Min="0.0e+00" Max="0.0e+00" /><Variable VarIndex="8" Type="F" Expression="f8" Label="f8" Title="f8" Unit="" Internal="f8" Min="0.0e+00" Max="0.0e+00" /><Variable VarIndex="9" Type="F" Expression="f9" Label="f9" Title="f9" Unit="" Internal="f9" Min="0.0e+00" Max="0.0e+00" /><Variable VarIndex="10" Type="F" Expression="f10" Label="f10" Title="f10" Unit="" Internal="f10" Min="0.0e+00" Max="0.0e+00" /><Variable VarIndex="11" Type="F" Expression="f11" Label="f11" Title="f11" Unit="" Internal="f11" Min="0.0e+00" Max="0.0e+00" /><Variable VarIndex="12" Type="F" Expression="f12" Label="f12" Title="f12" Unit="" Internal="f12" Min="0.0e+00" Max="0.0e+00" /><Variable VarIndex="13" Type="F" Expression="f13" Label="f13" Title="f13" Unit="" Internal="f13" Min="0.0e+00" Max="0.0e+00" /><Variable VarIndex="14" Type="F" Expression="f14" Label="f14" Title="f14" Unit="" Internal="f14" Min="0.0e+00" Max="0.0e+00" /><Variable VarIndex="15" Type="F" Expression="f15" Label="f15" Title="f15" Unit="" Internal="f15" Min="0.0e+00" Max="0.0e+00" /><Variable VarIndex="16" Type="F" Expression="f16" Label="f16" Title="f16" Unit="" Internal="f16" Min="0.0e+00" Max="0.0e+00" /><Variable VarIndex="17" Type="F" Expression="f17" Label="f17" Title="f17" Unit="" Internal="f17" Min="0.0e+00" Max="0.0e+00" /><Variable VarIndex="18" Type="F" Expression="f18" Label="f18" Title="f18" Unit="" Internal="f18" Min="0.0e+00" Max="0.0e+00" /><Variable VarIndex="19" Type="F" Expression="f19" Label="f19" Title="f19" Unit="" Internal="f19" Min="0.0e+00" Max="0.0e+00" /><Variable VarIndex="20" Type="F" Expression="f20" Label="f20" Title="f20" Unit="" Internal="f20" Min="0.0e+00" Max="0.0e+00" /><Variable VarIndex="21" Type="F" Expression="f21" Label="f21" Title="f21" Unit="" Internal="f21" Min="0.0e+00" Max="0.0e+00" /><Variable VarIndex="22" Type="F" Expression="f22" Label="f22" Title="f22" Unit="" Internal="f22" Min="0.0e+00" Max="0.0e+00" /><Variable VarIndex="23" Type="F" Expression="f23" Label="f23" Title="f23" Unit="" Internal="f23" Min="0.0e+00" Max="0.0e+00" /><Variable VarIndex="24" Type="F" Expression="f24" Label="f24" Title="f24" Unit="" Internal="f24" Min="0.0e+00" Max="0.0e+00" /></Variables><GeneralInfo><Info name="Creator" value="xgboost2TMVA" /><Info name="AnalysisType" value="Classification" /></GeneralInfo><Options><Option name="NodePurityLimit" modified="No">5.00e-01</Option><Option name="BoostType" modified="Yes">Grad</Option></Options><Weights NTrees="300" AnalysisType="1"><BinaryTree type="DecisionTree" boostWeight="1.0e+00" itree="0"><Node pos="s" depth="0" NCoef="0" IVar="8" Cut="0.0185180008" cType="1" res="0.0e+00" rms="0.0e+00" purity="0.0e+00" nType="0"><Node pos="l" depth="1" NCoef="0" IVar="7" Cut="0.971173525" cType="1" res="0.0e+00" rms="0.0e+00" purity="0.0e+00" nType="0"><Node pos="l" depth="2" NCoef="0" IVar="-1" Cut="0.0e+00" cType="1" res="-0.198701322" rms="0.0e+00" purity="0.0e+00" nType="-99" /><Node pos="r" depth="2" NCoef="0" IVar="-1" Cut="0.0e+00" cType="1" res="-7.66345476e-09" rms="0.0e+00" purity="0.0e+00" nType="-99" /></Node><Node pos="r" depth="1" NCoef="0" IVar="-1" Cut="0.0e+00" cType="1" res="0.179999992" rms="0.0e+00" purity="0.0e+00" nType="-99" /></Node></BinaryTree><BinaryTree type="DecisionTree" boostWeight="1.0e+00" itree="1"><Node pos="s" depth="0" NCoef="0" IVar="7" Cut="0.946264505" cType="1" res="0.0e+00" rms="0.0e+00" purity="0.0e+00" nType="0"><Node pos="l" depth="1" NCoef="0" IVar="1" Cut="0.155913994" cType="1" res="0.0e+00" rms="0.0e+00" purity="0.0e+00" nType="0"><Node pos="l" depth="2" NCoef="0" IVar="-1" Cut="0.0e+00" cType="1" res="-7.66345476e-09" rms="0.0e+00" purity="0.0e+00" nType="-99" /><Node pos="r" depth="2" NCoef="0" IVar="-1" Cut="0.0e+00" cType="1" res="-0.197260305" rms="0.0e+00" purity="0.0e+00" nType="-99" /></Node><Node pos="r" depth="1" NCoef="0" IVar="-1" Cut="0.0e+00" cType="1" res="0.124137931" rms="0.0e+00" purity="0.0e+00" nType="-99" /></Node></BinaryTree><BinaryTree type="DecisionTree" boostWeight="1.0e+00" itree="2"><Node pos="s" depth="0" NCoef="0" IVar="8" Cut="0.0184535012" cType="1" res="0.0e+00" rms="0.0e+00" purity="0.0e+00" nType="0"><Node pos="l" depth="1" NCoef="0" IVar="7" Cut="0.946264505" cType="1" res="0.0e+00" rms="0.0e+00" purity="0.0e+00" nType="0"><Node pos="l" depth="2" NCoef="0" IVar="-1" Cut="0.0e+00" cType="1" res="0.387692332" rms="0.0e+00" purity="0.0e+00" nType="-99" /><Node pos="r" depth="2" NCoef="0" IVar="-1" Cut="0.0e+00" cType="1" res="-0.0360000096" rms="0.0e+00" purity="0.0e+00" nType="-99" /></Node><Node pos="r" depth="1" NCoef="0" IVar="0" Cut="1.51707149" cType="1" res="0.0e+00" rms="0.0e+00" purity="0.0e+00" nType="0"><Node pos="l" depth="2" NCoef="0" IVar="-1" Cut="0.0e+00" cType="1" res="-7.66345476e-09" rms="0.0e+00" purity="0.0e+00" nType="-99" /><Node pos="r" depth="2" NCoef="0" IVar="-1" Cut="0.0e+00" cType="1" res="-0.128571451" rms="0.0e+00" purity="0.0e+00" nType="-99" /></Node></Node></BinaryTree><BinaryTree type="DecisionTree" boostWeight="1.0e+00" itree="3"><Node pos="s" depth="0" NCoef="0" IVar="8" Cut="0.0185180008" cType="1" res="0.0e+00" rms="0.0e+00" purity="0.0e+00" nType="0"><Node pos="l" depth="1" NCoef="0" IVar="10" Cut="0.0364575014" cType="1" res="0.0e+00" rms="0.0e+00" purity="0.0e+00" nType="0"><Node pos="l" depth="2" NCoef="0" IVar="-1" Cut="0.0e+00" cType="1" res="0.0120590618" rms="0.0e+00" purity="0.0e+00" nType="-99" /><Node pos="r" depth="2" NCoef="0" IVar="-1" Cut="0.0e+00" cType="1" res="-0.179594636" rms="0.0e+00" purity="0.0e+00" nType="-99" /></Node><Node pos="r" depth="1" NCoef="0" IVar="-1" Cut="0.0e+00" cType="1" res="0.149066582" rms="0.0e+00" purity="0.0e+00" nType="-99" /></Node></BinaryTree><BinaryTree type="DecisionTree" boostWeight="1.0e+00" itree="4"><Node pos="s" depth="0" NCoef="0" IVar="7" Cut="0.946264505" cType="1" res="0.0e+00" rms="0.0e+00" purity="0.0e+00" nType="0"><Node pos="l" depth="1" NCoef="0" IVar="3" Cut="0.109404996" cType="1" res="0.0e+00" rms="0.0e+00" purity="0.0e+00" nType="0"><Node pos="l" depth="2" NCoef="0" IVar="-1" Cut="0.0e+00" cType="1" res="0.0125148315" rms="0.0e+00" purity="0.0e+00" nType="-99" /><Node pos="r" depth="2" NCoef="0" IVar="-1" Cut="0.0e+00" cType="1" res="-0.177867249" rms="0.0e+00" purity="0.0e+00" nType="-99" /></Node><Node pos="r" depth="1" NCoef="0" IVar="-1" Cut="0.0e+00" cType="1" res="0.100076787" rms="0.0e+00" purity="0.0e+00" nType="-99" /></Node></BinaryTree><BinaryTree type="DecisionTree" boostWeight="1.0e+00" itree="5"><Node pos="s" depth="0" NCoef="0" IVar="8" Cut="0.0184535012" cType="1" res="0.0e+00" rms="0.0e+00" purity="0.0e+00" nType="0"><Node pos="l" depth="1" NCoef="0" IVar="7" Cut="0.946264505" cType="1" res="0.0e+00" rms="0.0e+00" purity="0.0e+00" nType="0"><Node pos="l" depth="2" NCoef="0" IVar="-1" Cut="0.0e+00" cType="1" res="0.277291745" rms="0.0e+00" purity="0.0e+00" nType="-99" /><Node pos="r" depth="2" NCoef="0" IVar="-1" Cut="0.0e+00" cType="1" res="-0.0311092753" rms="0.0e+00" purity="0.0e+00" nType="-99" /></Node><Node pos="r" depth="1" NCoef="0" IVar="1" Cut="0.154194504" cType="1" res="0.0e+00" rms="0.0e+00" purity="0.0e+00" nType="0"><Node pos="l" depth="2" NCoef="0" IVar="-1" Cut="0.0e+00" cType="1" res="0.0108822901" rms="0.0e+00" purity="0.0e+00" nType="-99" /><Node pos="r" depth="2" NCoef="0" IVar="-1" Cut="0.0e+00" cType="1" res="-0.125014484" rms="0.0e+00" purity="0.0e+00" nType="-99" /></Node></Node></BinaryTree><BinaryTree type="DecisionTree" boostWeight="1.0e+00" itree="6"><Node pos="s" depth="0" NCoef="0" IVar="8" Cut="0.0185180008" cType="1" res="0.0e+00" rms="0.0e+00" purity="0.0e+00" nType="0"><Node pos="l" depth="1" NCoef="0" IVar="13" Cut="160096.094" cType="1" res="0.0e+00" rms="0.0e+00" purity="0.0e+00" nType="0"><Node pos="l" depth="2" NCoef="0" IVar="-1" Cut="0.0e+00" cType="1" res="0.0272014868" rms="0.0e+00" purity="0.0e+00" nType="-99" /><Node pos="r" depth="2" NCoef="0" IVar="-1" Cut="0.0e+00" cType="1" res="-0.165621221" rms="0.0e+00" purity="0.0e+00" nType="-99" /></Node><Node pos="r" depth="1" NCoef="0" IVar="-1" Cut="0.0e+00" cType="1" res="0.121714808" rms="0.0e+00" purity="0.0e+00" nType="-99" /></Node></BinaryTree><BinaryTree type="DecisionTree" boostWeight="1.0e+00" itree="7"><Node pos="s" depth="0" NCoef="0" IVar="7" Cut="0.946264505" cType="1" res="0.0e+00" rms="0.0e+00" purity="0.0e+00" nType="0"><Node pos="l" depth="1" NCoef="0" IVar="3" Cut="0.109404996" cType="1" res="0.0e+00" rms="0.0e+00" purity="0.0e+00" nType="0"><Node pos="l" depth="2" NCoef="0" IVar="-1" Cut="0.0e+00" cType="1" res="0.0110544665" rms="0.0e+00" purity="0.0e+00" nType="-99" /><Node pos="r" depth="2" NCoef="0" IVar="-1" Cut="0.0e+00" cType="1" res="-0.161556736" rms="0.0e+00" purity="0.0e+00" nType="-99" /></Node><Node pos="r" depth="1" NCoef="0" IVar="-1" Cut="0.0e+00" cType="1" res="0.0811008289" rms="0.0e+00" purity="0.0e+00" nType="-99" /></Node></BinaryTree><BinaryTree type="DecisionTree" boostWeight="1.0e+00" itree="8"><Node pos="s" depth="0" NCoef="0" IVar="8" Cut="0.0184535012" cType="1" res="0.0e+00" rms="0.0e+00" purity="0.0e+00" nType="0"><Node pos="l" depth="1" NCoef="0" IVar="7" Cut="0.946264505" cType="1" res="0.0e+00" rms="0.0e+00" purity="0.0e+00" nType="0"><Node pos="l" depth="2" NCoef="0" IVar="-1" Cut="0.0e+00" cType="1" res="0.22448577" rms="0.0e+00" purity="0.0e+00" nType="-99" /><Node pos="r" depth="2" NCoef="0" IVar="-1" Cut="0.0e+00" cType="1" res="-0.0261643752" rms="0.0e+00" purity="0.0e+00" nType="-99" /></Node><Node pos="r" depth="1" NCoef="0" IVar="8" Cut="0.0186024997" cType="1" res="0.0e+00" rms="0.0e+00" purity="0.0e+00" nType="0"><Node pos="l" depth="2" NCoef="0" IVar="-1" Cut="0.0e+00" cType="1" res="-0.12171831" rms="0.0e+00" purity="0.0e+00" nType="-99" /><Node pos="r" depth="2" NCoef="0" IVar="-1" Cut="0.0e+00" cType="1" res="0.0176560245" rms="0.0e+00" purity="0.0e+00" nType="-99" /></Node></Node></BinaryTree><BinaryTree type="DecisionTree" boostWeight="1.0e+00" itree="9"><Node pos="s" depth="0" NCoef="0" IVar="9" Cut="0.00295849983" cType="1" res="0.0e+00" rms="0.0e+00" purity="0.0e+00" nType="0"><Node pos="l" depth="1" NCoef="0" IVar="-1" Cut="0.0e+00" cType="1" res="-0.149437025" rms="0.0e+00" purity="0.0e+00" nType="-99" /><Node pos="r" depth="1" NCoef="0" IVar="1" Cut="0.155913994" cType="1" res="0.0e+00" rms="0.0e+00" purity="0.0e+00" nType="0"><Node pos="l" depth="2" NCoef="0" IVar="-1" Cut="0.0e+00" cType="1" res="-0.0546545312" rms="0.0e+00" purity="0.0e+00" nType="-99" /><Node pos="r" depth="2" NCoef="0" IVar="-1" Cut="0.0e+00" cType="1" res="0.138748124" rms="0.0e+00" purity="0.0e+00" nType="-99" /></Node></Node></BinaryTree><BinaryTree type="DecisionTree" boostWeight="1.0e+00" itree="10"><Node pos="s" depth="0" NCoef="0" IVar="7" Cut="0.946264505" cType="1" res="0.0e+00" rms="0.0e+00" purity="0.0e+00" nType="0"><Node pos="l" depth="1" NCoef="0" IVar="1" Cut="0.155913994" cType="1" res="0.0e+00" rms="0.0e+00" purity="0.0e+00" nType="0"><Node pos="l" depth="2" NCoef="0" IVar="-1" Cut="0.0e+00" cType="1" res="0.0156723354" rms="0.0e+00" purity="0.0e+00" nType="-99" /><Node pos="r" depth="2" NCoef="0" IVar="-1" Cut="0.0e+00" cType="1" res="-0.149525926" rms="0.0e+00" purity="0.0e+00" nType="-99" /></Node><Node pos="r" depth="1" NCoef="0" IVar="-1" Cut="0.0e+00" cType="1" res="0.0649449751" rms="0.0e+00" purity="0.0e+00" nType="-99" /></Node></BinaryTree><BinaryTree type="DecisionTree" boostWeight="1.0e+00" itree="11"><Node pos="s" depth="0" NCoef="0" IVar="3" Cut="0.133477509" cType="1" res="0.0e+00" rms="0.0e+00" purity="0.0e+00" nType="0"><Node pos="l" depth="1" NCoef="0" IVar="-1" Cut="0.0e+00" cType="1" res="-0.0728977993" rms="0.0e+00" purity="0.0e+00" nType="-99" /><Node pos="r" depth="1" NCoef="0" IVar="2" Cut="1.64043951" cType="1" res="0.0e+00" rms="0.0e+00" purity="0.0e+00" nType="0"><Node pos="l" depth="2" NCoef="0" IVar="-1" Cut="0.0e+00" cType="1" res="0.224277392" rms="0.0e+00" purity="0.0e+00" nType="-99" /><Node pos="r" depth="2" NCoef="0" IVar="7" Cut="0.933937013" cType="1" res="0.0e+00" rms="0.0e+00" purity="0.0e+00" nType="0"><Node pos="l" depth="3" NCoef="0" IVar="-1" Cut="0.0e+00" cType="1" res="0.0996352732" rms="0.0e+00" purity="0.0e+00" nType="-99" /><Node pos="r" depth="3" NCoef="0" IVar="-1" Cut="0.0e+00" cType="1" res="-0.120964602" rms="0.0e+00" purity="0.0e+00" nType="-99" /></Node></Node></Node></BinaryTree><BinaryTree type="DecisionTree" boostWeight="1.0e+00" itree="12"><Node pos="s" depth="0" NCoef="0" IVar="8" Cut="0.0185180008" cType="1" res="0.0e+00" rms="0.0e+00" purity="0.0e+00" nType="0"><Node pos="l" depth="1" NCoef="0" IVar="10" Cut="0.0364575014" cType="1" res="0.0e+00" rms="0.0e+00" purity="0.0e+00" nType="0"><Node pos="l" depth="2" NCoef="0" IVar="-1" Cut="0.0e+00" cType="1" res="0.0418989509" rms="0.0e+00" purity="0.0e+00" nType="-99" /><Node pos="r" depth="2" NCoef="0" IVar="-1" Cut="0.0e+00" cType="1" res="-0.147003695" rms="0.0e+00" purity="0.0e+00" nType="-99" /></Node><Node pos="r" depth="1" NCoef="0" IVar="-1" Cut="0.0e+00" cType="1" res="0.099065803" rms="0.0e+00" purity="0.0e+00" nType="-99" /></Node></BinaryTree><BinaryTree type="DecisionTree" boostWeight="1.0e+00" itree="13"><Node pos="s" depth="0" NCoef="0" IVar="5" Cut="0.396535516" cType="1" res="0.0e+00" rms="0.0e+00" purity="0.0e+00" nType="0"><Node pos="l" depth="1" NCoef="0" IVar="-1" Cut="0.0e+00" cType="1" res="0.0842332914" rms="0.0e+00" purity="0.0e+00" nType="-99" /><Node pos="r" depth="1" NCoef="0" IVar="3" Cut="0.109404996" cType="1" res="0.0e+00" rms="0.0e+00" purity="0.0e+00" nType="0"><Node pos="l" depth="2" NCoef="0" IVar="-1" Cut="0.0e+00" cType="1" res="0.0719235018" rms="0.0e+00" purity="0.0e+00" nType="-99" /><Node pos="r" depth="2" NCoef="0" IVar="-1" Cut="0.0e+00" cType="1" res="-0.159311131" rms="0.0e+00" purity="0.0e+00" nType="-99" /></Node></Node></BinaryTree><BinaryTree type="DecisionTree" boostWeight="1.0e+00" itree="14"><Node pos="s" depth="0" NCoef="0" IVar="8" Cut="0.0184535012" cType="1" res="0.0e+00" rms="0.0e+00" purity="0.0e+00" nType="0"><Node pos="l" depth="1" NCoef="0" IVar="7" Cut="0.946264505" cType="1" res="0.0e+00" rms="0.0e+00" purity="0.0e+00" nType="0"><Node pos="l" depth="2" NCoef="0" IVar="-1" Cut="0.0e+00" cType="1" res="0.174554884" rms="0.0e+00" purity="0.0e+00" nType="-99" /><Node pos="r" depth="2" NCoef="0" IVar="-1" Cut="0.0e+00" cType="1" res="-0.0184891354" rms="0.0e+00" purity="0.0e+00" nType="-99" /></Node><Node pos="r" depth="1" NCoef="0" IVar="1" Cut="0.154194504" cType="1" res="0.0e+00" rms="0.0e+00" purity="0.0e+00" nType="0"><Node pos="l" depth="2" NCoef="0" IVar="-1" Cut="0.0e+00" cType="1" res="0.015282359" rms="0.0e+00" purity="0.0e+00" nType="-99" /><Node pos="r" depth="2" NCoef="0" IVar="-1" Cut="0.0e+00" cType="1" res="-0.111367837" rms="0.0e+00" purity="0.0e+00" nType="-99" /></Node></Node></BinaryTree><BinaryTree type="DecisionTree" boostWeight="1.0e+00" itree="15"><Node pos="s" depth="0" NCoef="0" IVar="9" Cut="0.00295849983" cType="1" res="0.0e+00" rms="0.0e+00" purity="0.0e+00" nType="0"><Node pos="l" depth="1" NCoef="0" IVar="-1" Cut="0.0e+00" cType="1" res="-0.13107419" rms="0.0e+00" purity="0.0e+00" nType="-99" /><Node pos="r" depth="1" NCoef="0" IVar="1" Cut="0.155913994" cType="1" res="0.0e+00" rms="0.0e+00" purity="0.0e+00" nType="0"><Node pos="l" depth="2" NCoef="0" IVar="-1" Cut="0.0e+00" cType="1" res="-0.049212303" rms="0.0e+00" purity="0.0e+00" nType="-99" /><Node pos="r" depth="2" NCoef="0" IVar="-1" Cut="0.0e+00" cType="1" res="0.12069267" rms="0.0e+00" purity="0.0e+00" nType="-99" /></Node></Node></BinaryTree><BinaryTree type="DecisionTree" boostWeight="1.0e+00" itree="16"><Node pos="s" depth="0" NCoef="0" IVar="7" Cut="0.946264505" cType="1" res="0.0e+00" rms="0.0e+00" purity="0.0e+00" nType="0"><Node pos="l" depth="1" NCoef="0" IVar="1" Cut="0.155913994" cType="1" res="0.0e+00" rms="0.0e+00" purity="0.0e+00" nType="0"><Node pos="l" depth="2" NCoef="0" IVar="-1" Cut="0.0e+00" cType="1" res="0.0159080792" rms="0.0e+00" purity="0.0e+00" nType="-99" /><Node pos="r" depth="2" NCoef="0" IVar="-1" Cut="0.0e+00" cType="1" res="-0.131699249" rms="0.0e+00" purity="0.0e+00" nType="-99" /></Node><Node pos="r" depth="1" NCoef="0" IVar="-1" Cut="0.0e+00" cType="1" res="0.0510036945" rms="0.0e+00" purity="0.0e+00" nType="-99" /></Node></BinaryTree><BinaryTree type="DecisionTree" boostWeight="1.0e+00" itree="17"><Node pos="s" depth="0" NCoef="0" IVar="3" Cut="0.133477509" cType="1" res="0.0e+00" rms="0.0e+00" purity="0.0e+00" nType="0"><Node pos="l" depth="1" NCoef="0" IVar="-1" Cut="0.0e+00" cType="1" res="-0.0676268488" rms="0.0e+00" purity="0.0e+00" nType="-99" /><Node pos="r" depth="1" NCoef="0" IVar="2" Cut="1.64043951" cType="1" res="0.0e+00" rms="0.0e+00" purity="0.0e+00" nType="0"><Node pos="l" depth="2" NCoef="0" IVar="-1" Cut="0.0e+00" cType="1" res="0.192243785" rms="0.0e+00" purity="0.0e+00" nType="-99" /><Node pos="r" depth="2" NCoef="0" IVar="7" Cut="0.933937013" cType="1" res="0.0e+00" rms="0.0e+00" purity="0.0e+00" nType="0"><Node pos="l" depth="3" NCoef="0" IVar="-1" Cut="0.0e+00" cType="1" res="0.0702240989" rms="0.0e+00" purity="0.0e+00" nType="-99" /><Node pos="r" depth="3" NCoef="0" IVar="-1" Cut="0.0e+00" cType="1" res="-0.111286312" rms="0.0e+00" purity="0.0e+00" nType="-99" /></Node></Node></Node></BinaryTree><BinaryTree type="DecisionTree" boostWeight="1.0e+00" itree="18"><Node pos="s" depth="0" NCoef="0" IVar="8" Cut="0.0185180008" cType="1" res="0.0e+00" rms="0.0e+00" purity="0.0e+00" nType="0"><Node pos="l" depth="1" NCoef="0" IVar="13" Cut="160096.094" cType="1" res="0.0e+00" rms="0.0e+00" purity="0.0e+00" nType="0"><Node pos="l" depth="2" NCoef="0" IVar="-1" Cut="0.0e+00" cType="1" res="0.0382745303" rms="0.0e+00" purity="0.0e+00" nType="-99" /><Node pos="r" depth="2" NCoef="0" IVar="-1" Cut="0.0e+00" cType="1" res="-0.131645694" rms="0.0e+00" purity="0.0e+00" nType="-99" /></Node><Node pos="r" depth="1" NCoef="0" IVar="-1" Cut="0.0e+00" cType="1" res="0.0817226991" rms="0.0e+00" purity="0.0e+00" nType="-99" /></Node></BinaryTree><BinaryTree type="DecisionTree" boostWeight="1.0e+00" itree="19"><Node pos="s" depth="0" NCoef="0" IVar="5" Cut="0.396535516" cType="1" res="0.0e+00" rms="0.0e+00" purity="0.0e+00" nType="0"><Node pos="l" depth="1" NCoef="0" IVar="-1" Cut="0.0e+00" cType="1" res="0.0761151388" rms="0.0e+00" purity="0.0e+00" nType="-99" /><Node pos="r" depth="1" NCoef="0" IVar="3" Cut="0.109404996" cType="1" res="0.0e+00" rms="0.0e+00" purity="0.0e+00" nType="0"><Node pos="l" depth="2" NCoef="0" IVar="-1" Cut="0.0e+00" cType="1" res="0.0641365349" rms="0.0e+00" purity="0.0e+00" nType="-99" /><Node pos="r" depth="2" NCoef="0" IVar="-1" Cut="0.0e+00" cType="1" res="-0.146276668" rms="0.0e+00" purity="0.0e+00" nType="-99" /></Node></Node></BinaryTree><BinaryTree type="DecisionTree" boostWeight="1.0e+00" itree="20"><Node pos="s" depth="0" NCoef="0" IVar="8" Cut="0.0184535012" cType="1" res="0.0e+00" rms="0.0e+00" purity="0.0e+00" nType="0"><Node pos="l" depth="1" NCoef="0" IVar="23" Cut="0.0519265011" cType="1" res="0.0e+00" rms="0.0e+00" purity="0.0e+00" nType="0"><Node pos="l" depth="2" NCoef="0" IVar="-1" Cut="0.0e+00" cType="1" res="-0.0399962738" rms="0.0e+00" purity="0.0e+00" nType="-99" /><Node pos="r" depth="2" NCoef="0" IVar="24" Cut="0.000255000021" cType="1" res="0.0e+00" rms="0.0e+00" purity="0.0e+00" nType="0"><Node pos="l" depth="3" NCoef="0" IVar="-1" Cut="0.0e+00" cType="1" res="0.165105075" rms="0.0e+00" purity="0.0e+00" nType="-99" /><Node pos="r" depth="3" NCoef="0" IVar="-1" Cut="0.0e+00" cType="1" res="0.0296167918" rms="0.0e+00" purity="0.0e+00" nType="-99" /></Node></Node><Node pos="r" depth="1" NCoef="0" IVar="8" Cut="0.0186024997" cType="1" res="0.0e+00" rms="0.0e+00" purity="0.0e+00" nType="0"><Node pos="l" depth="2" NCoef="0" IVar="-1" Cut="0.0e+00" cType="1" res="-0.105792291" rms="0.0e+00" purity="0.0e+00" nType="-99" /><Node pos="r" depth="2" NCoef="0" IVar="-1" Cut="0.0e+00" cType="1" res="0.0201617014" rms="0.0e+00" purity="0.0e+00" nType="-99" /></Node></Node></BinaryTree><BinaryTree type="DecisionTree" boostWeight="1.0e+00" itree="21"><Node pos="s" depth="0" NCoef="0" IVar="9" Cut="0.00295849983" cType="1" res="0.0e+00" rms="0.0e+00" purity="0.0e+00" nType="0"><Node pos="l" depth="1" NCoef="0" IVar="-1" Cut="0.0e+00" cType="1" res="-0.114744313" rms="0.0e+00" purity="0.0e+00" nType="-99" /><Node pos="r" depth="1" NCoef="0" IVar="1" Cut="0.155913994" cType="1" res="0.0e+00" rms="0.0e+00" purity="0.0e+00" nType="0"><Node pos="l" depth="2" NCoef="0" IVar="-1" Cut="0.0e+00" cType="1" res="-0.049021177" rms="0.0e+00" purity="0.0e+00" nType="-99" /><Node pos="r" depth="2" NCoef="0" IVar="-1" Cut="0.0e+00" cType="1" res="0.109508991" rms="0.0e+00" purity="0.0e+00" nType="-99" /></Node></Node></BinaryTree><BinaryTree type="DecisionTree" boostWeight="1.0e+00" itree="22"><Node pos="s" depth="0" NCoef="0" IVar="20" Cut="0.0697354972" cType="1" res="0.0e+00" rms="0.0e+00" purity="0.0e+00" nType="0"><Node pos="l" depth="1" NCoef="0" IVar="-1" Cut="0.0e+00" cType="1" res="-0.121899411" rms="0.0e+00" purity="0.0e+00" nType="-99" /><Node pos="r" depth="1" NCoef="0" IVar="7" Cut="0.946264505" cType="1" res="0.0e+00" rms="0.0e+00" purity="0.0e+00" nType="0"><Node pos="l" depth="2" NCoef="0" IVar="23" Cut="0.213180989" cType="1" res="0.0e+00" rms="0.0e+00" purity="0.0e+00" nType="0"><Node pos="l" depth="3" NCoef="0" IVar="-1" Cut="0.0e+00" cType="1" res="-0.10920728" rms="0.0e+00" purity="0.0e+00" nType="-99" /><Node pos="r" depth="3" NCoef="0" IVar="-1" Cut="0.0e+00" cType="1" res="0.0189256221" rms="0.0e+00" purity="0.0e+00" nType="-99" /></Node><Node pos="r" depth="2" NCoef="0" IVar="-1" Cut="0.0e+00" cType="1" res="0.144378871" rms="0.0e+00" purity="0.0e+00" nType="-99" /></Node></Node></BinaryTree><BinaryTree type="DecisionTree" boostWeight="1.0e+00" itree="23"><Node pos="s" depth="0" NCoef="0" IVar="3" Cut="0.133477509" cType="1" res="0.0e+00" rms="0.0e+00" purity="0.0e+00" nType="0"><Node pos="l" depth="1" NCoef="0" IVar="-1" Cut="0.0e+00" cType="1" res="-0.0601543449" rms="0.0e+00" purity="0.0e+00" nType="-99" /><Node pos="r" depth="1" NCoef="0" IVar="2" Cut="1.64043951" cType="1" res="0.0e+00" rms="0.0e+00" purity="0.0e+00" nType="0"><Node pos="l" depth="2" NCoef="0" IVar="-1" Cut="0.0e+00" cType="1" res="0.168739766" rms="0.0e+00" purity="0.0e+00" nType="-99" /><Node pos="r" depth="2" NCoef="0" IVar="7" Cut="0.933937013" cType="1" res="0.0e+00" rms="0.0e+00" purity="0.0e+00" nType="0"><Node pos="l" depth="3" NCoef="0" IVar="-1" Cut="0.0e+00" cType="1" res="0.0521681644" rms="0.0e+00" purity="0.0e+00" nType="-99" /><Node pos="r" depth="3" NCoef="0" IVar="-1" Cut="0.0e+00" cType="1" res="-0.102132738" rms="0.0e+00" purity="0.0e+00" nType="-99" /></Node></Node></Node></BinaryTree><BinaryTree type="DecisionTree" boostWeight="1.0e+00" itree="24"><Node pos="s" depth="0" NCoef="0" IVar="8" Cut="0.0185180008" cType="1" res="0.0e+00" rms="0.0e+00" purity="0.0e+00" nType="0"><Node pos="l" depth="1" NCoef="0" IVar="10" Cut="0.0417499989" cType="1" res="0.0e+00" rms="0.0e+00" purity="0.0e+00" nType="0"><Node pos="l" depth="2" NCoef="0" IVar="-1" Cut="0.0e+00" cType="1" res="0.0270703807" rms="0.0e+00" purity="0.0e+00" nType="-99" /><Node pos="r" depth="2" NCoef="0" IVar="-1" Cut="0.0e+00" cType="1" res="-0.119573615" rms="0.0e+00" purity="0.0e+00" nType="-99" /></Node><Node pos="r" depth="1" NCoef="0" IVar="-1" Cut="0.0e+00" cType="1" res="0.069903411" rms="0.0e+00" purity="0.0e+00" nType="-99" /></Node></BinaryTree><BinaryTree type="DecisionTree" boostWeight="1.0e+00" itree="25"><Node pos="s" depth="0" NCoef="0" IVar="20" Cut="0.0697354972" cType="1" res="0.0e+00" rms="0.0e+00" purity="0.0e+00" nType="0"><Node pos="l" depth="1" NCoef="0" IVar="-1" Cut="0.0e+00" cType="1" res="-0.111961737" rms="0.0e+00" purity="0.0e+00" nType="-99" /><Node pos="r" depth="1" NCoef="0" IVar="7" Cut="0.946264505" cType="1" res="0.0e+00" rms="0.0e+00" purity="0.0e+00" nType="0"><Node pos="l" depth="2" NCoef="0" IVar="21" Cut="0.167128503" cType="1" res="0.0e+00" rms="0.0e+00" purity="0.0e+00" nType="0"><Node pos="l" depth="3" NCoef="0" IVar="-1" Cut="0.0e+00" cType="1" res="0.0130506409" rms="0.0e+00" purity="0.0e+00" nType="-99" /><Node pos="r" depth="3" NCoef="0" IVar="-1" Cut="0.0e+00" cType="1" res="-0.102238551" rms="0.0e+00" purity="0.0e+00" nType="-99" /></Node><Node pos="r" depth="2" NCoef="0" IVar="-1" Cut="0.0e+00" cType="1" res="0.129361868" rms="0.0e+00" purity="0.0e+00" nType="-99" /></Node></Node></BinaryTree><BinaryTree type="DecisionTree" boostWeight="1.0e+00" itree="26"><Node pos="s" depth="0" NCoef="0" IVar="8" Cut="0.0184535012" cType="1" res="0.0e+00" rms="0.0e+00" purity="0.0e+00" nType="0"><Node pos="l" depth="1" NCoef="0" IVar="7" Cut="0.946264505" cType="1" res="0.0e+00" rms="0.0e+00" purity="0.0e+00" nType="0"><Node pos="l" depth="2" NCoef="0" IVar="-1" Cut="0.0e+00" cType="1" res="0.13329643" rms="0.0e+00" purity="0.0e+00" nType="-99" /><Node pos="r" depth="2" NCoef="0" IVar="-1" Cut="0.0e+00" cType="1" res="-0.0205294006" rms="0.0e+00" purity="0.0e+00" nType="-99" /></Node><Node pos="r" depth="1" NCoef="0" IVar="21" Cut="0.168061003" cType="1" res="0.0e+00" rms="0.0e+00" purity="0.0e+00" nType="0"><Node pos="l" depth="2" NCoef="0" IVar="-1" Cut="0.0e+00" cType="1" res="0.0206330102" rms="0.0e+00" purity="0.0e+00" nType="-99" /><Node pos="r" depth="2" NCoef="0" IVar="-1" Cut="0.0e+00" cType="1" res="-0.0967736393" rms="0.0e+00" purity="0.0e+00" nType="-99" /></Node></Node></BinaryTree><BinaryTree type="DecisionTree" boostWeight="1.0e+00" itree="27"><Node pos="s" depth="0" NCoef="0" IVar="9" Cut="0.00295849983" cType="1" res="0.0e+00" rms="0.0e+00" purity="0.0e+00" nType="0"><Node pos="l" depth="1" NCoef="0" IVar="-1" Cut="0.0e+00" cType="1" res="-0.100588977" rms="0.0e+00" purity="0.0e+00" nType="-99" /><Node pos="r" depth="1" NCoef="0" IVar="1" Cut="0.155913994" cType="1" res="0.0e+00" rms="0.0e+00" purity="0.0e+00" nType="0"><Node pos="l" depth="2" NCoef="0" IVar="-1" Cut="0.0e+00" cType="1" res="-0.0444557741" rms="0.0e+00" purity="0.0e+00" nType="-99" /><Node pos="r" depth="2" NCoef="0" IVar="-1" Cut="0.0e+00" cType="1" res="0.0951331779" rms="0.0e+00" purity="0.0e+00" nType="-99" /></Node></Node></BinaryTree><BinaryTree type="DecisionTree" boostWeight="1.0e+00" itree="28"><Node pos="s" depth="0" NCoef="0" IVar="4" Cut="0.152349502" cType="1" res="0.0e+00" rms="0.0e+00" purity="0.0e+00" nType="0"><Node pos="l" depth="1" NCoef="0" IVar="5" Cut="0.461994499" cType="1" res="0.0e+00" rms="0.0e+00" purity="0.0e+00" nType="0"><Node pos="l" depth="2" NCoef="0" IVar="-1" Cut="0.0e+00" cType="1" res="-0.00608266657" rms="0.0e+00" purity="0.0e+00" nType="-99" /><Node pos="r" depth="2" NCoef="0" IVar="-1" Cut="0.0e+00" cType="1" res="-0.111762799" rms="0.0e+00" purity="0.0e+00" nType="-99" /></Node><Node pos="r" depth="1" NCoef="0" IVar="10" Cut="0.0576969981" cType="1" res="0.0e+00" rms="0.0e+00" purity="0.0e+00" nType="0"><Node pos="l" depth="2" NCoef="0" IVar="-1" Cut="0.0e+00" cType="1" res="0.081170164" rms="0.0e+00" purity="0.0e+00" nType="-99" /><Node pos="r" depth="2" NCoef="0" IVar="-1" Cut="0.0e+00" cType="1" res="-0.0225518942" rms="0.0e+00" purity="0.0e+00" nType="-99" /></Node></Node></BinaryTree><BinaryTree type="DecisionTree" boostWeight="1.0e+00" itree="29"><Node pos="s" depth="0" NCoef="0" IVar="4" Cut="0.149594992" cType="1" res="0.0e+00" rms="0.0e+00" purity="0.0e+00" nType="0"><Node pos="l" depth="1" NCoef="0" IVar="8" Cut="0.00882100035" cType="1" res="0.0e+00" rms="0.0e+00" purity="0.0e+00" nType="0"><Node pos="l" depth="2" NCoef="0" IVar="-1" Cut="0.0e+00" cType="1" res="-0.0226107482" rms="0.0e+00" purity="0.0e+00" nType="-99" /><Node pos="r" depth="2" NCoef="0" IVar="-1" Cut="0.0e+00" cType="1" res="0.152015224" rms="0.0e+00" purity="0.0e+00" nType="-99" /></Node><Node pos="r" depth="1" NCoef="0" IVar="8" Cut="0.0184535012" cType="1" res="0.0e+00" rms="0.0e+00" purity="0.0e+00" nType="0"><Node pos="l" depth="2" NCoef="0" IVar="-1" Cut="0.0e+00" cType="1" res="0.0654942393" rms="0.0e+00" purity="0.0e+00" nType="-99" /><Node pos="r" depth="2" NCoef="0" IVar="-1" Cut="0.0e+00" cType="1" res="-0.113668017" rms="0.0e+00" purity="0.0e+00" nType="-99" /></Node></Node></BinaryTree><BinaryTree type="DecisionTree" boostWeight="1.0e+00" itree="30"><Node pos="s" depth="0" NCoef="0" IVar="8" Cut="0.0185180008" cType="1" res="0.0e+00" rms="0.0e+00" purity="0.0e+00" nType="0"><Node pos="l" depth="1" NCoef="0" IVar="2" Cut="1.64676595" cType="1" res="0.0e+00" rms="0.0e+00" purity="0.0e+00" nType="0"><Node pos="l" depth="2" NCoef="0" IVar="-1" Cut="0.0e+00" cType="1" res="-0.107882626" rms="0.0e+00" purity="0.0e+00" nType="-99" /><Node pos="r" depth="2" NCoef="0" IVar="-1" Cut="0.0e+00" cType="1" res="0.0236736499" rms="0.0e+00" purity="0.0e+00" nType="-99" /></Node><Node pos="r" depth="1" NCoef="0" IVar="-1" Cut="0.0e+00" cType="1" res="0.0550420508" rms="0.0e+00" purity="0.0e+00" nType="-99" /></Node></BinaryTree><BinaryTree type="DecisionTree" boostWeight="1.0e+00" itree="31"><Node pos="s" depth="0" NCoef="0" IVar="5" Cut="0.396535516" cType="1" res="0.0e+00" rms="0.0e+00" purity="0.0e+00" nType="0"><Node pos="l" depth="1" NCoef="0" IVar="-1" Cut="0.0e+00" cType="1" res="0.0632440746" rms="0.0e+00" purity="0.0e+00" nType="-99" /><Node pos="r" depth="1" NCoef="0" IVar="1" Cut="0.155913994" cType="1" res="0.0e+00" rms="0.0e+00" purity="0.0e+00" nType="0"><Node pos="l" depth="2" NCoef="0" IVar="-1" Cut="0.0e+00" cType="1" res="0.0508550704" rms="0.0e+00" purity="0.0e+00" nType="-99" /><Node pos="r" depth="2" NCoef="0" IVar="-1" Cut="0.0e+00" cType="1" res="-0.118616074" rms="0.0e+00" purity="0.0e+00" nType="-99" /></Node></Node></BinaryTree><BinaryTree type="DecisionTree" boostWeight="1.0e+00" itree="32"><Node pos="s" depth="0" NCoef="0" IVar="4" Cut="0.149594992" cType="1" res="0.0e+00" rms="0.0e+00" purity="0.0e+00" nType="0"><Node pos="l" depth="1" NCoef="0" IVar="8" Cut="0.00882100035" cType="1" res="0.0e+00" rms="0.0e+00" purity="0.0e+00" nType="0"><Node pos="l" depth="2" NCoef="0" IVar="-1" Cut="0.0e+00" cType="1" res="-0.0237092506" rms="0.0e+00" purity="0.0e+00" nType="-99" /><Node pos="r" depth="2" NCoef="0" IVar="-1" Cut="0.0e+00" cType="1" res="0.139359742" rms="0.0e+00" purity="0.0e+00" nType="-99" /></Node><Node pos="r" depth="1" NCoef="0" IVar="8" Cut="0.0184535012" cType="1" res="0.0e+00" rms="0.0e+00" purity="0.0e+00" nType="0"><Node pos="l" depth="2" NCoef="0" IVar="-1" Cut="0.0e+00" cType="1" res="0.0604650564" rms="0.0e+00" purity="0.0e+00" nType="-99" /><Node pos="r" depth="2" NCoef="0" IVar="-1" Cut="0.0e+00" cType="1" res="-0.106385611" rms="0.0e+00" purity="0.0e+00" nType="-99" /></Node></Node></BinaryTree><BinaryTree type="DecisionTree" boostWeight="1.0e+00" itree="33"><Node pos="s" depth="0" NCoef="0" IVar="9" Cut="0.00295849983" cType="1" res="0.0e+00" rms="0.0e+00" purity="0.0e+00" nType="0"><Node pos="l" depth="1" NCoef="0" IVar="-1" Cut="0.0e+00" cType="1" res="-0.0893119276" rms="0.0e+00" purity="0.0e+00" nType="-99" /><Node pos="r" depth="1" NCoef="0" IVar="13" Cut="311865.625" cType="1" res="0.0e+00" rms="0.0e+00" purity="0.0e+00" nType="0"><Node pos="l" depth="2" NCoef="0" IVar="-1" Cut="0.0e+00" cType="1" res="0.0791049004" rms="0.0e+00" purity="0.0e+00" nType="-99" /><Node pos="r" depth="2" NCoef="0" IVar="-1" Cut="0.0e+00" cType="1" res="-0.0488597527" rms="0.0e+00" purity="0.0e+00" nType="-99" /></Node></Node></BinaryTree><BinaryTree type="DecisionTree" boostWeight="1.0e+00" itree="34"><Node pos="s" depth="0" NCoef="0" IVar="4" Cut="0.152349502" cType="1" res="0.0e+00" rms="0.0e+00" purity="0.0e+00" nType="0"><Node pos="l" depth="1" NCoef="0" IVar="21" Cut="0.123142004" cType="1" res="0.0e+00" rms="0.0e+00" purity="0.0e+00" nType="0"><Node pos="l" depth="2" NCoef="0" IVar="-1" Cut="0.0e+00" cType="1" res="-0.01602442" rms="0.0e+00" purity="0.0e+00" nType="-99" /><Node pos="r" depth="2" NCoef="0" IVar="-1" Cut="0.0e+00" cType="1" res="-0.0892419815" rms="0.0e+00" purity="0.0e+00" nType="-99" /></Node><Node pos="r" depth="1" NCoef="0" IVar="0" Cut="1.53059101" cType="1" res="0.0e+00" rms="0.0e+00" purity="0.0e+00" nType="0"><Node pos="l" depth="2" NCoef="0" IVar="-1" Cut="0.0e+00" cType="1" res="0.0687144399" rms="0.0e+00" purity="0.0e+00" nType="-99" /><Node pos="r" depth="2" NCoef="0" IVar="-1" Cut="0.0e+00" cType="1" res="-0.0126934396" rms="0.0e+00" purity="0.0e+00" nType="-99" /></Node></Node></BinaryTree><BinaryTree type="DecisionTree" boostWeight="1.0e+00" itree="35"><Node pos="s" depth="0" NCoef="0" IVar="4" Cut="0.149594992" cType="1" res="0.0e+00" rms="0.0e+00" purity="0.0e+00" nType="0"><Node pos="l" depth="1" NCoef="0" IVar="8" Cut="0.00884400029" cType="1" res="0.0e+00" rms="0.0e+00" purity="0.0e+00" nType="0"><Node pos="l" depth="2" NCoef="0" IVar="-1" Cut="0.0e+00" cType="1" res="-0.0147426492" rms="0.0e+00" purity="0.0e+00" nType="-99" /><Node pos="r" depth="2" NCoef="0" IVar="-1" Cut="0.0e+00" cType="1" res="0.129181042" rms="0.0e+00" purity="0.0e+00" nType="-99" /></Node><Node pos="r" depth="1" NCoef="0" IVar="8" Cut="0.0184535012" cType="1" res="0.0e+00" rms="0.0e+00" purity="0.0e+00" nType="0"><Node pos="l" depth="2" NCoef="0" IVar="-1" Cut="0.0e+00" cType="1" res="0.0541769154" rms="0.0e+00" purity="0.0e+00" nType="-99" /><Node pos="r" depth="2" NCoef="0" IVar="-1" Cut="0.0e+00" cType="1" res="-0.0997898504" rms="0.0e+00" purity="0.0e+00" nType="-99" /></Node></Node></BinaryTree><BinaryTree type="DecisionTree" boostWeight="1.0e+00" itree="36"><Node pos="s" depth="0" NCoef="0" IVar="8" Cut="0.0185180008" cType="1" res="0.0e+00" rms="0.0e+00" purity="0.0e+00" nType="0"><Node pos="l" depth="1" NCoef="0" IVar="2" Cut="1.64043951" cType="1" res="0.0e+00" rms="0.0e+00" purity="0.0e+00" nType="0"><Node pos="l" depth="2" NCoef="0" IVar="-1" Cut="0.0e+00" cType="1" res="-0.0958730429" rms="0.0e+00" purity="0.0e+00" nType="-99" /><Node pos="r" depth="2" NCoef="0" IVar="-1" Cut="0.0e+00" cType="1" res="0.0124699771" rms="0.0e+00" purity="0.0e+00" nType="-99" /></Node><Node pos="r" depth="1" NCoef="0" IVar="-1" Cut="0.0e+00" cType="1" res="0.0476802401" rms="0.0e+00" purity="0.0e+00" nType="-99" /></Node></BinaryTree><BinaryTree type="DecisionTree" boostWeight="1.0e+00" itree="37"><Node pos="s" depth="0" NCoef="0" IVar="7" Cut="0.946264505" cType="1" res="0.0e+00" rms="0.0e+00" purity="0.0e+00" nType="0"><Node pos="l" depth="1" NCoef="0" IVar="23" Cut="0.171588004" cType="1" res="0.0e+00" rms="0.0e+00" purity="0.0e+00" nType="0"><Node pos="l" depth="2" NCoef="0" IVar="-1" Cut="0.0e+00" cType="1" res="-0.0883246362" rms="0.0e+00" purity="0.0e+00" nType="-99" /><Node pos="r" depth="2" NCoef="0" IVar="-1" Cut="0.0e+00" cType="1" res="-0.00436324906" rms="0.0e+00" purity="0.0e+00" nType="-99" /></Node><Node pos="r" depth="1" NCoef="0" IVar="-1" Cut="0.0e+00" cType="1" res="0.0436369106" rms="0.0e+00" purity="0.0e+00" nType="-99" /></Node></BinaryTree><BinaryTree type="DecisionTree" boostWeight="1.0e+00" itree="38"><Node pos="s" depth="0" NCoef="0" IVar="7" Cut="0.946264505" cType="1" res="0.0e+00" rms="0.0e+00" purity="0.0e+00" nType="0"><Node pos="l" depth="1" NCoef="0" IVar="8" Cut="0.0184535012" cType="1" res="0.0e+00" rms="0.0e+00" purity="0.0e+00" nType="0"><Node pos="l" depth="2" NCoef="0" IVar="-1" Cut="0.0e+00" cType="1" res="0.110994987" rms="0.0e+00" purity="0.0e+00" nType="-99" /><Node pos="r" depth="2" NCoef="0" IVar="-1" Cut="0.0e+00" cType="1" res="-0.0192218907" rms="0.0e+00" purity="0.0e+00" nType="-99" /></Node><Node pos="r" depth="1" NCoef="0" IVar="-1" Cut="0.0e+00" cType="1" res="-0.0476110838" rms="0.0e+00" purity="0.0e+00" nType="-99" /></Node></BinaryTree><BinaryTree type="DecisionTree" boostWeight="1.0e+00" itree="39"><Node pos="s" depth="0" NCoef="0" IVar="10" Cut="0.0524355024" cType="1" res="0.0e+00" rms="0.0e+00" purity="0.0e+00" nType="0"><Node pos="l" depth="1" NCoef="0" IVar="-1" Cut="0.0e+00" cType="1" res="0.0497289412" rms="0.0e+00" purity="0.0e+00" nType="-99" /><Node pos="r" depth="1" NCoef="0" IVar="10" Cut="0.0655905008" cType="1" res="0.0e+00" rms="0.0e+00" purity="0.0e+00" nType="0"><Node pos="l" depth="2" NCoef="0" IVar="-1" Cut="0.0e+00" cType="1" res="-0.106013477" rms="0.0e+00" purity="0.0e+00" nType="-99" /><Node pos="r" depth="2" NCoef="0" IVar="-1" Cut="0.0e+00" cType="1" res="0.028019907" rms="0.0e+00" purity="0.0e+00" nType="-99" /></Node></Node></BinaryTree><BinaryTree type="DecisionTree" boostWeight="1.0e+00" itree="40"><Node pos="s" depth="0" NCoef="0" IVar="4" Cut="0.152349502" cType="1" res="0.0e+00" rms="0.0e+00" purity="0.0e+00" nType="0"><Node pos="l" depth="1" NCoef="0" IVar="-1" Cut="0.0e+00" cType="1" res="-0.0641050115" rms="0.0e+00" purity="0.0e+00" nType="-99" /><Node pos="r" depth="1" NCoef="0" IVar="-1" Cut="0.0e+00" cType="1" res="0.0375997387" rms="0.0e+00" purity="0.0e+00" nType="-99" /></Node></BinaryTree><BinaryTree type="DecisionTree" boostWeight="1.0e+00" itree="41"><Node pos="s" depth="0" NCoef="0" IVar="2" Cut="1.64043951" cType="1" res="0.0e+00" rms="0.0e+00" purity="0.0e+00" nType="0"><Node pos="l" depth="1" NCoef="0" IVar="3" Cut="0.133477509" cType="1" res="0.0e+00" rms="0.0e+00" purity="0.0e+00" nType="0"><Node pos="l" depth="2" NCoef="0" IVar="-1" Cut="0.0e+00" cType="1" res="-0.0426006392" rms="0.0e+00" purity="0.0e+00" nType="-99" /><Node pos="r" depth="2" NCoef="0" IVar="-1" Cut="0.0e+00" cType="1" res="0.126670167" rms="0.0e+00" purity="0.0e+00" nType="-99" /></Node><Node pos="r" depth="1" NCoef="0" IVar="-1" Cut="0.0e+00" cType="1" res="-0.0422940105" rms="0.0e+00" purity="0.0e+00" nType="-99" /></Node></BinaryTree><BinaryTree type="DecisionTree" boostWeight="1.0e+00" itree="42"><Node pos="s" depth="0" NCoef="0" IVar="5" Cut="0.532716513" cType="1" res="0.0e+00" rms="0.0e+00" purity="0.0e+00" nType="0"><Node pos="l" depth="1" NCoef="0" IVar="-1" Cut="0.0e+00" cType="1" res="-0.0630981177" rms="0.0e+00" purity="0.0e+00" nType="-99" /><Node pos="r" depth="1" NCoef="0" IVar="-1" Cut="0.0e+00" cType="1" res="0.0355510265" rms="0.0e+00" purity="0.0e+00" nType="-99" /></Node></BinaryTree><BinaryTree type="DecisionTree" boostWeight="1.0e+00" itree="43"><Node pos="s" depth="0" NCoef="0" IVar="7" Cut="0.946264505" cType="1" res="0.0e+00" rms="0.0e+00" purity="0.0e+00" nType="0"><Node pos="l" depth="1" NCoef="0" IVar="-1" Cut="0.0e+00" cType="1" res="-0.0575315803" rms="0.0e+00" purity="0.0e+00" nType="-99" /><Node pos="r" depth="1" NCoef="0" IVar="-1" Cut="0.0e+00" cType="1" res="0.0385887846" rms="0.0e+00" purity="0.0e+00" nType="-99" /></Node></BinaryTree><BinaryTree type="DecisionTree" boostWeight="1.0e+00" itree="44"><Node pos="s" depth="0" NCoef="0" IVar="7" Cut="0.946264505" cType="1" res="0.0e+00" rms="0.0e+00" purity="0.0e+00" nType="0"><Node pos="l" depth="1" NCoef="0" IVar="8" Cut="0.0184535012" cType="1" res="0.0e+00" rms="0.0e+00" purity="0.0e+00" nType="0"><Node pos="l" depth="2" NCoef="0" IVar="-1" Cut="0.0e+00" cType="1" res="0.102424987" rms="0.0e+00" purity="0.0e+00" nType="-99" /><Node pos="r" depth="2" NCoef="0" IVar="-1" Cut="0.0e+00" cType="1" res="-0.0185797457" rms="0.0e+00" purity="0.0e+00" nType="-99" /></Node><Node pos="r" depth="1" NCoef="0" IVar="-1" Cut="0.0e+00" cType="1" res="-0.0441300161" rms="0.0e+00" purity="0.0e+00" nType="-99" /></Node></BinaryTree><BinaryTree type="DecisionTree" boostWeight="1.0e+00" itree="45"><Node pos="s" depth="0" NCoef="0" IVar="2" Cut="1.64676595" cType="1" res="0.0e+00" rms="0.0e+00" purity="0.0e+00" nType="0"><Node pos="l" depth="1" NCoef="0" IVar="24" Cut="0.000119999997" cType="1" res="0.0e+00" rms="0.0e+00" purity="0.0e+00" nType="0"><Node pos="l" depth="2" NCoef="0" IVar="-1" Cut="0.0e+00" cType="1" res="0.0262980629" rms="0.0e+00" purity="0.0e+00" nType="-99" /><Node pos="r" depth="2" NCoef="0" IVar="-1" Cut="0.0e+00" cType="1" res="-0.096147351" rms="0.0e+00" purity="0.0e+00" nType="-99" /></Node><Node pos="r" depth="1" NCoef="0" IVar="-1" Cut="0.0e+00" cType="1" res="0.0492528938" rms="0.0e+00" purity="0.0e+00" nType="-99" /></Node></BinaryTree><BinaryTree type="DecisionTree" boostWeight="1.0e+00" itree="46"><Node pos="s" depth="0" NCoef="0" IVar="4" Cut="0.152349502" cType="1" res="0.0e+00" rms="0.0e+00" purity="0.0e+00" nType="0"><Node pos="l" depth="1" NCoef="0" IVar="-1" Cut="0.0e+00" cType="1" res="-0.0563385449" rms="0.0e+00" purity="0.0e+00" nType="-99" /><Node pos="r" depth="1" NCoef="0" IVar="-1" Cut="0.0e+00" cType="1" res="0.0342738442" rms="0.0e+00" purity="0.0e+00" nType="-99" /></Node></BinaryTree><BinaryTree type="DecisionTree" boostWeight="1.0e+00" itree="47"><Node pos="s" depth="0" NCoef="0" IVar="2" Cut="1.64043951" cType="1" res="0.0e+00" rms="0.0e+00" purity="0.0e+00" nType="0"><Node pos="l" depth="1" NCoef="0" IVar="3" Cut="0.133477509" cType="1" res="0.0e+00" rms="0.0e+00" purity="0.0e+00" nType="0"><Node pos="l" depth="2" NCoef="0" IVar="-1" Cut="0.0e+00" cType="1" res="-0.0407180339" rms="0.0e+00" purity="0.0e+00" nType="-99" /><Node pos="r" depth="2" NCoef="0" IVar="-1" Cut="0.0e+00" cType="1" res="0.116368584" rms="0.0e+00" purity="0.0e+00" nType="-99" /></Node><Node pos="r" depth="1" NCoef="0" IVar="-1" Cut="0.0e+00" cType="1" res="-0.0414163806" rms="0.0e+00" purity="0.0e+00" nType="-99" /></Node></BinaryTree><BinaryTree type="DecisionTree" boostWeight="1.0e+00" itree="48"><Node pos="s" depth="0" NCoef="0" IVar="8" Cut="0.0185180008" cType="1" res="0.0e+00" rms="0.0e+00" purity="0.0e+00" nType="0"><Node pos="l" depth="1" NCoef="0" IVar="-1" Cut="0.0e+00" cType="1" res="-0.0496869348" rms="0.0e+00" purity="0.0e+00" nType="-99" /><Node pos="r" depth="1" NCoef="0" IVar="-1" Cut="0.0e+00" cType="1" res="0.0454265848" rms="0.0e+00" purity="0.0e+00" nType="-99" /></Node></BinaryTree><BinaryTree type="DecisionTree" boostWeight="1.0e+00" itree="49"><Node pos="s" depth="0" NCoef="0" IVar="7" Cut="0.946264505" cType="1" res="0.0e+00" rms="0.0e+00" purity="0.0e+00" nType="0"><Node pos="l" depth="1" NCoef="0" IVar="-1" Cut="0.0e+00" cType="1" res="-0.0509794354" rms="0.0e+00" purity="0.0e+00" nType="-99" /><Node pos="r" depth="1" NCoef="0" IVar="-1" Cut="0.0e+00" cType="1" res="0.036162056" rms="0.0e+00" purity="0.0e+00" nType="-99" /></Node></BinaryTree><BinaryTree type="DecisionTree" boostWeight="1.0e+00" itree="50"><Node pos="s" depth="0" NCoef="0" IVar="7" Cut="0.946264505" cType="1" res="0.0e+00" rms="0.0e+00" purity="0.0e+00" nType="0"><Node pos="l" depth="1" NCoef="0" IVar="8" Cut="0.0184535012" cType="1" res="0.0e+00" rms="0.0e+00" purity="0.0e+00" nType="0"><Node pos="l" depth="2" NCoef="0" IVar="-1" Cut="0.0e+00" cType="1" res="0.0959003121" rms="0.0e+00" purity="0.0e+00" nType="-99" /><Node pos="r" depth="2" NCoef="0" IVar="-1" Cut="0.0e+00" cType="1" res="-0.0226055197" rms="0.0e+00" purity="0.0e+00" nType="-99" /></Node><Node pos="r" depth="1" NCoef="0" IVar="-1" Cut="0.0e+00" cType="1" res="-0.0407423712" rms="0.0e+00" purity="0.0e+00" nType="-99" /></Node></BinaryTree><BinaryTree type="DecisionTree" boostWeight="1.0e+00" itree="51"><Node pos="s" depth="0" NCoef="0" IVar="10" Cut="0.0524355024" cType="1" res="0.0e+00" rms="0.0e+00" purity="0.0e+00" nType="0"><Node pos="l" depth="1" NCoef="0" IVar="-1" Cut="0.0e+00" cType="1" res="0.0492651649" rms="0.0e+00" purity="0.0e+00" nType="-99" /><Node pos="r" depth="1" NCoef="0" IVar="-1" Cut="0.0e+00" cType="1" res="-0.0463342182" rms="0.0e+00" purity="0.0e+00" nType="-99" /></Node></BinaryTree><BinaryTree type="DecisionTree" boostWeight="1.0e+00" itree="52"><Node pos="s" depth="0" NCoef="0" IVar="4" Cut="0.152349502" cType="1" res="0.0e+00" rms="0.0e+00" purity="0.0e+00" nType="0"><Node pos="l" depth="1" NCoef="0" IVar="-1" Cut="0.0e+00" cType="1" res="-0.0520420037" rms="0.0e+00" purity="0.0e+00" nType="-99" /><Node pos="r" depth="1" NCoef="0" IVar="-1" Cut="0.0e+00" cType="1" res="0.0323857255" rms="0.0e+00" purity="0.0e+00" nType="-99" /></Node></BinaryTree><BinaryTree type="DecisionTree" boostWeight="1.0e+00" itree="53"><Node pos="s" depth="0" NCoef="0" IVar="2" Cut="1.64043951" cType="1" res="0.0e+00" rms="0.0e+00" purity="0.0e+00" nType="0"><Node pos="l" depth="1" NCoef="0" IVar="3" Cut="0.133477509" cType="1" res="0.0e+00" rms="0.0e+00" purity="0.0e+00" nType="0"><Node pos="l" depth="2" NCoef="0" IVar="-1" Cut="0.0e+00" cType="1" res="-0.0382834487" rms="0.0e+00" purity="0.0e+00" nType="-99" /><Node pos="r" depth="2" NCoef="0" IVar="-1" Cut="0.0e+00" cType="1" res="0.107452706" rms="0.0e+00" purity="0.0e+00" nType="-99" /></Node><Node pos="r" depth="1" NCoef="0" IVar="-1" Cut="0.0e+00" cType="1" res="-0.0386869088" rms="0.0e+00" purity="0.0e+00" nType="-99" /></Node></BinaryTree><BinaryTree type="DecisionTree" boostWeight="1.0e+00" itree="54"><Node pos="s" depth="0" NCoef="0" IVar="8" Cut="0.0185180008" cType="1" res="0.0e+00" rms="0.0e+00" purity="0.0e+00" nType="0"><Node pos="l" depth="1" NCoef="0" IVar="-1" Cut="0.0e+00" cType="1" res="-0.043637339" rms="0.0e+00" purity="0.0e+00" nType="-99" /><Node pos="r" depth="1" NCoef="0" IVar="-1" Cut="0.0e+00" cType="1" res="0.0428387374" rms="0.0e+00" purity="0.0e+00" nType="-99" /></Node></BinaryTree><BinaryTree type="DecisionTree" boostWeight="1.0e+00" itree="55"><Node pos="s" depth="0" NCoef="0" IVar="23" Cut="0.209631994" cType="1" res="0.0e+00" rms="0.0e+00" purity="0.0e+00" nType="0"><Node pos="l" depth="1" NCoef="0" IVar="-1" Cut="0.0e+00" cType="1" res="-0.0402222164" rms="0.0e+00" purity="0.0e+00" nType="-99" /><Node pos="r" depth="1" NCoef="0" IVar="-1" Cut="0.0e+00" cType="1" res="0.0394450277" rms="0.0e+00" purity="0.0e+00" nType="-99" /></Node></BinaryTree><BinaryTree type="DecisionTree" boostWeight="1.0e+00" itree="56"><Node pos="s" depth="0" NCoef="0" IVar="2" Cut="1.64043951" cType="1" res="0.0e+00" rms="0.0e+00" purity="0.0e+00" nType="0"><Node pos="l" depth="1" NCoef="0" IVar="3" Cut="0.133477509" cType="1" res="0.0e+00" rms="0.0e+00" purity="0.0e+00" nType="0"><Node pos="l" depth="2" NCoef="0" IVar="-1" Cut="0.0e+00" cType="1" res="-0.0350772813" rms="0.0e+00" purity="0.0e+00" nType="-99" /><Node pos="r" depth="2" NCoef="0" IVar="-1" Cut="0.0e+00" cType="1" res="0.100938626" rms="0.0e+00" purity="0.0e+00" nType="-99" /></Node><Node pos="r" depth="1" NCoef="0" IVar="-1" Cut="0.0e+00" cType="1" res="-0.0362219028" rms="0.0e+00" purity="0.0e+00" nType="-99" /></Node></BinaryTree><BinaryTree type="DecisionTree" boostWeight="1.0e+00" itree="57"><Node pos="s" depth="0" NCoef="0" IVar="10" Cut="0.0524355024" cType="1" res="0.0e+00" rms="0.0e+00" purity="0.0e+00" nType="0"><Node pos="l" depth="1" NCoef="0" IVar="-1" Cut="0.0e+00" cType="1" res="0.0471990854" rms="0.0e+00" purity="0.0e+00" nType="-99" /><Node pos="r" depth="1" NCoef="0" IVar="-1" Cut="0.0e+00" cType="1" res="-0.0408213511" rms="0.0e+00" purity="0.0e+00" nType="-99" /></Node></BinaryTree><BinaryTree type="DecisionTree" boostWeight="1.0e+00" itree="58"><Node pos="s" depth="0" NCoef="0" IVar="20" Cut="0.0760314986" cType="1" res="0.0e+00" rms="0.0e+00" purity="0.0e+00" nType="0"><Node pos="l" depth="1" NCoef="0" IVar="-1" Cut="0.0e+00" cType="1" res="-0.0473361351" rms="0.0e+00" purity="0.0e+00" nType="-99" /><Node pos="r" depth="1" NCoef="0" IVar="-1" Cut="0.0e+00" cType="1" res="0.031557709" rms="0.0e+00" purity="0.0e+00" nType="-99" /></Node></BinaryTree><BinaryTree type="DecisionTree" boostWeight="1.0e+00" itree="59"><Node pos="s" depth="0" NCoef="0" IVar="7" Cut="0.921817541" cType="1" res="0.0e+00" rms="0.0e+00" purity="0.0e+00" nType="0"><Node pos="l" depth="1" NCoef="0" IVar="8" Cut="0.0184535012" cType="1" res="0.0e+00" rms="0.0e+00" purity="0.0e+00" nType="0"><Node pos="l" depth="2" NCoef="0" IVar="-1" Cut="0.0e+00" cType="1" res="0.0828246623" rms="0.0e+00" purity="0.0e+00" nType="-99" /><Node pos="r" depth="2" NCoef="0" IVar="-1" Cut="0.0e+00" cType="1" res="-0.0108357314" rms="0.0e+00" purity="0.0e+00" nType="-99" /></Node><Node pos="r" depth="1" NCoef="0" IVar="-1" Cut="0.0e+00" cType="1" res="-0.0367734358" rms="0.0e+00" purity="0.0e+00" nType="-99" /></Node></BinaryTree><BinaryTree type="DecisionTree" boostWeight="1.0e+00" itree="60"><Node pos="s" depth="0" NCoef="0" IVar="2" Cut="1.64676595" cType="1" res="0.0e+00" rms="0.0e+00" purity="0.0e+00" nType="0"><Node pos="l" depth="1" NCoef="0" IVar="-1" Cut="0.0e+00" cType="1" res="-0.0380337574" rms="0.0e+00" purity="0.0e+00" nType="-99" /><Node pos="r" depth="1" NCoef="0" IVar="-1" Cut="0.0e+00" cType="1" res="0.046664644" rms="0.0e+00" purity="0.0e+00" nType="-99" /></Node></BinaryTree><BinaryTree type="DecisionTree" boostWeight="1.0e+00" itree="61"><Node pos="s" depth="0" NCoef="0" IVar="7" Cut="0.946264505" cType="1" res="0.0e+00" rms="0.0e+00" purity="0.0e+00" nType="0"><Node pos="l" depth="1" NCoef="0" IVar="-1" Cut="0.0e+00" cType="1" res="-0.0438522175" rms="0.0e+00" purity="0.0e+00" nType="-99" /><Node pos="r" depth="1" NCoef="0" IVar="-1" Cut="0.0e+00" cType="1" res="0.0314899832" rms="0.0e+00" purity="0.0e+00" nType="-99" /></Node></BinaryTree><BinaryTree type="DecisionTree" boostWeight="1.0e+00" itree="62"><Node pos="s" depth="0" NCoef="0" IVar="2" Cut="1.64043951" cType="1" res="0.0e+00" rms="0.0e+00" purity="0.0e+00" nType="0"><Node pos="l" depth="1" NCoef="0" IVar="4" Cut="0.149594992" cType="1" res="0.0e+00" rms="0.0e+00" purity="0.0e+00" nType="0"><Node pos="l" depth="2" NCoef="0" IVar="-1" Cut="0.0e+00" cType="1" res="0.0939746201" rms="0.0e+00" purity="0.0e+00" nType="-99" /><Node pos="r" depth="2" NCoef="0" IVar="-1" Cut="0.0e+00" cType="1" res="-0.0288005415" rms="0.0e+00" purity="0.0e+00" nType="-99" /></Node><Node pos="r" depth="1" NCoef="0" IVar="-1" Cut="0.0e+00" cType="1" res="-0.036107637" rms="0.0e+00" purity="0.0e+00" nType="-99" /></Node></BinaryTree><BinaryTree type="DecisionTree" boostWeight="1.0e+00" itree="63"><Node pos="s" depth="0" NCoef="0" IVar="8" Cut="0.0185180008" cType="1" res="0.0e+00" rms="0.0e+00" purity="0.0e+00" nType="0"><Node pos="l" depth="1" NCoef="0" IVar="-1" Cut="0.0e+00" cType="1" res="-0.0404726006" rms="0.0e+00" purity="0.0e+00" nType="-99" /><Node pos="r" depth="1" NCoef="0" IVar="-1" Cut="0.0e+00" cType="1" res="0.0436683148" rms="0.0e+00" purity="0.0e+00" nType="-99" /></Node></BinaryTree><BinaryTree type="DecisionTree" boostWeight="1.0e+00" itree="64"><Node pos="s" depth="0" NCoef="0" IVar="13" Cut="227453.281" cType="1" res="0.0e+00" rms="0.0e+00" purity="0.0e+00" nType="0"><Node pos="l" depth="1" NCoef="0" IVar="-1" Cut="0.0e+00" cType="1" res="-0.0472128615" rms="0.0e+00" purity="0.0e+00" nType="-99" /><Node pos="r" depth="1" NCoef="0" IVar="-1" Cut="0.0e+00" cType="1" res="0.0263084099" rms="0.0e+00" purity="0.0e+00" nType="-99" /></Node></BinaryTree><BinaryTree type="DecisionTree" boostWeight="1.0e+00" itree="65"><Node pos="s" depth="0" NCoef="0" IVar="7" Cut="0.921817541" cType="1" res="0.0e+00" rms="0.0e+00" purity="0.0e+00" nType="0"><Node pos="l" depth="1" NCoef="0" IVar="-1" Cut="0.0e+00" cType="1" res="0.0408378318" rms="0.0e+00" purity="0.0e+00" nType="-99" /><Node pos="r" depth="1" NCoef="0" IVar="-1" Cut="0.0e+00" cType="1" res="-0.0329739861" rms="0.0e+00" purity="0.0e+00" nType="-99" /></Node></BinaryTree><BinaryTree type="DecisionTree" boostWeight="1.0e+00" itree="66"><Node pos="s" depth="0" NCoef="0" IVar="10" Cut="0.0524355024" cType="1" res="0.0e+00" rms="0.0e+00" purity="0.0e+00" nType="0"><Node pos="l" depth="1" NCoef="0" IVar="-1" Cut="0.0e+00" cType="1" res="0.0452032462" rms="0.0e+00" purity="0.0e+00" nType="-99" /><Node pos="r" depth="1" NCoef="0" IVar="-1" Cut="0.0e+00" cType="1" res="-0.0354760922" rms="0.0e+00" purity="0.0e+00" nType="-99" /></Node></BinaryTree><BinaryTree type="DecisionTree" boostWeight="1.0e+00" itree="67"><Node pos="s" depth="0" NCoef="0" IVar="13" Cut="227453.281" cType="1" res="0.0e+00" rms="0.0e+00" purity="0.0e+00" nType="0"><Node pos="l" depth="1" NCoef="0" IVar="-1" Cut="0.0e+00" cType="1" res="-0.0451151431" rms="0.0e+00" purity="0.0e+00" nType="-99" /><Node pos="r" depth="1" NCoef="0" IVar="-1" Cut="0.0e+00" cType="1" res="0.024468435" rms="0.0e+00" purity="0.0e+00" nType="-99" /></Node></BinaryTree><BinaryTree type="DecisionTree" boostWeight="1.0e+00" itree="68"><Node pos="s" depth="0" NCoef="0" IVar="4" Cut="0.149594992" cType="1" res="0.0e+00" rms="0.0e+00" purity="0.0e+00" nType="0"><Node pos="l" depth="1" NCoef="0" IVar="-1" Cut="0.0e+00" cType="1" res="0.0447802544" rms="0.0e+00" purity="0.0e+00" nType="-99" /><Node pos="r" depth="1" NCoef="0" IVar="-1" Cut="0.0e+00" cType="1" res="-0.0262028649" rms="0.0e+00" purity="0.0e+00" nType="-99" /></Node></BinaryTree><BinaryTree type="DecisionTree" boostWeight="1.0e+00" itree="69"><Node pos="s" depth="0" NCoef="0" IVar="8" Cut="0.0185180008" cType="1" res="0.0e+00" rms="0.0e+00" purity="0.0e+00" nType="0"><Node pos="l" depth="1" NCoef="0" IVar="-1" Cut="0.0e+00" cType="1" res="-0.0385554023" rms="0.0e+00" purity="0.0e+00" nType="-99" /><Node pos="r" depth="1" NCoef="0" IVar="-1" Cut="0.0e+00" cType="1" res="0.0438692868" rms="0.0e+00" purity="0.0e+00" nType="-99" /></Node></BinaryTree><BinaryTree type="DecisionTree" boostWeight="1.0e+00" itree="70"><Node pos="s" depth="0" NCoef="0" IVar="7" Cut="0.946264505" cType="1" res="0.0e+00" rms="0.0e+00" purity="0.0e+00" nType="0"><Node pos="l" depth="1" NCoef="0" IVar="-1" Cut="0.0e+00" cType="1" res="-0.0418308601" rms="0.0e+00" purity="0.0e+00" nType="-99" /><Node pos="r" depth="1" NCoef="0" IVar="-1" Cut="0.0e+00" cType="1" res="0.0308467504" rms="0.0e+00" purity="0.0e+00" nType="-99" /></Node></BinaryTree><BinaryTree type="DecisionTree" boostWeight="1.0e+00" itree="71"><Node pos="s" depth="0" NCoef="0" IVar="7" Cut="0.921817541" cType="1" res="0.0e+00" rms="0.0e+00" purity="0.0e+00" nType="0"><Node pos="l" depth="1" NCoef="0" IVar="-1" Cut="0.0e+00" cType="1" res="0.0380543768" rms="0.0e+00" purity="0.0e+00" nType="-99" /><Node pos="r" depth="1" NCoef="0" IVar="-1" Cut="0.0e+00" cType="1" res="-0.0325076394" rms="0.0e+00" purity="0.0e+00" nType="-99" /></Node></BinaryTree><BinaryTree type="DecisionTree" boostWeight="1.0e+00" itree="72"><Node pos="s" depth="0" NCoef="0" IVar="8" Cut="0.0185180008" cType="1" res="0.0e+00" rms="0.0e+00" purity="0.0e+00" nType="0"><Node pos="l" depth="1" NCoef="0" IVar="-1" Cut="0.0e+00" cType="1" res="-0.0348475203" rms="0.0e+00" purity="0.0e+00" nType="-99" /><Node pos="r" depth="1" NCoef="0" IVar="-1" Cut="0.0e+00" cType="1" res="0.0412190445" rms="0.0e+00" purity="0.0e+00" nType="-99" /></Node></BinaryTree><BinaryTree type="DecisionTree" boostWeight="1.0e+00" itree="73"><Node pos="s" depth="0" NCoef="0" IVar="5" Cut="0.560186028" cType="1" res="0.0e+00" rms="0.0e+00" purity="0.0e+00" nType="0"><Node pos="l" depth="1" NCoef="0" IVar="-1" Cut="0.0e+00" cType="1" res="0.0245927013" rms="0.0e+00" purity="0.0e+00" nType="-99" /><Node pos="r" depth="1" NCoef="0" IVar="-1" Cut="0.0e+00" cType="1" res="-0.0441254638" rms="0.0e+00" purity="0.0e+00" nType="-99" /></Node></BinaryTree><BinaryTree type="DecisionTree" boostWeight="1.0e+00" itree="74"><Node pos="s" depth="0" NCoef="0" IVar="4" Cut="0.149594992" cType="1" res="0.0e+00" rms="0.0e+00" purity="0.0e+00" nType="0"><Node pos="l" depth="1" NCoef="0" IVar="-1" Cut="0.0e+00" cType="1" res="0.0421493612" rms="0.0e+00" purity="0.0e+00" nType="-99" /><Node pos="r" depth="1" NCoef="0" IVar="-1" Cut="0.0e+00" cType="1" res="-0.0272168685" rms="0.0e+00" purity="0.0e+00" nType="-99" /></Node></BinaryTree><BinaryTree type="DecisionTree" boostWeight="1.0e+00" itree="75"><Node pos="s" depth="0" NCoef="0" IVar="13" Cut="311865.625" cType="1" res="0.0e+00" rms="0.0e+00" purity="0.0e+00" nType="0"><Node pos="l" depth="1" NCoef="0" IVar="-1" Cut="0.0e+00" cType="1" res="0.0331484787" rms="0.0e+00" purity="0.0e+00" nType="-99" /><Node pos="r" depth="1" NCoef="0" IVar="-1" Cut="0.0e+00" cType="1" res="-0.0402024537" rms="0.0e+00" purity="0.0e+00" nType="-99" /></Node></BinaryTree><BinaryTree type="DecisionTree" boostWeight="1.0e+00" itree="76"><Node pos="s" depth="0" NCoef="0" IVar="20" Cut="0.0760314986" cType="1" res="0.0e+00" rms="0.0e+00" purity="0.0e+00" nType="0"><Node pos="l" depth="1" NCoef="0" IVar="-1" Cut="0.0e+00" cType="1" res="-0.039360866" rms="0.0e+00" purity="0.0e+00" nType="-99" /><Node pos="r" depth="1" NCoef="0" IVar="-1" Cut="0.0e+00" cType="1" res="0.0270265713" rms="0.0e+00" purity="0.0e+00" nType="-99" /></Node></BinaryTree><BinaryTree type="DecisionTree" boostWeight="1.0e+00" itree="77"><Node pos="s" depth="0" NCoef="0" IVar="7" Cut="0.946264505" cType="1" res="0.0e+00" rms="0.0e+00" purity="0.0e+00" nType="0"><Node pos="l" depth="1" NCoef="0" IVar="-1" Cut="0.0e+00" cType="1" res="0.0334241837" rms="0.0e+00" purity="0.0e+00" nType="-99" /><Node pos="r" depth="1" NCoef="0" IVar="-1" Cut="0.0e+00" cType="1" res="-0.0366313718" rms="0.0e+00" purity="0.0e+00" nType="-99" /></Node></BinaryTree><BinaryTree type="DecisionTree" boostWeight="1.0e+00" itree="78"><Node pos="s" depth="0" NCoef="0" IVar="8" Cut="0.0185180008" cType="1" res="0.0e+00" rms="0.0e+00" purity="0.0e+00" nType="0"><Node pos="l" depth="1" NCoef="0" IVar="-1" Cut="0.0e+00" cType="1" res="-0.0337406211" rms="0.0e+00" purity="0.0e+00" nType="-99" /><Node pos="r" depth="1" NCoef="0" IVar="-1" Cut="0.0e+00" cType="1" res="0.0409172289" rms="0.0e+00" purity="0.0e+00" nType="-99" /></Node></BinaryTree><BinaryTree type="DecisionTree" boostWeight="1.0e+00" itree="79"><Node pos="s" depth="0" NCoef="0" IVar="4" Cut="0.152349502" cType="1" res="0.0e+00" rms="0.0e+00" purity="0.0e+00" nType="0"><Node pos="l" depth="1" NCoef="0" IVar="-1" Cut="0.0e+00" cType="1" res="-0.0406263433" rms="0.0e+00" purity="0.0e+00" nType="-99" /><Node pos="r" depth="1" NCoef="0" IVar="-1" Cut="0.0e+00" cType="1" res="0.0251338333" rms="0.0e+00" purity="0.0e+00" nType="-99" /></Node></BinaryTree><BinaryTree type="DecisionTree" boostWeight="1.0e+00" itree="80"><Node pos="s" depth="0" NCoef="0" IVar="8" Cut="0.0184535012" cType="1" res="0.0e+00" rms="0.0e+00" purity="0.0e+00" nType="0"><Node pos="l" depth="1" NCoef="0" IVar="-1" Cut="0.0e+00" cType="1" res="0.0338337757" rms="0.0e+00" purity="0.0e+00" nType="-99" /><Node pos="r" depth="1" NCoef="0" IVar="-1" Cut="0.0e+00" cType="1" res="-0.033880163" rms="0.0e+00" purity="0.0e+00" nType="-99" /></Node></BinaryTree><BinaryTree type="DecisionTree" boostWeight="1.0e+00" itree="81"><Node pos="s" depth="0" NCoef="0" IVar="8" Cut="0.0185180008" cType="1" res="0.0e+00" rms="0.0e+00" purity="0.0e+00" nType="0"><Node pos="l" depth="1" NCoef="0" IVar="-1" Cut="0.0e+00" cType="1" res="-0.030190289" rms="0.0e+00" purity="0.0e+00" nType="-99" /><Node pos="r" depth="1" NCoef="0" IVar="-1" Cut="0.0e+00" cType="1" res="0.036358308" rms="0.0e+00" purity="0.0e+00" nType="-99" /></Node></BinaryTree><BinaryTree type="DecisionTree" boostWeight="1.0e+00" itree="82"><Node pos="s" depth="0" NCoef="0" IVar="7" Cut="0.946264505" cType="1" res="0.0e+00" rms="0.0e+00" purity="0.0e+00" nType="0"><Node pos="l" depth="1" NCoef="0" IVar="-1" Cut="0.0e+00" cType="1" res="-0.0353001915" rms="0.0e+00" purity="0.0e+00" nType="-99" /><Node pos="r" depth="1" NCoef="0" IVar="-1" Cut="0.0e+00" cType="1" res="0.0269742981" rms="0.0e+00" purity="0.0e+00" nType="-99" /></Node></BinaryTree><BinaryTree type="DecisionTree" boostWeight="1.0e+00" itree="83"><Node pos="s" depth="0" NCoef="0" IVar="2" Cut="1.64043951" cType="1" res="0.0e+00" rms="0.0e+00" purity="0.0e+00" nType="0"><Node pos="l" depth="1" NCoef="0" IVar="-1" Cut="0.0e+00" cType="1" res="0.0339983553" rms="0.0e+00" purity="0.0e+00" nType="-99" /><Node pos="r" depth="1" NCoef="0" IVar="-1" Cut="0.0e+00" cType="1" res="-0.0350486636" rms="0.0e+00" purity="0.0e+00" nType="-99" /></Node></BinaryTree><BinaryTree type="DecisionTree" boostWeight="1.0e+00" itree="84"><Node pos="s" depth="0" NCoef="0" IVar="0" Cut="1.74346054" cType="1" res="0.0e+00" rms="0.0e+00" purity="0.0e+00" nType="0"><Node pos="l" depth="1" NCoef="0" IVar="-1" Cut="0.0e+00" cType="1" res="-0.0288479701" rms="0.0e+00" purity="0.0e+00" nType="-99" /><Node pos="r" depth="1" NCoef="0" IVar="-1" Cut="0.0e+00" cType="1" res="0.0362758934" rms="0.0e+00" purity="0.0e+00" nType="-99" /></Node></BinaryTree><BinaryTree type="DecisionTree" boostWeight="1.0e+00" itree="85"><Node pos="s" depth="0" NCoef="0" IVar="4" Cut="0.152349502" cType="1" res="0.0e+00" rms="0.0e+00" purity="0.0e+00" nType="0"><Node pos="l" depth="1" NCoef="0" IVar="-1" Cut="0.0e+00" cType="1" res="-0.0383065045" rms="0.0e+00" purity="0.0e+00" nType="-99" /><Node pos="r" depth="1" NCoef="0" IVar="-1" Cut="0.0e+00" cType="1" res="0.0249770805" rms="0.0e+00" purity="0.0e+00" nType="-99" /></Node></BinaryTree><BinaryTree type="DecisionTree" boostWeight="1.0e+00" itree="86"><Node pos="s" depth="0" NCoef="0" IVar="7" Cut="0.921817541" cType="1" res="0.0e+00" rms="0.0e+00" purity="0.0e+00" nType="0"><Node pos="l" depth="1" NCoef="0" IVar="-1" Cut="0.0e+00" cType="1" res="0.0318743028" rms="0.0e+00" purity="0.0e+00" nType="-99" /><Node pos="r" depth="1" NCoef="0" IVar="-1" Cut="0.0e+00" cType="1" res="-0.0322733968" rms="0.0e+00" purity="0.0e+00" nType="-99" /></Node></BinaryTree><BinaryTree type="DecisionTree" boostWeight="1.0e+00" itree="87"><Node pos="s" depth="0" NCoef="0" IVar="8" Cut="0.0185180008" cType="1" res="0.0e+00" rms="0.0e+00" purity="0.0e+00" nType="0"><Node pos="l" depth="1" NCoef="0" IVar="-1" Cut="0.0e+00" cType="1" res="-0.0286728684" rms="0.0e+00" purity="0.0e+00" nType="-99" /><Node pos="r" depth="1" NCoef="0" IVar="-1" Cut="0.0e+00" cType="1" res="0.036352288" rms="0.0e+00" purity="0.0e+00" nType="-99" /></Node></BinaryTree><BinaryTree type="DecisionTree" boostWeight="1.0e+00" itree="88"><Node pos="s" depth="0" NCoef="0" IVar="20" Cut="0.0760314986" cType="1" res="0.0e+00" rms="0.0e+00" purity="0.0e+00" nType="0"><Node pos="l" depth="1" NCoef="0" IVar="-1" Cut="0.0e+00" cType="1" res="-0.0338026956" rms="0.0e+00" purity="0.0e+00" nType="-99" /><Node pos="r" depth="1" NCoef="0" IVar="-1" Cut="0.0e+00" cType="1" res="0.0258499105" rms="0.0e+00" purity="0.0e+00" nType="-99" /></Node></BinaryTree><BinaryTree type="DecisionTree" boostWeight="1.0e+00" itree="89"><Node pos="s" depth="0" NCoef="0" IVar="4" Cut="0.149594992" cType="1" res="0.0e+00" rms="0.0e+00" purity="0.0e+00" nType="0"><Node pos="l" depth="1" NCoef="0" IVar="-1" Cut="0.0e+00" cType="1" res="0.0351781435" rms="0.0e+00" purity="0.0e+00" nType="-99" /><Node pos="r" depth="1" NCoef="0" IVar="-1" Cut="0.0e+00" cType="1" res="-0.0270371847" rms="0.0e+00" purity="0.0e+00" nType="-99" /></Node></BinaryTree><BinaryTree type="DecisionTree" boostWeight="1.0e+00" itree="90"><Node pos="s" depth="0" NCoef="0" IVar="0" Cut="1.74346054" cType="1" res="0.0e+00" rms="0.0e+00" purity="0.0e+00" nType="0"><Node pos="l" depth="1" NCoef="0" IVar="-1" Cut="0.0e+00" cType="1" res="-0.026722623" rms="0.0e+00" purity="0.0e+00" nType="-99" /><Node pos="r" depth="1" NCoef="0" IVar="-1" Cut="0.0e+00" cType="1" res="0.0346629582" rms="0.0e+00" purity="0.0e+00" nType="-99" /></Node></BinaryTree><BinaryTree type="DecisionTree" boostWeight="1.0e+00" itree="91"><Node pos="s" depth="0" NCoef="0" IVar="13" Cut="421320" cType="1" res="0.0e+00" rms="0.0e+00" purity="0.0e+00" nType="0"><Node pos="l" depth="1" NCoef="0" IVar="-1" Cut="0.0e+00" cType="1" res="-0.0315333754" rms="0.0e+00" purity="0.0e+00" nType="-99" /><Node pos="r" depth="1" NCoef="0" IVar="-1" Cut="0.0e+00" cType="1" res="0.0280425493" rms="0.0e+00" purity="0.0e+00" nType="-99" /></Node></BinaryTree><BinaryTree type="DecisionTree" boostWeight="1.0e+00" itree="92"><Node pos="s" depth="0" NCoef="0" IVar="7" Cut="0.921817541" cType="1" res="0.0e+00" rms="0.0e+00" purity="0.0e+00" nType="0"><Node pos="l" depth="1" NCoef="0" IVar="-1" Cut="0.0e+00" cType="1" res="0.030203199" rms="0.0e+00" purity="0.0e+00" nType="-99" /><Node pos="r" depth="1" NCoef="0" IVar="-1" Cut="0.0e+00" cType="1" res="-0.0319130309" rms="0.0e+00" purity="0.0e+00" nType="-99" /></Node></BinaryTree><BinaryTree type="DecisionTree" boostWeight="1.0e+00" itree="93"><Node pos="s" depth="0" NCoef="0" IVar="8" Cut="0.0185180008" cType="1" res="0.0e+00" rms="0.0e+00" purity="0.0e+00" nType="0"><Node pos="l" depth="1" NCoef="0" IVar="-1" Cut="0.0e+00" cType="1" res="-0.0280027073" rms="0.0e+00" purity="0.0e+00" nType="-99" /><Node pos="r" depth="1" NCoef="0" IVar="-1" Cut="0.0e+00" cType="1" res="0.0358630307" rms="0.0e+00" purity="0.0e+00" nType="-99" /></Node></BinaryTree><BinaryTree type="DecisionTree" boostWeight="1.0e+00" itree="94"><Node pos="s" depth="0" NCoef="0" IVar="20" Cut="0.0760314986" cType="1" res="0.0e+00" rms="0.0e+00" purity="0.0e+00" nType="0"><Node pos="l" depth="1" NCoef="0" IVar="-1" Cut="0.0e+00" cType="1" res="-0.0312652215" rms="0.0e+00" purity="0.0e+00" nType="-99" /><Node pos="r" depth="1" NCoef="0" IVar="-1" Cut="0.0e+00" cType="1" res="0.0241627265" rms="0.0e+00" purity="0.0e+00" nType="-99" /></Node></BinaryTree><BinaryTree type="DecisionTree" boostWeight="1.0e+00" itree="95"><Node pos="s" depth="0" NCoef="0" IVar="8" Cut="0.0184535012" cType="1" res="0.0e+00" rms="0.0e+00" purity="0.0e+00" nType="0"><Node pos="l" depth="1" NCoef="0" IVar="-1" Cut="0.0e+00" cType="1" res="0.0288654137" rms="0.0e+00" purity="0.0e+00" nType="-99" /><Node pos="r" depth="1" NCoef="0" IVar="-1" Cut="0.0e+00" cType="1" res="-0.0322019085" rms="0.0e+00" purity="0.0e+00" nType="-99" /></Node></BinaryTree><BinaryTree type="DecisionTree" boostWeight="1.0e+00" itree="96"><Node pos="s" depth="0" NCoef="0" IVar="2" Cut="1.63466203" cType="1" res="0.0e+00" rms="0.0e+00" purity="0.0e+00" nType="0"><Node pos="l" depth="1" NCoef="0" IVar="-1" Cut="0.0e+00" cType="1" res="-0.0223759431" rms="0.0e+00" purity="0.0e+00" nType="-99" /><Node pos="r" depth="1" NCoef="0" IVar="-1" Cut="0.0e+00" cType="1" res="0.0275650527" rms="0.0e+00" purity="0.0e+00" nType="-99" /></Node></BinaryTree><BinaryTree type="DecisionTree" boostWeight="1.0e+00" itree="97"><Node pos="s" depth="0" NCoef="0" IVar="7" Cut="0.946264505" cType="1" res="0.0e+00" rms="0.0e+00" purity="0.0e+00" nType="0"><Node pos="l" depth="1" NCoef="0" IVar="-1" Cut="0.0e+00" cType="1" res="-0.0292341132" rms="0.0e+00" purity="0.0e+00" nType="-99" /><Node pos="r" depth="1" NCoef="0" IVar="-1" Cut="0.0e+00" cType="1" res="0.0242013633" rms="0.0e+00" purity="0.0e+00" nType="-99" /></Node></BinaryTree><BinaryTree type="DecisionTree" boostWeight="1.0e+00" itree="98"><Node pos="s" depth="0" NCoef="0" IVar="12" Cut="768" cType="1" res="0.0e+00" rms="0.0e+00" purity="0.0e+00" nType="0"><Node pos="l" depth="1" NCoef="0" IVar="-1" Cut="0.0e+00" cType="1" res="-0.0305833817" rms="0.0e+00" purity="0.0e+00" nType="-99" /><Node pos="r" depth="1" NCoef="0" IVar="-1" Cut="0.0e+00" cType="1" res="0.032267306" rms="0.0e+00" purity="0.0e+00" nType="-99" /></Node></BinaryTree><BinaryTree type="DecisionTree" boostWeight="1.0e+00" itree="99"><Node pos="s" depth="0" NCoef="0" IVar="13" Cut="227453.281" cType="1" res="0.0e+00" rms="0.0e+00" purity="0.0e+00" nType="0"><Node pos="l" depth="1" NCoef="0" IVar="-1" Cut="0.0e+00" cType="1" res="0.0271914732" rms="0.0e+00" purity="0.0e+00" nType="-99" /><Node pos="r" depth="1" NCoef="0" IVar="-1" Cut="0.0e+00" cType="1" res="-0.0217121318" rms="0.0e+00" purity="0.0e+00" nType="-99" /></Node></BinaryTree><BinaryTree type="DecisionTree" boostWeight="1.0e+00" itree="100"><Node pos="s" depth="0" NCoef="0" IVar="20" Cut="0.0760314986" cType="1" res="0.0e+00" rms="0.0e+00" purity="0.0e+00" nType="0"><Node pos="l" depth="1" NCoef="0" IVar="-1" Cut="0.0e+00" cType="1" res="-0.0292045772" rms="0.0e+00" purity="0.0e+00" nType="-99" /><Node pos="r" depth="1" NCoef="0" IVar="-1" Cut="0.0e+00" cType="1" res="0.0234579686" rms="0.0e+00" purity="0.0e+00" nType="-99" /></Node></BinaryTree><BinaryTree type="DecisionTree" boostWeight="1.0e+00" itree="101"><Node pos="s" depth="0" NCoef="0" IVar="4" Cut="0.149594992" cType="1" res="0.0e+00" rms="0.0e+00" purity="0.0e+00" nType="0"><Node pos="l" depth="1" NCoef="0" IVar="-1" Cut="0.0e+00" cType="1" res="0.0333315656" rms="0.0e+00" purity="0.0e+00" nType="-99" /><Node pos="r" depth="1" NCoef="0" IVar="-1" Cut="0.0e+00" cType="1" res="-0.0279940441" rms="0.0e+00" purity="0.0e+00" nType="-99" /></Node></BinaryTree><BinaryTree type="DecisionTree" boostWeight="1.0e+00" itree="102"><Node pos="s" depth="0" NCoef="0" IVar="2" Cut="1.63466203" cType="1" res="0.0e+00" rms="0.0e+00" purity="0.0e+00" nType="0"><Node pos="l" depth="1" NCoef="0" IVar="-1" Cut="0.0e+00" cType="1" res="-0.0204894617" rms="0.0e+00" purity="0.0e+00" nType="-99" /><Node pos="r" depth="1" NCoef="0" IVar="-1" Cut="0.0e+00" cType="1" res="0.0257890001" rms="0.0e+00" purity="0.0e+00" nType="-99" /></Node></BinaryTree><BinaryTree type="DecisionTree" boostWeight="1.0e+00" itree="103"><Node pos="s" depth="0" NCoef="0" IVar="7" Cut="0.946264505" cType="1" res="0.0e+00" rms="0.0e+00" purity="0.0e+00" nType="0"><Node pos="l" depth="1" NCoef="0" IVar="-1" Cut="0.0e+00" cType="1" res="-0.0276755895" rms="0.0e+00" purity="0.0e+00" nType="-99" /><Node pos="r" depth="1" NCoef="0" IVar="-1" Cut="0.0e+00" cType="1" res="0.0231272019" rms="0.0e+00" purity="0.0e+00" nType="-99" /></Node></BinaryTree><BinaryTree type="DecisionTree" boostWeight="1.0e+00" itree="104"><Node pos="s" depth="0" NCoef="0" IVar="21" Cut="0.167413503" cType="1" res="0.0e+00" rms="0.0e+00" purity="0.0e+00" nType="0"><Node pos="l" depth="1" NCoef="0" IVar="-1" Cut="0.0e+00" cType="1" res="-0.0279322285" rms="0.0e+00" purity="0.0e+00" nType="-99" /><Node pos="r" depth="1" NCoef="0" IVar="-1" Cut="0.0e+00" cType="1" res="0.0332402959" rms="0.0e+00" purity="0.0e+00" nType="-99" /></Node></BinaryTree><BinaryTree type="DecisionTree" boostWeight="1.0e+00" itree="105"><Node pos="s" depth="0" NCoef="0" IVar="13" Cut="227453.281" cType="1" res="0.0e+00" rms="0.0e+00" purity="0.0e+00" nType="0"><Node pos="l" depth="1" NCoef="0" IVar="-1" Cut="0.0e+00" cType="1" res="0.0253511406" rms="0.0e+00" purity="0.0e+00" nType="-99" /><Node pos="r" depth="1" NCoef="0" IVar="-1" Cut="0.0e+00" cType="1" res="-0.0198333245" rms="0.0e+00" purity="0.0e+00" nType="-99" /></Node></BinaryTree><BinaryTree type="DecisionTree" boostWeight="1.0e+00" itree="106"><Node pos="s" depth="0" NCoef="0" IVar="20" Cut="0.0760314986" cType="1" res="0.0e+00" rms="0.0e+00" purity="0.0e+00" nType="0"><Node pos="l" depth="1" NCoef="0" IVar="-1" Cut="0.0e+00" cType="1" res="-0.0273651052" rms="0.0e+00" purity="0.0e+00" nType="-99" /><Node pos="r" depth="1" NCoef="0" IVar="-1" Cut="0.0e+00" cType="1" res="0.0217175651" rms="0.0e+00" purity="0.0e+00" nType="-99" /></Node></BinaryTree><BinaryTree type="DecisionTree" boostWeight="1.0e+00" itree="107"><Node pos="s" depth="0" NCoef="0" IVar="8" Cut="0.0184535012" cType="1" res="0.0e+00" rms="0.0e+00" purity="0.0e+00" nType="0"><Node pos="l" depth="1" NCoef="0" IVar="-1" Cut="0.0e+00" cType="1" res="0.0281744357" rms="0.0e+00" purity="0.0e+00" nType="-99" /><Node pos="r" depth="1" NCoef="0" IVar="-1" Cut="0.0e+00" cType="1" res="-0.0326640382" rms="0.0e+00" purity="0.0e+00" nType="-99" /></Node></BinaryTree><BinaryTree type="DecisionTree" boostWeight="1.0e+00" itree="108"><Node pos="s" depth="0" NCoef="0" IVar="2" Cut="1.63466203" cType="1" res="0.0e+00" rms="0.0e+00" purity="0.0e+00" nType="0"><Node pos="l" depth="1" NCoef="0" IVar="-1" Cut="0.0e+00" cType="1" res="-0.0193933696" rms="0.0e+00" purity="0.0e+00" nType="-99" /><Node pos="r" depth="1" NCoef="0" IVar="-1" Cut="0.0e+00" cType="1" res="0.0243762322" rms="0.0e+00" purity="0.0e+00" nType="-99" /></Node></BinaryTree><BinaryTree type="DecisionTree" boostWeight="1.0e+00" itree="109"><Node pos="s" depth="0" NCoef="0" IVar="7" Cut="0.946264505" cType="1" res="0.0e+00" rms="0.0e+00" purity="0.0e+00" nType="0"><Node pos="l" depth="1" NCoef="0" IVar="-1" Cut="0.0e+00" cType="1" res="-0.0258150361" rms="0.0e+00" purity="0.0e+00" nType="-99" /><Node pos="r" depth="1" NCoef="0" IVar="-1" Cut="0.0e+00" cType="1" res="0.0223103203" rms="0.0e+00" purity="0.0e+00" nType="-99" /></Node></BinaryTree><BinaryTree type="DecisionTree" boostWeight="1.0e+00" itree="110"><Node pos="s" depth="0" NCoef="0" IVar="4" Cut="0.149594992" cType="1" res="0.0e+00" rms="0.0e+00" purity="0.0e+00" nType="0"><Node pos="l" depth="1" NCoef="0" IVar="-1" Cut="0.0e+00" cType="1" res="0.0317895263" rms="0.0e+00" purity="0.0e+00" nType="-99" /><Node pos="r" depth="1" NCoef="0" IVar="-1" Cut="0.0e+00" cType="1" res="-0.0276328977" rms="0.0e+00" purity="0.0e+00" nType="-99" /></Node></BinaryTree><BinaryTree type="DecisionTree" boostWeight="1.0e+00" itree="111"><Node pos="s" depth="0" NCoef="0" IVar="8" Cut="0.018486999" cType="1" res="0.0e+00" rms="0.0e+00" purity="0.0e+00" nType="0"><Node pos="l" depth="1" NCoef="0" IVar="-1" Cut="0.0e+00" cType="1" res="-0.0199843198" rms="0.0e+00" purity="0.0e+00" nType="-99" /><Node pos="r" depth="1" NCoef="0" IVar="-1" Cut="0.0e+00" cType="1" res="0.0239601582" rms="0.0e+00" purity="0.0e+00" nType="-99" /></Node></BinaryTree><BinaryTree type="DecisionTree" boostWeight="1.0e+00" itree="112"><Node pos="s" depth="0" NCoef="0" IVar="7" Cut="0.946264505" cType="1" res="0.0e+00" rms="0.0e+00" purity="0.0e+00" nType="0"><Node pos="l" depth="1" NCoef="0" IVar="-1" Cut="0.0e+00" cType="1" res="-0.0248791967" rms="0.0e+00" purity="0.0e+00" nType="-99" /><Node pos="r" depth="1" NCoef="0" IVar="-1" Cut="0.0e+00" cType="1" res="0.0215863604" rms="0.0e+00" purity="0.0e+00" nType="-99" /></Node></BinaryTree><BinaryTree type="DecisionTree" boostWeight="1.0e+00" itree="113"><Node pos="s" depth="0" NCoef="0" IVar="21" Cut="0.167413503" cType="1" res="0.0e+00" rms="0.0e+00" purity="0.0e+00" nType="0"><Node pos="l" depth="1" NCoef="0" IVar="-1" Cut="0.0e+00" cType="1" res="-0.0269692745" rms="0.0e+00" purity="0.0e+00" nType="-99" /><Node pos="r" depth="1" NCoef="0" IVar="-1" Cut="0.0e+00" cType="1" res="0.031429965" rms="0.0e+00" purity="0.0e+00" nType="-99" /></Node></BinaryTree><BinaryTree type="DecisionTree" boostWeight="1.0e+00" itree="114"><Node pos="s" depth="0" NCoef="0" IVar="13" Cut="227453.281" cType="1" res="0.0e+00" rms="0.0e+00" purity="0.0e+00" nType="0"><Node pos="l" depth="1" NCoef="0" IVar="-1" Cut="0.0e+00" cType="1" res="0.0250103436" rms="0.0e+00" purity="0.0e+00" nType="-99" /><Node pos="r" depth="1" NCoef="0" IVar="-1" Cut="0.0e+00" cType="1" res="-0.0201246999" rms="0.0e+00" purity="0.0e+00" nType="-99" /></Node></BinaryTree><BinaryTree type="DecisionTree" boostWeight="1.0e+00" itree="115"><Node pos="s" depth="0" NCoef="0" IVar="23" Cut="0.106878996" cType="1" res="0.0e+00" rms="0.0e+00" purity="0.0e+00" nType="0"><Node pos="l" depth="1" NCoef="0" IVar="-1" Cut="0.0e+00" cType="1" res="-0.0252451133" rms="0.0e+00" purity="0.0e+00" nType="-99" /><Node pos="r" depth="1" NCoef="0" IVar="-1" Cut="0.0e+00" cType="1" res="0.0213669632" rms="0.0e+00" purity="0.0e+00" nType="-99" /></Node></BinaryTree><BinaryTree type="DecisionTree" boostWeight="1.0e+00" itree="116"><Node pos="s" depth="0" NCoef="0" IVar="8" Cut="0.0184535012" cType="1" res="0.0e+00" rms="0.0e+00" purity="0.0e+00" nType="0"><Node pos="l" depth="1" NCoef="0" IVar="-1" Cut="0.0e+00" cType="1" res="0.0270183589" rms="0.0e+00" purity="0.0e+00" nType="-99" /><Node pos="r" depth="1" NCoef="0" IVar="-1" Cut="0.0e+00" cType="1" res="-0.0318871513" rms="0.0e+00" purity="0.0e+00" nType="-99" /></Node></BinaryTree><BinaryTree type="DecisionTree" boostWeight="1.0e+00" itree="117"><Node pos="s" depth="0" NCoef="0" IVar="2" Cut="1.62952948" cType="1" res="0.0e+00" rms="0.0e+00" purity="0.0e+00" nType="0"><Node pos="l" depth="1" NCoef="0" IVar="-1" Cut="0.0e+00" cType="1" res="-0.0192808639" rms="0.0e+00" purity="0.0e+00" nType="-99" /><Node pos="r" depth="1" NCoef="0" IVar="-1" Cut="0.0e+00" cType="1" res="0.0234366152" rms="0.0e+00" purity="0.0e+00" nType="-99" /></Node></BinaryTree><BinaryTree type="DecisionTree" boostWeight="1.0e+00" itree="118"><Node pos="s" depth="0" NCoef="0" IVar="20" Cut="0.0760314986" cType="1" res="0.0e+00" rms="0.0e+00" purity="0.0e+00" nType="0"><Node pos="l" depth="1" NCoef="0" IVar="-1" Cut="0.0e+00" cType="1" res="-0.0252213459" rms="0.0e+00" purity="0.0e+00" nType="-99" /><Node pos="r" depth="1" NCoef="0" IVar="-1" Cut="0.0e+00" cType="1" res="0.0217977241" rms="0.0e+00" purity="0.0e+00" nType="-99" /></Node></BinaryTree><BinaryTree type="DecisionTree" boostWeight="1.0e+00" itree="119"><Node pos="s" depth="0" NCoef="0" IVar="4" Cut="0.149594992" cType="1" res="0.0e+00" rms="0.0e+00" purity="0.0e+00" nType="0"><Node pos="l" depth="1" NCoef="0" IVar="-1" Cut="0.0e+00" cType="1" res="0.0303312968" rms="0.0e+00" purity="0.0e+00" nType="-99" /><Node pos="r" depth="1" NCoef="0" IVar="-1" Cut="0.0e+00" cType="1" res="-0.0271879286" rms="0.0e+00" purity="0.0e+00" nType="-99" /></Node></BinaryTree><BinaryTree type="DecisionTree" boostWeight="1.0e+00" itree="120"><Node pos="s" depth="0" NCoef="0" IVar="8" Cut="0.018486999" cType="1" res="0.0e+00" rms="0.0e+00" purity="0.0e+00" nType="0"><Node pos="l" depth="1" NCoef="0" IVar="-1" Cut="0.0e+00" cType="1" res="-0.0193757936" rms="0.0e+00" purity="0.0e+00" nType="-99" /><Node pos="r" depth="1" NCoef="0" IVar="-1" Cut="0.0e+00" cType="1" res="0.0228794608" rms="0.0e+00" purity="0.0e+00" nType="-99" /></Node></BinaryTree><BinaryTree type="DecisionTree" boostWeight="1.0e+00" itree="121"><Node pos="s" depth="0" NCoef="0" IVar="20" Cut="0.0760314986" cType="1" res="0.0e+00" rms="0.0e+00" purity="0.0e+00" nType="0"><Node pos="l" depth="1" NCoef="0" IVar="-1" Cut="0.0e+00" cType="1" res="-0.0238665026" rms="0.0e+00" purity="0.0e+00" nType="-99" /><Node pos="r" depth="1" NCoef="0" IVar="-1" Cut="0.0e+00" cType="1" res="0.0203842297" rms="0.0e+00" purity="0.0e+00" nType="-99" /></Node></BinaryTree><BinaryTree type="DecisionTree" boostWeight="1.0e+00" itree="122"><Node pos="s" depth="0" NCoef="0" IVar="21" Cut="0.167413503" cType="1" res="0.0e+00" rms="0.0e+00" purity="0.0e+00" nType="0"><Node pos="l" depth="1" NCoef="0" IVar="-1" Cut="0.0e+00" cType="1" res="-0.0265514646" rms="0.0e+00" purity="0.0e+00" nType="-99" /><Node pos="r" depth="1" NCoef="0" IVar="-1" Cut="0.0e+00" cType="1" res="0.0308115594" rms="0.0e+00" purity="0.0e+00" nType="-99" /></Node></BinaryTree><BinaryTree type="DecisionTree" boostWeight="1.0e+00" itree="123"><Node pos="s" depth="0" NCoef="0" IVar="8" Cut="0.018486999" cType="1" res="0.0e+00" rms="0.0e+00" purity="0.0e+00" nType="0"><Node pos="l" depth="1" NCoef="0" IVar="-1" Cut="0.0e+00" cType="1" res="-0.0187139753" rms="0.0e+00" purity="0.0e+00" nType="-99" /><Node pos="r" depth="1" NCoef="0" IVar="-1" Cut="0.0e+00" cType="1" res="0.0225284025" rms="0.0e+00" purity="0.0e+00" nType="-99" /></Node></BinaryTree><BinaryTree type="DecisionTree" boostWeight="1.0e+00" itree="124"><Node pos="s" depth="0" NCoef="0" IVar="20" Cut="0.0760314986" cType="1" res="0.0e+00" rms="0.0e+00" purity="0.0e+00" nType="0"><Node pos="l" depth="1" NCoef="0" IVar="-1" Cut="0.0e+00" cType="1" res="-0.0230806917" rms="0.0e+00" purity="0.0e+00" nType="-99" /><Node pos="r" depth="1" NCoef="0" IVar="-1" Cut="0.0e+00" cType="1" res="0.0190012008" rms="0.0e+00" purity="0.0e+00" nType="-99" /></Node></BinaryTree><BinaryTree type="DecisionTree" boostWeight="1.0e+00" itree="125"><Node pos="s" depth="0" NCoef="0" IVar="9" Cut="0.00295849983" cType="1" res="0.0e+00" rms="0.0e+00" purity="0.0e+00" nType="0"><Node pos="l" depth="1" NCoef="0" IVar="-1" Cut="0.0e+00" cType="1" res="0.0312781744" rms="0.0e+00" purity="0.0e+00" nType="-99" /><Node pos="r" depth="1" NCoef="0" IVar="-1" Cut="0.0e+00" cType="1" res="-0.0256155953" rms="0.0e+00" purity="0.0e+00" nType="-99" /></Node></BinaryTree><BinaryTree type="DecisionTree" boostWeight="1.0e+00" itree="126"><Node pos="s" depth="0" NCoef="0" IVar="2" Cut="1.58247757" cType="1" res="0.0e+00" rms="0.0e+00" purity="0.0e+00" nType="0"><Node pos="l" depth="1" NCoef="0" IVar="-1" Cut="0.0e+00" cType="1" res="-0.0186091438" rms="0.0e+00" purity="0.0e+00" nType="-99" /><Node pos="r" depth="1" NCoef="0" IVar="-1" Cut="0.0e+00" cType="1" res="0.0211013686" rms="0.0e+00" purity="0.0e+00" nType="-99" /></Node></BinaryTree><BinaryTree type="DecisionTree" boostWeight="1.0e+00" itree="127"><Node pos="s" depth="0" NCoef="0" IVar="7" Cut="0.929826498" cType="1" res="0.0e+00" rms="0.0e+00" purity="0.0e+00" nType="0"><Node pos="l" depth="1" NCoef="0" IVar="-1" Cut="0.0e+00" cType="1" res="-0.0203351118" rms="0.0e+00" purity="0.0e+00" nType="-99" /><Node pos="r" depth="1" NCoef="0" IVar="-1" Cut="0.0e+00" cType="1" res="0.0172823593" rms="0.0e+00" purity="0.0e+00" nType="-99" /></Node></BinaryTree><BinaryTree type="DecisionTree" boostWeight="1.0e+00" itree="128"><Node pos="s" depth="0" NCoef="0" IVar="21" Cut="0.167413503" cType="1" res="0.0e+00" rms="0.0e+00" purity="0.0e+00" nType="0"><Node pos="l" depth="1" NCoef="0" IVar="-1" Cut="0.0e+00" cType="1" res="-0.0265792571" rms="0.0e+00" purity="0.0e+00" nType="-99" /><Node pos="r" depth="1" NCoef="0" IVar="-1" Cut="0.0e+00" cType="1" res="0.0313167758" rms="0.0e+00" purity="0.0e+00" nType="-99" /></Node></BinaryTree><BinaryTree type="DecisionTree" boostWeight="1.0e+00" itree="129"><Node pos="s" depth="0" NCoef="0" IVar="2" Cut="1.58247757" cType="1" res="0.0e+00" rms="0.0e+00" purity="0.0e+00" nType="0"><Node pos="l" depth="1" NCoef="0" IVar="-1" Cut="0.0e+00" cType="1" res="-0.0166659653" rms="0.0e+00" purity="0.0e+00" nType="-99" /><Node pos="r" depth="1" NCoef="0" IVar="-1" Cut="0.0e+00" cType="1" res="0.0194816999" rms="0.0e+00" purity="0.0e+00" nType="-99" /></Node></BinaryTree><BinaryTree type="DecisionTree" boostWeight="1.0e+00" itree="130"><Node pos="s" depth="0" NCoef="0" IVar="-1" Cut="0.0e+00" cType="1" res="-0.00246437383" rms="0.0e+00" purity="0.0e+00" nType="-99" /></BinaryTree><BinaryTree type="DecisionTree" boostWeight="1.0e+00" itree="131"><Node pos="s" depth="0" NCoef="0" IVar="4" Cut="0.149594992" cType="1" res="0.0e+00" rms="0.0e+00" purity="0.0e+00" nType="0"><Node pos="l" depth="1" NCoef="0" IVar="-1" Cut="0.0e+00" cType="1" res="0.030434709" rms="0.0e+00" purity="0.0e+00" nType="-99" /><Node pos="r" depth="1" NCoef="0" IVar="-1" Cut="0.0e+00" cType="1" res="-0.0269040447" rms="0.0e+00" purity="0.0e+00" nType="-99" /></Node></BinaryTree><BinaryTree type="DecisionTree" boostWeight="1.0e+00" itree="132"><Node pos="s" depth="0" NCoef="0" IVar="2" Cut="1.58247757" cType="1" res="0.0e+00" rms="0.0e+00" purity="0.0e+00" nType="0"><Node pos="l" depth="1" NCoef="0" IVar="-1" Cut="0.0e+00" cType="1" res="-0.0156762581" rms="0.0e+00" purity="0.0e+00" nType="-99" /><Node pos="r" depth="1" NCoef="0" IVar="-1" Cut="0.0e+00" cType="1" res="0.01818523" rms="0.0e+00" purity="0.0e+00" nType="-99" /></Node></BinaryTree><BinaryTree type="DecisionTree" boostWeight="1.0e+00" itree="133"><Node pos="s" depth="0" NCoef="0" IVar="-1" Cut="0.0e+00" cType="1" res="-0.00233267224" rms="0.0e+00" purity="0.0e+00" nType="-99" /></BinaryTree><BinaryTree type="DecisionTree" boostWeight="1.0e+00" itree="134"><Node pos="s" depth="0" NCoef="0" IVar="12" Cut="768" cType="1" res="0.0e+00" rms="0.0e+00" purity="0.0e+00" nType="0"><Node pos="l" depth="1" NCoef="0" IVar="-1" Cut="0.0e+00" cType="1" res="-0.0273155216" rms="0.0e+00" purity="0.0e+00" nType="-99" /><Node pos="r" depth="1" NCoef="0" IVar="-1" Cut="0.0e+00" cType="1" res="0.0284295287" rms="0.0e+00" purity="0.0e+00" nType="-99" /></Node></BinaryTree><BinaryTree type="DecisionTree" boostWeight="1.0e+00" itree="135"><Node pos="s" depth="0" NCoef="0" IVar="2" Cut="1.58247757" cType="1" res="0.0e+00" rms="0.0e+00" purity="0.0e+00" nType="0"><Node pos="l" depth="1" NCoef="0" IVar="-1" Cut="0.0e+00" cType="1" res="-0.0140627166" rms="0.0e+00" purity="0.0e+00" nType="-99" /><Node pos="r" depth="1" NCoef="0" IVar="-1" Cut="0.0e+00" cType="1" res="0.0168366916" rms="0.0e+00" purity="0.0e+00" nType="-99" /></Node></BinaryTree><BinaryTree type="DecisionTree" boostWeight="1.0e+00" itree="136"><Node pos="s" depth="0" NCoef="0" IVar="-1" Cut="0.0e+00" cType="1" res="-0.0024298816" rms="0.0e+00" purity="0.0e+00" nType="-99" /></BinaryTree><BinaryTree type="DecisionTree" boostWeight="1.0e+00" itree="137"><Node pos="s" depth="0" NCoef="0" IVar="9" Cut="0.00295849983" cType="1" res="0.0e+00" rms="0.0e+00" purity="0.0e+00" nType="0"><Node pos="l" depth="1" NCoef="0" IVar="-1" Cut="0.0e+00" cType="1" res="0.0307210125" rms="0.0e+00" purity="0.0e+00" nType="-99" /><Node pos="r" depth="1" NCoef="0" IVar="-1" Cut="0.0e+00" cType="1" res="-0.0251729526" rms="0.0e+00" purity="0.0e+00" nType="-99" /></Node></BinaryTree><BinaryTree type="DecisionTree" boostWeight="1.0e+00" itree="138"><Node pos="s" depth="0" NCoef="0" IVar="0" Cut="1.72732759" cType="1" res="0.0e+00" rms="0.0e+00" purity="0.0e+00" nType="0"><Node pos="l" depth="1" NCoef="0" IVar="-1" Cut="0.0e+00" cType="1" res="-0.0133292889" rms="0.0e+00" purity="0.0e+00" nType="-99" /><Node pos="r" depth="1" NCoef="0" IVar="-1" Cut="0.0e+00" cType="1" res="0.0148112932" rms="0.0e+00" purity="0.0e+00" nType="-99" /></Node></BinaryTree><BinaryTree type="DecisionTree" boostWeight="1.0e+00" itree="139"><Node pos="s" depth="0" NCoef="0" IVar="-1" Cut="0.0e+00" cType="1" res="-0.00173481274" rms="0.0e+00" purity="0.0e+00" nType="-99" /></BinaryTree><BinaryTree type="DecisionTree" boostWeight="1.0e+00" itree="140"><Node pos="s" depth="0" NCoef="0" IVar="4" Cut="0.149594992" cType="1" res="0.0e+00" rms="0.0e+00" purity="0.0e+00" nType="0"><Node pos="l" depth="1" NCoef="0" IVar="-1" Cut="0.0e+00" cType="1" res="0.0286338311" rms="0.0e+00" purity="0.0e+00" nType="-99" /><Node pos="r" depth="1" NCoef="0" IVar="-1" Cut="0.0e+00" cType="1" res="-0.0250121895" rms="0.0e+00" purity="0.0e+00" nType="-99" /></Node></BinaryTree><BinaryTree type="DecisionTree" boostWeight="1.0e+00" itree="141"><Node pos="s" depth="0" NCoef="0" IVar="0" Cut="1.72732759" cType="1" res="0.0e+00" rms="0.0e+00" purity="0.0e+00" nType="0"><Node pos="l" depth="1" NCoef="0" IVar="-1" Cut="0.0e+00" cType="1" res="-0.0125979176" rms="0.0e+00" purity="0.0e+00" nType="-99" /><Node pos="r" depth="1" NCoef="0" IVar="-1" Cut="0.0e+00" cType="1" res="0.0139006563" rms="0.0e+00" purity="0.0e+00" nType="-99" /></Node></BinaryTree><BinaryTree type="DecisionTree" boostWeight="1.0e+00" itree="142"><Node pos="s" depth="0" NCoef="0" IVar="-1" Cut="0.0e+00" cType="1" res="-0.00168526988" rms="0.0e+00" purity="0.0e+00" nType="-99" /></BinaryTree><BinaryTree type="DecisionTree" boostWeight="1.0e+00" itree="143"><Node pos="s" depth="0" NCoef="0" IVar="21" Cut="0.167413503" cType="1" res="0.0e+00" rms="0.0e+00" purity="0.0e+00" nType="0"><Node pos="l" depth="1" NCoef="0" IVar="-1" Cut="0.0e+00" cType="1" res="-0.0244014729" rms="0.0e+00" purity="0.0e+00" nType="-99" /><Node pos="r" depth="1" NCoef="0" IVar="-1" Cut="0.0e+00" cType="1" res="0.0290670637" rms="0.0e+00" purity="0.0e+00" nType="-99" /></Node></BinaryTree><BinaryTree type="DecisionTree" boostWeight="1.0e+00" itree="144"><Node pos="s" depth="0" NCoef="0" IVar="-1" Cut="0.0e+00" cType="1" res="0.00113329093" rms="0.0e+00" purity="0.0e+00" nType="-99" /></BinaryTree><BinaryTree type="DecisionTree" boostWeight="1.0e+00" itree="145"><Node pos="s" depth="0" NCoef="0" IVar="-1" Cut="0.0e+00" cType="1" res="-0.00205289409" rms="0.0e+00" purity="0.0e+00" nType="-99" /></BinaryTree><BinaryTree type="DecisionTree" boostWeight="1.0e+00" itree="146"><Node pos="s" depth="0" NCoef="0" IVar="9" Cut="0.00295849983" cType="1" res="0.0e+00" rms="0.0e+00" purity="0.0e+00" nType="0"><Node pos="l" depth="1" NCoef="0" IVar="-1" Cut="0.0e+00" cType="1" res="0.0298241694" rms="0.0e+00" purity="0.0e+00" nType="-99" /><Node pos="r" depth="1" NCoef="0" IVar="-1" Cut="0.0e+00" cType="1" res="-0.0245273355" rms="0.0e+00" purity="0.0e+00" nType="-99" /></Node></BinaryTree><BinaryTree type="DecisionTree" boostWeight="1.0e+00" itree="147"><Node pos="s" depth="0" NCoef="0" IVar="-1" Cut="0.0e+00" cType="1" res="0.000399451354" rms="0.0e+00" purity="0.0e+00" nType="-99" /></BinaryTree><BinaryTree type="DecisionTree" boostWeight="1.0e+00" itree="148"><Node pos="s" depth="0" NCoef="0" IVar="-1" Cut="0.0e+00" cType="1" res="-0.00139221502" rms="0.0e+00" purity="0.0e+00" nType="-99" /></BinaryTree><BinaryTree type="DecisionTree" boostWeight="1.0e+00" itree="149"><Node pos="s" depth="0" NCoef="0" IVar="21" Cut="0.167413503" cType="1" res="0.0e+00" rms="0.0e+00" purity="0.0e+00" nType="0"><Node pos="l" depth="1" NCoef="0" IVar="-1" Cut="0.0e+00" cType="1" res="-0.023189405" rms="0.0e+00" purity="0.0e+00" nType="-99" /><Node pos="r" depth="1" NCoef="0" IVar="-1" Cut="0.0e+00" cType="1" res="0.0278926287" rms="0.0e+00" purity="0.0e+00" nType="-99" /></Node></BinaryTree><BinaryTree type="DecisionTree" boostWeight="1.0e+00" itree="150"><Node pos="s" depth="0" NCoef="0" IVar="-1" Cut="0.0e+00" cType="1" res="0.000707354397" rms="0.0e+00" purity="0.0e+00" nType="-99" /></BinaryTree><BinaryTree type="DecisionTree" boostWeight="1.0e+00" itree="151"><Node pos="s" depth="0" NCoef="0" IVar="-1" Cut="0.0e+00" cType="1" res="-0.00174667605" rms="0.0e+00" purity="0.0e+00" nType="-99" /></BinaryTree><BinaryTree type="DecisionTree" boostWeight="1.0e+00" itree="152"><Node pos="s" depth="0" NCoef="0" IVar="4" Cut="0.149594992" cType="1" res="0.0e+00" rms="0.0e+00" purity="0.0e+00" nType="0"><Node pos="l" depth="1" NCoef="0" IVar="-1" Cut="0.0e+00" cType="1" res="0.0279088281" rms="0.0e+00" purity="0.0e+00" nType="-99" /><Node pos="r" depth="1" NCoef="0" IVar="-1" Cut="0.0e+00" cType="1" res="-0.0240674037" rms="0.0e+00" purity="0.0e+00" nType="-99" /></Node></BinaryTree><BinaryTree type="DecisionTree" boostWeight="1.0e+00" itree="153"><Node pos="s" depth="0" NCoef="0" IVar="-1" Cut="0.0e+00" cType="1" res="0.00061979756" rms="0.0e+00" purity="0.0e+00" nType="-99" /></BinaryTree><BinaryTree type="DecisionTree" boostWeight="1.0e+00" itree="154"><Node pos="s" depth="0" NCoef="0" IVar="-1" Cut="0.0e+00" cType="1" res="-0.00164528436" rms="0.0e+00" purity="0.0e+00" nType="-99" /></BinaryTree><BinaryTree type="DecisionTree" boostWeight="1.0e+00" itree="155"><Node pos="s" depth="0" NCoef="0" IVar="21" Cut="0.167413503" cType="1" res="0.0e+00" rms="0.0e+00" purity="0.0e+00" nType="0"><Node pos="l" depth="1" NCoef="0" IVar="-1" Cut="0.0e+00" cType="1" res="-0.0220694821" rms="0.0e+00" purity="0.0e+00" nType="-99" /><Node pos="r" depth="1" NCoef="0" IVar="-1" Cut="0.0e+00" cType="1" res="0.026659172" rms="0.0e+00" purity="0.0e+00" nType="-99" /></Node></BinaryTree><BinaryTree type="DecisionTree" boostWeight="1.0e+00" itree="156"><Node pos="s" depth="0" NCoef="0" IVar="-1" Cut="0.0e+00" cType="1" res="0.000872368691" rms="0.0e+00" purity="0.0e+00" nType="-99" /></BinaryTree><BinaryTree type="DecisionTree" boostWeight="1.0e+00" itree="157"><Node pos="s" depth="0" NCoef="0" IVar="-1" Cut="0.0e+00" cType="1" res="-0.00193449587" rms="0.0e+00" purity="0.0e+00" nType="-99" /></BinaryTree><BinaryTree type="DecisionTree" boostWeight="1.0e+00" itree="158"><Node pos="s" depth="0" NCoef="0" IVar="4" Cut="0.149594992" cType="1" res="0.0e+00" rms="0.0e+00" purity="0.0e+00" nType="0"><Node pos="l" depth="1" NCoef="0" IVar="-1" Cut="0.0e+00" cType="1" res="0.0265618563" rms="0.0e+00" purity="0.0e+00" nType="-99" /><Node pos="r" depth="1" NCoef="0" IVar="-1" Cut="0.0e+00" cType="1" res="-0.022820266" rms="0.0e+00" purity="0.0e+00" nType="-99" /></Node></BinaryTree><BinaryTree type="DecisionTree" boostWeight="1.0e+00" itree="159"><Node pos="s" depth="0" NCoef="0" IVar="-1" Cut="0.0e+00" cType="1" res="0.000752529246" rms="0.0e+00" purity="0.0e+00" nType="-99" /></BinaryTree><BinaryTree type="DecisionTree" boostWeight="1.0e+00" itree="160"><Node pos="s" depth="0" NCoef="0" IVar="-1" Cut="0.0e+00" cType="1" res="-0.00179267861" rms="0.0e+00" purity="0.0e+00" nType="-99" /></BinaryTree><BinaryTree type="DecisionTree" boostWeight="1.0e+00" itree="161"><Node pos="s" depth="0" NCoef="0" IVar="12" Cut="768" cType="1" res="0.0e+00" rms="0.0e+00" purity="0.0e+00" nType="0"><Node pos="l" depth="1" NCoef="0" IVar="-1" Cut="0.0e+00" cType="1" res="-0.0231125038" rms="0.0e+00" purity="0.0e+00" nType="-99" /><Node pos="r" depth="1" NCoef="0" IVar="-1" Cut="0.0e+00" cType="1" res="0.0245999955" rms="0.0e+00" purity="0.0e+00" nType="-99" /></Node></BinaryTree><BinaryTree type="DecisionTree" boostWeight="1.0e+00" itree="162"><Node pos="s" depth="0" NCoef="0" IVar="-1" Cut="0.0e+00" cType="1" res="0.000960221456" rms="0.0e+00" purity="0.0e+00" nType="-99" /></BinaryTree><BinaryTree type="DecisionTree" boostWeight="1.0e+00" itree="163"><Node pos="s" depth="0" NCoef="0" IVar="-1" Cut="0.0e+00" cType="1" res="-0.00187517365" rms="0.0e+00" purity="0.0e+00" nType="-99" /></BinaryTree><BinaryTree type="DecisionTree" boostWeight="1.0e+00" itree="164"><Node pos="s" depth="0" NCoef="0" IVar="4" Cut="0.149594992" cType="1" res="0.0e+00" rms="0.0e+00" purity="0.0e+00" nType="0"><Node pos="l" depth="1" NCoef="0" IVar="-1" Cut="0.0e+00" cType="1" res="0.0250141099" rms="0.0e+00" purity="0.0e+00" nType="-99" /><Node pos="r" depth="1" NCoef="0" IVar="-1" Cut="0.0e+00" cType="1" res="-0.0214993227" rms="0.0e+00" purity="0.0e+00" nType="-99" /></Node></BinaryTree><BinaryTree type="DecisionTree" boostWeight="1.0e+00" itree="165"><Node pos="s" depth="0" NCoef="0" IVar="-1" Cut="0.0e+00" cType="1" res="0.00081894797" rms="0.0e+00" purity="0.0e+00" nType="-99" /></BinaryTree><BinaryTree type="DecisionTree" boostWeight="1.0e+00" itree="166"><Node pos="s" depth="0" NCoef="0" IVar="-1" Cut="0.0e+00" cType="1" res="-0.00173158653" rms="0.0e+00" purity="0.0e+00" nType="-99" /></BinaryTree><BinaryTree type="DecisionTree" boostWeight="1.0e+00" itree="167"><Node pos="s" depth="0" NCoef="0" IVar="12" Cut="768" cType="1" res="0.0e+00" rms="0.0e+00" purity="0.0e+00" nType="0"><Node pos="l" depth="1" NCoef="0" IVar="-1" Cut="0.0e+00" cType="1" res="-0.0217984337" rms="0.0e+00" purity="0.0e+00" nType="-99" /><Node pos="r" depth="1" NCoef="0" IVar="-1" Cut="0.0e+00" cType="1" res="0.0232080966" rms="0.0e+00" purity="0.0e+00" nType="-99" /></Node></BinaryTree><BinaryTree type="DecisionTree" boostWeight="1.0e+00" itree="168"><Node pos="s" depth="0" NCoef="0" IVar="-1" Cut="0.0e+00" cType="1" res="0.000992030022" rms="0.0e+00" purity="0.0e+00" nType="-99" /></BinaryTree><BinaryTree type="DecisionTree" boostWeight="1.0e+00" itree="169"><Node pos="s" depth="0" NCoef="0" IVar="-1" Cut="0.0e+00" cType="1" res="-0.00180214911" rms="0.0e+00" purity="0.0e+00" nType="-99" /></BinaryTree><BinaryTree type="DecisionTree" boostWeight="1.0e+00" itree="170"><Node pos="s" depth="0" NCoef="0" IVar="4" Cut="0.149594992" cType="1" res="0.0e+00" rms="0.0e+00" purity="0.0e+00" nType="0"><Node pos="l" depth="1" NCoef="0" IVar="-1" Cut="0.0e+00" cType="1" res="0.0235922318" rms="0.0e+00" purity="0.0e+00" nType="-99" /><Node pos="r" depth="1" NCoef="0" IVar="-1" Cut="0.0e+00" cType="1" res="-0.0202543419" rms="0.0e+00" purity="0.0e+00" nType="-99" /></Node></BinaryTree><BinaryTree type="DecisionTree" boostWeight="1.0e+00" itree="171"><Node pos="s" depth="0" NCoef="0" IVar="-1" Cut="0.0e+00" cType="1" res="0.000838625769" rms="0.0e+00" purity="0.0e+00" nType="-99" /></BinaryTree><BinaryTree type="DecisionTree" boostWeight="1.0e+00" itree="172"><Node pos="s" depth="0" NCoef="0" IVar="-1" Cut="0.0e+00" cType="1" res="-0.00165967655" rms="0.0e+00" purity="0.0e+00" nType="-99" /></BinaryTree><BinaryTree type="DecisionTree" boostWeight="1.0e+00" itree="173"><Node pos="s" depth="0" NCoef="0" IVar="12" Cut="768" cType="1" res="0.0e+00" rms="0.0e+00" purity="0.0e+00" nType="0"><Node pos="l" depth="1" NCoef="0" IVar="-1" Cut="0.0e+00" cType="1" res="-0.0205618106" rms="0.0e+00" purity="0.0e+00" nType="-99" /><Node pos="r" depth="1" NCoef="0" IVar="-1" Cut="0.0e+00" cType="1" res="0.0219278056" rms="0.0e+00" purity="0.0e+00" nType="-99" /></Node></BinaryTree><BinaryTree type="DecisionTree" boostWeight="1.0e+00" itree="174"><Node pos="s" depth="0" NCoef="0" IVar="-1" Cut="0.0e+00" cType="1" res="0.000986086088" rms="0.0e+00" purity="0.0e+00" nType="-99" /></BinaryTree><BinaryTree type="DecisionTree" boostWeight="1.0e+00" itree="175"><Node pos="s" depth="0" NCoef="0" IVar="-1" Cut="0.0e+00" cType="1" res="-0.0017214421" rms="0.0e+00" purity="0.0e+00" nType="-99" /></BinaryTree><BinaryTree type="DecisionTree" boostWeight="1.0e+00" itree="176"><Node pos="s" depth="0" NCoef="0" IVar="12" Cut="768" cType="1" res="0.0e+00" rms="0.0e+00" purity="0.0e+00" nType="0"><Node pos="l" depth="1" NCoef="0" IVar="-1" Cut="0.0e+00" cType="1" res="-0.0190220848" rms="0.0e+00" purity="0.0e+00" nType="-99" /><Node pos="r" depth="1" NCoef="0" IVar="-1" Cut="0.0e+00" cType="1" res="0.0202512816" rms="0.0e+00" purity="0.0e+00" nType="-99" /></Node></BinaryTree><BinaryTree type="DecisionTree" boostWeight="1.0e+00" itree="177"><Node pos="s" depth="0" NCoef="0" IVar="-1" Cut="0.0e+00" cType="1" res="0.00109119096" rms="0.0e+00" purity="0.0e+00" nType="-99" /></BinaryTree><BinaryTree type="DecisionTree" boostWeight="1.0e+00" itree="178"><Node pos="s" depth="0" NCoef="0" IVar="-1" Cut="0.0e+00" cType="1" res="-0.00175197236" rms="0.0e+00" purity="0.0e+00" nType="-99" /></BinaryTree><BinaryTree type="DecisionTree" boostWeight="1.0e+00" itree="179"><Node pos="s" depth="0" NCoef="0" IVar="12" Cut="768" cType="1" res="0.0e+00" rms="0.0e+00" purity="0.0e+00" nType="0"><Node pos="l" depth="1" NCoef="0" IVar="-1" Cut="0.0e+00" cType="1" res="-0.017597476" rms="0.0e+00" purity="0.0e+00" nType="-99" /><Node pos="r" depth="1" NCoef="0" IVar="-1" Cut="0.0e+00" cType="1" res="0.0187051892" rms="0.0e+00" purity="0.0e+00" nType="-99" /></Node></BinaryTree><BinaryTree type="DecisionTree" boostWeight="1.0e+00" itree="180"><Node pos="s" depth="0" NCoef="0" IVar="-1" Cut="0.0e+00" cType="1" res="0.00116173737" rms="0.0e+00" purity="0.0e+00" nType="-99" /></BinaryTree><BinaryTree type="DecisionTree" boostWeight="1.0e+00" itree="181"><Node pos="s" depth="0" NCoef="0" IVar="-1" Cut="0.0e+00" cType="1" res="-0.00175737555" rms="0.0e+00" purity="0.0e+00" nType="-99" /></BinaryTree><BinaryTree type="DecisionTree" boostWeight="1.0e+00" itree="182"><Node pos="s" depth="0" NCoef="0" IVar="12" Cut="768" cType="1" res="0.0e+00" rms="0.0e+00" purity="0.0e+00" nType="0"><Node pos="l" depth="1" NCoef="0" IVar="-1" Cut="0.0e+00" cType="1" res="-0.0162795037" rms="0.0e+00" purity="0.0e+00" nType="-99" /><Node pos="r" depth="1" NCoef="0" IVar="-1" Cut="0.0e+00" cType="1" res="0.0172792822" rms="0.0e+00" purity="0.0e+00" nType="-99" /></Node></BinaryTree><BinaryTree type="DecisionTree" boostWeight="1.0e+00" 